tree
version=v4
num_class=1
num_tree_per_iteration=1
label_index=0
max_feature_idx=46
objective=quantile
feature_names=Column_0 Column_1 Column_2 Column_3 Column_4 Column_5 Column_6 Column_7 Column_8 Column_9 Column_10 Column_11 Column_12 Column_13 Column_14 Column_15 Column_16 Column_17 Column_18 Column_19 Column_20 Column_21 Column_22 Column_23 Column_24 Column_25 Column_26 Column_27 Column_28 Column_29 Column_30 Column_31 Column_32 Column_33 Column_34 Column_35 Column_36 Column_37 Column_38 Column_39 Column_40 Column_41 Column_42 Column_43 Column_44 Column_45 Column_46
feature_infos=[-0.28488168120384216:158.85971069335938] [-0.28412732481956482:76.793212890625] [-0.28346124291419983:125.563232421875] [-0.28169348835945129:48.230735778808594] [-0.32462787628173828:119.44225311279297] [-0.33701848983764648:104.2943115234375] [-0.48244228959083557:63.33642578125] [-1.7310736179351807:1.7310736179351807] [-1.5784550905227661:1.6259156465530396] [-1.3792937994003296:1.3780460357666016] [-1.2747400999069214:1.4138048887252808] [-1.498625636100769:1.5003180503845215] [-1.642849326133728:1.6247442960739136] [-0.96994543075561523:11.584277153015137] [-1.8420482873916626:0.54287391901016235] [0:10.137248039245605] [0:0.79111999273300171] [0:1.0985912084579468] [0.032591145485639572:7.5186514854431152] [0:10.707796096801758] [0:0.67488765716552734] [0:1.7548061609268188] [0:7.5433182716369629] [0.043757162988185883:10.694111824035645] [0:1.7021725177764893] [0:1.5827033519744873] [0:4.5458593368530273] [0:0.44384366273880005] [0:10.429836273193359] [0.099834322929382324:14.972973823547363] [0:29.846057891845703] [0:17.071277618408203] [0:0.55029547214508057] [0:0.7358819842338562] [0:10.144794464111328] [0:11.567427635192871] [0:2.5159878730773926] [0:10.650430679321289] [0.03847050666809082:8.6599617004394531] [0:0.7667662501335144] [0:14.751423835754395] [0:1.1050832271575928] [0.13912069797515869:9.2417535781860352] [0:0.3819122314453125] [0:0.7875218391418457] [0:0.91445553302764893] [0:0.90082848072052002]
tree_sizes=6532 6602 6640 6635 6637 6644 6658 6655 6661 6657 6660 6647 6644 6679 6656 6665 6655 6663 6638 6671 6647 6670 6651 6636 6700 6700 6686 6704 6682 6693 6704 6706 6716 6679 6759 6773 6759 6731 6727 6756 6735 6707 6718 6770 6751 6759 6711 6717 6731 6777 6722 6776 6772 6775 6759 6770 6761 6762 6786 6785 6779 6764 6725 6735 6738 6739 6707 6747 6735 6716 6728 6712 6736 6715 6733 6712 6706 6661 6716 6726 6698 6694 6714 6687 6698 6695 6707 6665 6672 6711 6703 6682 6695 6698 6660 6681 6690 6682 6676 6700 6726 6726 6761 6730 6719 6758 6718 6731 6738 6752 6747 6739 6750 6742 6770 6803 6768 6767 6764 6772 6758 6769 6770 6756 6742 6752 6755 6750 6761 6772 6748 6773 6780 6776 6766 6744 6784 6725 6820 6811 6813 6790 6780 6779 6782 6831 6755 6837 6791 6827 6824 6782 6837 6774 6739 6790 6718 6758 6740 6789 6768 6822 6776 6773 6792 6742 6775 6766 6750 6767 6789 6734 6773 6711 6707 6720 6735 6696 6730 6734 6690 6673 6660 6727 6691 6682 6716 6670 6668 6678 6650 6698 6702 6676 6673 6729 6712 6719 6673 6696

Tree=0
num_leaves=64
num_cat=0
split_feature=5 4 5 26 26 29 5 5 5 46 5 26 26 26 28 0 5 26 4 46 29 4 26 46 4 5 5 44 5 5 26 46 5 5 5 29 44 0 5 15 0 5 5 4 4 26 5 6 5 46 5 20 29 36 13 46 15 15 43 26 35 20 20
split_gain=2.54665e+06 289504 260832 48969.4 45286.5 39744.3 30889.2 24502.7 16118.6 14397.9 13403.2 11596.2 8597.6 7555.88 7540.44 6577.22 5307.78 5166.3 4612.81 4008.82 4387.52 3718.1 3173.24 2790.76 2569.57 2445.69 2437.41 2391.44 2371.2 2157.91 2110.16 1984.97 1873.74 1867.87 1770.03 1517.11 1489.6 1415.29 1325.62 1314.02 1297.2 1215.97 1135.5 1115.71 1039.27 1037.87 975.656 900.059 838.229 753.326 745.375 744.669 743.599 719.775 717.345 703.733 699.095 681.559 680.299 649.419 644.141 642.457 639.693
threshold=0.064521178603172316 0.57666298747062694 -0.17750272154808042 0.18328383564949038 0.096075978130102171 0.8275497853755952 -0.067491851747035966 -0.26551140844821924 0.32854726910591131 0.065947871655225768 0.25153966993093496 0.083612978458404555 0.046490343287587173 0.037308637052774436 0.55644828081130993 -0.15653926227241752 1.2746407985687258 0.31194664537906652 0.1993784308433533 0.034323494881391532 0.72302025556564342 -0.052144586108624928 0.1813902631402016 0.032607639208436019 0.45090144872665411 -0.33151793479919428 0.50456464290618908 0.15528710186481479 0.73558744788169872 0.41655594110488897 0.00064304174156859528 0.15368687361478808 -0.1224972829222679 1.0000000180025095e-35 0.15252986550331118 1.0708141922950747 0.14285711199045184 -0.15653926227241752 0.1965342313051224 0.26933158934116369 -0.15653926227241752 0.18553315103054049 -0.22150707244873044 -0.30366761982440943 0.1993784308433533 0.17587895691394809 -0.1224972829222679 1.7318507432937624 0.4825624823570252 0.010386120993644001 0.51556575298309337 1.0000000180025095e-35 0.5561586618423463 1.0000000180025095e-35 -0.76161211729049672 0.1353266388177872 0.66075754165649425 0.46500685811042791 1.0000000180025095e-35 0.23238495737314227 0.33710163831710821 1.0000000180025095e-35 1.0000000180025095e-35
decision_type=2 2 2 2 2 2 2 2 2 2 2 2 2 2 2 2 2 2 2 2 2 2 2 2 2 2 2 2 2 2 2 2 2 2 2 2 2 2 2 2 2 2 2 2 2 2 2 2 2 2 2 2 2 2 2 2 2 2 2 2 2 2 2
left_child=2 4 3 7 9 14 12 13 22 10 34 23 32 25 26 31 36 44 46 20 48 30 38 33 45 58 47 -15 59 61 42 -7 -4 52 51 54 -17 -30 -6 -23 -28 -24 -9 -11 -5 -13 -14 -3 -10 -34 -22 -2 -8 -27 -18 -21 -19 -20 -1 -16 -31 -12 -36
right_child=1 5 6 17 8 15 11 21 19 43 29 24 18 27 28 16 35 56 57 55 50 39 41 -25 -26 53 40 -29 37 60 -32 -33 49 -35 62 -37 -38 -39 -40 -41 -42 -43 -44 -45 -46 -47 -48 -49 -50 -51 -52 -53 -54 -55 -56 -57 -58 -59 -60 -61 -62 -63 -64
leaf_value=0.69314718246459961 0.7053111362457275 0.71394159793853762 0.69314718246459961 0.7053111362457275 0.7053111362457275 0.73826950550079351 0.69314718246459961 0.6723527669906616 0.71394159793853762 0.6723527669906616 0.71394159793853762 0.7053111362457275 0.69314718246459961 0.69314718246459961 0.72063590526580812 0.73473601341247563 0.74930124521255492 0.72610555171966551 0.7053111362457275 0.72063590526580812 0.72063590526580812 0.69314718246459961 0.71394159793853762 0.6723527669906616 0.72610555171966551 0.6723527669906616 0.72610555171966551 0.69314718246459961 0.7307300698757172 0.71394159793853762 0.69314718246459961 0.7307300698757172 0.69314718246459961 0.7053111362457275 0.71394159793853762 0.76508404254913331 0.7307300698757172 0.7307300698757172 0.71394159793853762 0.7053111362457275 0.72610555171966551 0.71394159793853762 0.69314718246459961 0.7053111362457275 0.72063590526580812 0.7053111362457275 0.69314718246459961 0.71394159793853762 0.72063590526580812 0.6723527669906616 0.72610555171966551 0.7053111362457275 0.7053111362457275 0.6723527669906616 0.74143032073974613 0.7053111362457275 0.74930124521255492 0.72063590526580812 0.6723527669906616 0.72610555171966551 0.72063590526580812 0.71394159793853762 0.7053111362457275
leaf_weight=71389 280458 161098 2507551 95647 590805 71438 1054455 3263434 402273 160428 179394 827304 727168 159351 300853 675210 81361 44425 38951 68198 326479 165841 318663 158088 37508 315688 120534 359229 47552 125357 1754687 16775 1654863 1182565 204293 980798 38068 637694 508184 106186 376095 338257 2255164 123200 24913 333933 756095 49500 335863 126217 348121 854090 640471 7089226 687891 23844 31166 27170 17463944 131247 213177 413794 564659
leaf_count=71389 280458 161098 2507551 95647 590805 71438 1054455 3263434 402273 160428 179394 827304 727168 159351 300853 675210 81361 44425 38951 68198 326479 165841 318663 158088 37508 315688 120534 359229 47552 125357 1754687 16775 1654863 1182565 204293 980798 38068 637694 508184 106186 376095 338257 2255164 123200 24913 333933 756095 49500 335863 126217 348121 854090 640471 7089226 687891 23844 31166 27170 17463944 131247 213177 413794 564659
internal_value=0.691087 0.704151 0.68784 0.686557 0.700075 0.710094 0.692068 0.686468 0.702547 0.69749 0.698135 0.694019 0.690653 0.686023 0.706713 0.712511 0.7128 0.701502 0.692569 0.704825 0.70522 0.687969 0.700594 0.693032 0.696517 0.685948 0.704289 0.689607 0.708247 0.701083 0.687841 0.704462 0.689961 0.693246 0.696692 0.713689 0.710618 0.709345 0.699608 0.691413 0.705436 0.702244 0.687552 0.691046 0.697647 0.696268 0.692223 0.701584 0.703622 0.690705 0.706969 0.695939 0.692607 0.686406 0.712691 0.698759 0.707651 0.700322 0.685755 0.706507 0.702994 0.699992 0.697803
internal_weight=5.40283e+07 1.07557e+07 4.32726e+07 3.32003e+07 6.37954e+06 4.37611e+06 1.00723e+07 3.30041e+07 3.26069e+06 3.11885e+06 2.83522e+06 4.23432e+06 5.83802e+06 2.54588e+07 1.82457e+06 2.55154e+06 2.46333e+06 196151 1.54938e+06 1.50478e+06 1.41274e+06 7.54531e+06 1.75591e+06 3.03558e+06 1.19874e+06 2.49402e+07 707227 518580 1.11735e+06 931722 7.27328e+06 88213 4.28863e+06 2.87749e+06 1.9035e+06 1.75005e+06 713278 685246 1.09899e+06 272027 496629 656920 5.5186e+06 283628 120560 1.16124e+06 1.48326e+06 210598 738136 1.78108e+06 674600 1.13455e+06 1.69493e+06 7.40491e+06 769252 92042 75591 66121 1.75353e+07 432100 338534 593188 768952
internal_count=54028280 10755651 43272629 33200290 6379537 4376114 10072339 33004139 3260687 3118850 2835222 4234324 5838015 25458827 1824573 2551541 2463328 196151 1549384 1504778 1412736 7545312 1755909 3035579 1198745 24940247 707227 518580 1117346 931722 7273285 88213 4288631 2877491 1903500 1750050 713278 685246 1098989 272027 496629 656920 5518598 283628 120560 1161237 1483263 210598 738136 1781080 674600 1134548 1694926 7404914 769252 92042 75591 66121 17535333 432100 338534 593188 768952
is_linear=0
shrinkage=1


Tree=1
num_leaves=64
num_cat=0
split_feature=5 4 4 5 5 26 29 4 46 26 5 5 26 26 28 0 5 5 26 5 29 26 46 29 5 4 15 26 13 5 8 44 29 26 46 26 5 5 26 5 44 29 5 26 27 0 5 5 17 5 44 29 26 20 5 4 15 5 44 5 26 46 5
split_gain=2.24807e+06 299622 234508 73051.1 39949.3 37822.8 34666.4 25773.5 13920.7 13879 12763.3 10589 10174.4 7168.17 6569.87 6468.67 5505.55 8968.18 5249.66 9820.17 4765.29 4213.87 4053.28 4047.1 3891.95 3037.55 2977.67 2943.9 2934.6 2578.5 2458.16 2310.58 2065.54 2065.26 1905.54 1867.93 1830.75 1813.25 1770.62 1681.99 1591.98 1457.39 1437.22 2832.55 1437.01 1329.44 1290.95 1249.62 1159.23 1079.87 1070.28 967.435 964.974 952.077 903.218 901.62 892.724 892.228 789.921 772.913 728.032 723.103 718.285
threshold=0.10852554440498353 -0.30366761982440943 0.61858350038528453 -0.067491851747035966 -0.33151793479919428 0.10104775801301004 0.8275497853755952 0.1993784308433533 0.065947871655225768 0.091159351170063033 0.36155053973197943 0.3175461888313294 0.12488494068384172 0.13723944872617724 0.56053820252418529 -0.15653926227241752 -0.22150707244873044 -0.1444994658231735 0.00064304174156859528 -0.26551140844821924 0.98724260926246654 0.24056714773178103 0.032255470752716071 0.72733980417251598 0.009515753714367749 0.45090144872665411 0.075989067554473891 0.1813902631402016 -0.96281075477600087 -0.29851467907428736 -1.5387613177299497 0.14519114792346957 0.63325291872024547 0.0063363404478877791 0.15542745590209964 0.023710865527391437 0.73558744788169872 0.1965342313051224 0.24378787726163867 0.020516853313893083 0.094861160963773741 0.68488040566444408 -0.26551140844821924 0.037308637052774436 0.0056663050781935462 -0.15653926227241752 -0.22150707244873044 -0.1224972829222679 0.056570930406451232 -0.29851467907428736 0.17354781925678256 0.56582853198051464 0.31194664537906652 1.0000000180025095e-35 0.21853639185428622 1.0377885699272158 0.31470479071140295 0.21853639185428622 0.13545359671115878 0.59257334470748912 0.17587895691394809 0.13114900887012484 0.52656683325767528
decision_type=2 2 2 2 2 2 2 2 2 2 2 2 2 2 2 2 2 2 2 2 2 2 2 2 2 2 2 2 2 2 2 2 2 2 2 2 2 2 2 2 2 2 2 2 2 2 2 2 2 2 2 2 2 2 2 2 2 2 2 2 2 2 2
left_child=1 4 5 7 12 8 14 13 11 24 27 37 28 16 32 34 18 33 19 26 40 56 23 62 51 39 49 54 -1 -6 -30 -20 -4 -18 -8 -19 -16 -2 58 -11 55 -13 43 -33 -21 -38 -31 -48 -10 -3 -22 -5 -14 -26 -7 -17 -9 -29 -15 -34 -41 -24 -12
right_child=2 3 6 9 29 10 15 21 48 25 22 41 52 38 36 20 17 35 31 44 50 -23 61 -25 53 -27 -28 57 30 46 -32 42 59 -35 -36 -37 45 -39 -40 60 -42 -43 -44 -45 -46 -47 47 -49 -50 -51 -52 -53 -54 -55 -56 -57 -58 -59 -60 -61 -62 -63 -64
leaf_value=-0.020170583009719849 0.011799035167694092 -0.020170583009719849 0.026499971723556517 0 -0.020170583009719849 0.020170583009719849 0.04376865334510803 0.011799035167694092 0.00062383246421814033 0.011799035167694092 0.020170583009719849 0.020170583009719849 0.020429496860504152 0.01216395378112793 0.031969618177413943 0.03633522248268127 0 0 0 -0.020170583009719849 0.06466907358169556 0.039904209065437318 0.02666406111717224 0.031969618177413943 0.011799035167694092 0.031969618177413943 -0.020170583009719849 0.020170583009719849 0 -0.020170583009719849 -0.020170583009719849 -0.020170583009719849 0.026864890336990355 0 0.03645540078878403 0 0.03645540078878403 0.011799035167694092 0.020429496860504152 0.011799035167694092 0.03633522248268127 0.02666406111717224 0 0 0.00062383246421814033 0.03645540078878403 -0.020794415473937986 -0.020170583009719849 -0.020170583009719849 -0.020170583009719849 0.047155651652812956 0.011799035167694092 0.043437701153755184 0.011799035167694092 0.020170583009719849 0.043874658107757564 0.020429496860504152 0.026499971723556517 0 0.031969618177413943 0.011799035167694092 0.011799035167694092 0.02666406111717224
leaf_weight=12298325 937020 991218 200476 1290552 2281188 437242 68116 40801 174874 711637 383749 453989 18906 159492 354006 347331 3246694 2115031 253594 942592 1364041 73772 63492 662233 397419 54383 1259601 289049 75791 1926497 5130456 377033 127523 1524548 16200 1153099 44162 731263 53345 436089 64374 259956 766752 331480 1647884 610142 519608 253496 86320 1272113 16270 706952 16502 1244825 493254 625812 63256 331506 387142 298581 244752 24066 296408
leaf_count=12298325 937020 991218 200476 1290552 2281188 437242 68116 40801 174874 711637 383749 453989 18906 159492 354006 347331 3246694 2115031 253594 942592 1364041 73772 63492 662233 397419 54383 1259601 289049 75791 1926497 5130456 377033 127523 1524548 16200 1153099 44162 731263 53345 436089 64374 259956 766752 331480 1647884 610142 519608 253496 86320 1272113 16270 706952 16502 1244825 493254 625812 63256 331506 387142 298581 244752 24066 296408
internal_value=-0.00123476 -0.00410841 0.0117968 -0.00159669 -0.00653372 0.0078089 0.0172185 -0.00255748 0.0051964 0.00155004 0.0101256 0.00591727 -0.00720703 -0.00268005 0.0138212 0.0194384 -0.00280165 -0.00335333 -0.00223611 -0.00182335 0.0197232 0.00880246 0.01217 0.0125779 0.000562028 0.00403552 -0.00285439 0.00824074 -0.00723953 -0.00416262 -0.00664252 -0.00369569 0.0114087 -0.0041826 0.0112701 -0.00214265 0.0153203 0.00460883 0.000538831 0.00376387 0.018187 0.00897471 -0.00415041 -0.00317631 -0.000421174 0.0162606 -0.00353516 -0.00457076 -0.00137834 -0.00350504 0.0208779 -0.000327469 0.00885817 0.00164395 0.0071734 0.0184893 0.00491406 0.00984117 2.97182e-05 0.0125902 0.00482984 0.00591602 0.0109525
internal_weight=5.40283e+07 4.42668e+07 9.76146e+06 2.17461e+07 2.25208e+07 5.62442e+06 4.13703e+06 1.66594e+07 2.64342e+06 5.08661e+06 2.981e+06 2.38223e+06 1.754e+07 1.64816e+07 1.63489e+06 2.50214e+06 1.58816e+07 8.03937e+06 7.84227e+06 6.11341e+06 2.41783e+06 177829 1.42995e+06 1.34239e+06 3.63975e+06 1.44686e+06 3.52293e+06 1.55105e+06 1.75046e+07 4.98079e+06 5.20625e+06 1.72886e+06 626580 4.77124e+06 84316 3.26813e+06 1.00831e+06 1.66828e+06 599979 1.39248e+06 1.03752e+06 713945 1.47526e+06 708513 2.59048e+06 654304 2.6996e+06 773104 261194 2.26333e+06 1.38031e+06 1.9975e+06 35408 1.64224e+06 930496 973143 104057 620555 546634 426104 680841 87558 680157
internal_count=54028280 44266825 9761455 21746056 22520769 5624421 4137034 16659447 2643422 5086609 2980999 2382228 17539980 16481618 1634890 2502144 15881639 8039372 7842267 6113408 2417828 177829 1429948 1342390 3639748 1446861 3522932 1551051 17504572 4980789 5206247 1728859 626580 4771242 84316 3268130 1008310 1668283 599979 1392478 1037517 713945 1475265 708513 2590476 654304 2699601 773104 261194 2263331 1380311 1997504 35408 1642244 930496 973143 104057 620555 546634 426104 680841 87558 680157
is_linear=0
shrinkage=0.03


Tree=2
num_leaves=64
num_cat=0
split_feature=5 5 4 5 26 26 29 26 46 5 5 26 4 28 0 13 29 5 5 5 26 5 46 29 26 5 4 4 26 6 7 26 29 6 26 46 5 5 5 44 4 5 26 29 5 15 26 36 4 46 44 0 4 15 44 17 26 20 5 4 5 26 4
split_gain=2.23549e+06 301056 234335 82517.5 44320.3 37709.9 34666.4 14985 13641.8 12763.3 10585.7 9771.08 9676.94 6569.87 6468.67 4845.1 4765.29 4662.3 5015.65 8364.88 6029.29 6829.26 4053.28 4047.1 3804.73 3589.51 3518.33 3106.28 2943.9 2665.91 2505.47 2282.23 2065.54 1906.06 2364.03 1905.54 1830.75 1814.88 1766.59 1591.98 1506.42 1485.2 2369.49 1466.47 1434.2 1388.45 1378.14 1376.07 1361.64 1351.92 1351.62 1329.44 1165.94 1276.31 1070.28 1031.91 927.547 905.932 903.218 901.62 892.228 853.896 816.114
threshold=0.10852554440498353 -0.32051683962345118 0.61858350038528453 -0.067491851747035966 0.14808963239192965 0.10104775801301004 0.8275497853755952 0.084606595337390914 0.070768643170595183 0.36155053973197943 0.3175461888313294 0.1411281302571297 -0.30366761982440943 0.56053820252418529 -0.15653926227241752 -0.96281075477600087 0.98724260926246654 -0.29851467907428736 -0.22150707244873044 -0.1444994658231735 0.00064304174156859528 -0.26551140844821924 0.032255470752716071 0.72733980417251598 0.31194664537906652 0.009515753714367749 0.1993784308433533 0.45090144872665411 0.1813902631402016 -0.37882249057292933 -1.6890429854393003 0.034297576174139983 0.63325291872024547 -0.48243986070156092 0.0063363404478877791 0.15542745590209964 0.73558744788169872 0.1965342313051224 0.020516853313893083 0.094861160963773741 0.11553743109107019 -0.26551140844821924 0.037308637052774436 0.68488040566444408 -0.33151793479919428 0.07775162905454637 0.26072351634502416 1.0000000180025095e-35 -0.052144586108624928 0.080868311226367964 0.18139421194791797 -0.15653926227241752 -0.30366761982440943 0.081277094781398787 0.17354781925678256 0.072829514741897597 0.018786964006721977 1.0000000180025095e-35 0.21853639185428622 1.0377885699272158 0.21853639185428622 0.15094651281833651 0.2412989288568497
decision_type=2 2 2 2 2 2 2 2 2 2 2 2 2 2 2 2 2 2 2 2 2 2 2 2 2 2 2 2 2 2 2 2 2 2 2 2 2 2 2 2 2 2 2 2 2 2 2 2 2 2 2 2 2 2 2 2 2 2 2 2 2 2 2
left_child=1 4 5 11 12 8 13 25 10 28 37 17 15 32 35 -1 39 47 20 33 21 52 23 -11 62 56 46 38 58 -23 -17 -21 -4 -20 -35 -8 -15 -2 -9 59 -36 42 -22 -12 -32 -31 -13 -3 -43 57 -14 -38 -19 -54 -18 -10 -5 -27 -7 -16 -30 -40 -6
right_child=2 3 6 7 24 9 14 27 55 22 43 26 50 36 16 30 54 18 19 31 41 29 -24 -25 -26 49 -28 -29 60 45 44 -33 -34 34 40 -37 51 -39 61 -41 -42 48 -44 -45 -46 -47 -48 -49 -50 -51 -52 -53 53 -55 -56 -57 -58 -59 -60 -61 -62 -63 -64
leaf_value=-0.019565465519428251 0.011445064112663269 0 0.025704972571849821 0 0.011799035167694092 0.019565465519428251 0.042455593744754785 0.011445064112663269 -0.00038363358736038134 0.025864139283657071 0.019565465519428251 0.011434116554260255 0 0.031010529632091523 0.035245165808200835 0 0.062729001374244683 -0.019565465519428251 -0.020170583009719849 0 -0.019565465519428251 -0.019565465519428251 0.025864139283657071 0.031010529632091523 0.042240574881792066 0.011445064112663269 0.026051176211357118 0.030751615781307213 0.019565465519428251 -0.019565465519428251 -0.019565465519428251 0 0.031010529632091523 0 0 0.035361738765120505 0.035361738765120505 0.011445064112663269 0.011445064112663269 0.035245165808200835 0.011799035167694092 0 0 0.025864139283657071 -0.019565465519428251 0.00060511749029159569 0.020181530568122864 -0.019565465519428251 0.011434116554260255 -0.019565465519428251 -0.019565465519428251 0.035361738765120505 -0.019565465519428251 -0.019565465519428251 0.045740982103228564 -0.019565465519428251 0.011445064112663269 0.011445064112663269 0.019565465519428251 0.042558418364524835 0.025704972571849821 0.011445064112663269 0.025466934845209118
leaf_weight=12298338 939516 177495 200476 1174431 56188 437242 68116 769728 187372 680157 456396 478944 141563 354006 347331 63996 1364041 1224441 458468 2491801 270493 701004 87558 662233 65366 380441 38794 56111 289049 1142734 5145790 1013866 426104 3249673 1517049 16200 44162 733456 397213 64374 36982 826684 245339 261075 885309 1447712 28402 2504179 50948 51946 333455 610142 1322907 796139 16270 65607 853018 1205090 493254 625812 331506 340542 24246
leaf_count=12298338 939516 177495 200476 1174431 56188 437242 68116 769728 187372 680157 456396 478944 141563 354006 347331 63996 1364041 1224441 458468 2491801 270493 701004 87558 662233 65366 380441 38794 56111 289049 1142734 5145790 1013866 426104 3249673 1517049 16200 44162 733456 397213 64374 36982 826684 245339 261075 885309 1447712 28402 2504179 50948 51946 333455 610142 1322907 796139 16270 65607 853018 1205090 493254 625812 331506 340542 24246
internal_value=-0.00119625 -0.00406184 0.0117988 -0.00191504 -0.00691299 0.00781236 0.0172185 0.00144101 0.00520376 0.0101256 0.00590485 -0.00279134 -0.00704031 0.0138212 0.0194384 -0.00714949 0.0197232 -0.00290231 -0.00271685 -0.00321293 -0.00217509 -0.00179832 0.01217 0.0125779 0.00956379 0.000391977 0.00116629 0.00389985 0.00824074 -0.000828269 -0.00645786 -0.00207765 0.0114087 -0.00396925 -0.00414564 0.0112701 0.0153203 0.00459748 0.00364188 0.018187 -0.00318325 -0.00396904 -0.00269152 0.00895333 -0.00652051 -0.000384125 0.000500457 -0.0040639 -0.00471991 0.00143668 -0.00281266 0.0162606 -0.00275328 -0.00232743 0.0208779 -0.001421 -0.000451783 0.00159271 0.0071734 0.0184893 0.00984117 0.00469088 0.005195
internal_weight=5.40283e+07 4.42668e+07 9.76146e+06 2.52526e+07 1.90143e+07 5.62442e+06 4.13703e+06 5.22852e+06 2.64342e+06 2.981e+06 2.39044e+06 2.00241e+07 1.88685e+07 1.63489e+06 2.50214e+06 1.83934e+07 2.41783e+06 1.94779e+07 1.67962e+07 8.76784e+06 8.0284e+06 6.63494e+06 1.42995e+06 1.34239e+06 145800 3.66493e+06 546140 1.56359e+06 1.55105e+06 3.29145e+06 6.0951e+06 3.50567e+06 626580 5.26217e+06 4.8037e+06 84316 1.00831e+06 1.67297e+06 1.50748e+06 1.03752e+06 1.55403e+06 1.39346e+06 515832 717471 6.0311e+06 2.59045e+06 507346 2.68167e+06 877632 1.63748e+06 475018 654304 3.34349e+06 2.11905e+06 1.38031e+06 252979 2.02745e+06 1.58553e+06 930496 973143 620555 737755 80434
internal_count=54028280 44266825 9761455 25252574 19014251 5624421 4137034 5228520 2643422 2980999 2390443 20024054 18868451 1634890 2502144 18393433 2417828 19477914 16796240 8767839 8028401 6634937 1429948 1342390 145800 3664926 546140 1563594 1551051 3291450 6095095 3505667 626580 5262172 4803704 84316 1008310 1672972 1507483 1037517 1554031 1393464 515832 717471 6031099 2590446 507346 2681674 877632 1637477 475018 654304 3343487 2119046 1380311 252979 2027449 1585531 930496 973143 620555 737755 80434
is_linear=0
shrinkage=0.03


Tree=3
num_leaves=64
num_cat=0
split_feature=5 5 4 5 26 26 29 26 46 5 5 26 4 28 0 26 13 29 46 5 5 5 26 5 29 4 5 4 26 4 26 8 29 6 26 46 5 5 5 44 15 4 5 26 46 29 4 5 26 15 0 4 4 15 15 17 44 26 4 5 4 5 26
split_gain=2.23354e+06 300227 234340 80968.7 45328.6 37713.2 34666.4 15324 13645.9 12763.3 10589 9719.77 9541.39 6569.87 6468.67 5652.89 4766.31 4765.29 4053.28 4048.06 5113.28 8252.95 6047.99 6833.72 4047.1 3663.96 3351.84 3106.37 2943.9 2667.95 2182.27 2099.61 2065.54 1935.8 2297.13 1905.54 1830.75 1813.25 1766.38 1591.98 1574.67 1558.44 1493.51 2385.87 1486.71 1457.39 1448.75 1448.2 1426.86 1385.68 1329.44 1318.52 1165.94 1276.31 1120.02 1081.88 1070.28 1049.23 961.042 903.218 901.62 892.228 854.148
threshold=0.10852554440498353 -0.32051683962345118 0.61858350038528453 -0.067491851747035966 0.10202573612332345 0.10104775801301004 0.8275497853755952 0.084606595337390914 0.065947871655225768 0.36155053973197943 0.3175461888313294 0.13723944872617724 -0.30366761982440943 0.56053820252418529 -0.15653926227241752 0.29209585487842565 -0.96281075477600087 0.98724260926246654 0.032255470752716071 -0.29851467907428736 -0.22150707244873044 -0.1444994658231735 0.00064304174156859528 -0.26551140844821924 0.72733980417251598 0.1993784308433533 0.020516853313893083 0.45090144872665411 0.1813902631402016 -0.30366761982440943 0.034297576174139983 -1.5459783673286436 0.63325291872024547 -0.48243986070156092 0.0063363404478877791 0.15542745590209964 0.73558744788169872 0.1965342313051224 0.020516853313893083 0.094861160963773741 0.10423879325389863 -0.26174711436033243 -0.26551140844821924 0.037308637052774436 0.022510869428515438 0.68488040566444408 0.11553743109107019 -0.33151793479919428 0.26072351634502416 0.07775162905454637 -0.15653926227241752 -0.052144586108624928 -0.30366761982440943 0.081277094781398787 0.11956412345170976 0.072829514741897597 0.17354781925678256 0.018099794164299968 0.1993784308433533 0.21853639185428622 1.0377885699272158 0.21853639185428622 0.15094651281833651
decision_type=2 2 2 2 2 2 2 2 2 2 2 2 2 2 2 2 2 2 2 2 2 2 2 2 2 2 2 2 2 2 2 2 2 2 2 2 2 2 2 2 2 2 2 2 2 2 2 2 2 2 2 2 2 2 2 2 2 2 2 2 2 2 2
left_child=1 4 5 11 12 8 13 26 10 28 37 19 16 32 35 58 -1 39 24 41 22 33 23 52 -11 48 57 38 59 -25 -23 -18 -4 -22 -35 -8 -15 -2 -9 60 -14 -3 43 -24 -28 -12 -36 -33 -13 -31 -38 -44 -21 -54 -43 -10 -19 -5 -6 -7 -16 -30 -40
right_child=2 3 6 7 15 9 14 27 55 18 45 25 40 36 17 -17 31 56 -20 20 21 30 42 29 -26 -27 44 -29 61 49 -32 47 -34 34 46 -37 50 -39 62 -41 -42 54 51 -45 -46 -47 -48 -49 -50 -51 -52 -53 53 -55 -56 -57 -58 -59 -60 -61 -62 -63 -64
leaf_value=-0.018978501553845402 0.011101712189283373 -0.018978501553845402 0.024933823394694327 0 0.011080145499229433 0.018978501553845402 0.041181925932412142 0.011101712189283373 -0.00037212457973957003 0.02508821510514736 0.018978501553845402 0.010843126765251161 -0.018978501553845402 0.030080213743128772 0.034187810833954807 0.038135736351807115 0 0.060847131333017349 0.02508821510514736 -0.018978501553845402 -0.019565465519428251 0 -0.018978501553845402 -0.018978501553845402 0.030080213743128772 0.025269640925016403 0.011101712189283373 0.029829067307867999 0.018978501553845402 -0.018978501553845402 0 -0.018978501553845402 0.030080213743128772 0 0 0.034300886602166888 0.034300886602166888 0.011101712189283373 0.011101712189283373 0.034187810833954807 0 -0.018978501553845402 0 0 -0.001062241591844556 0.02508821510514736 0.011445064112663269 -0.018978501553845402 0.019576084651079177 0.0005869639655828484 0.034300886602166888 -0.00034302349662780894 -0.018978501553845402 -0.018978501553845402 0 -0.018978501553845402 0.044368752640131716 0.011101712189283373 0.01941752252276659 0.018978501553845402 0.041281665813589094 0.024933823394694327 0.011101712189283373
leaf_weight=12298338 937020 2242152 200476 1277084 86223 437242 68116 769728 195394 680157 453989 523636 276834 354006 347331 71863 70701 1364041 87558 1224441 458466 2491801 270493 700974 662233 39992 1306103 56111 289049 1142736 992850 5132797 426104 3249673 1501769 16200 44162 731263 397213 64374 166519 279289 822592 242788 102855 259956 36106 883644 28402 1447740 610142 50064 1322907 796139 159044 65800 16270 978884 27332 493254 625812 331506 340542
leaf_count=12298338 937020 2242152 200476 1277084 86223 437242 68116 769728 195394 680157 453989 523636 276834 354006 347331 71863 70701 1364041 87558 1224441 458466 2491801 270493 700974 662233 39992 1306103 56111 289049 1142736 992850 5132797 426104 3249673 1501769 16200 44162 731263 397213 64374 166519 279289 822592 242788 102855 259956 36106 883644 28402 1447740 610142 50064 1322907 796139 159044 65800 16270 978884 27332 493254 625812 331506 340542
internal_value=-0.00119065 -0.00405499 0.0117988 -0.00191115 -0.00690221 0.00781226 0.0172185 0.00141326 0.00520354 0.0101256 0.00591727 -0.00277919 -0.00704756 0.0138212 0.0194384 0.00785838 -0.00715243 0.0197232 0.01217 -0.00289456 -0.00272135 -0.00322373 -0.00217451 -0.00179801 0.0125779 0.00100751 0.000352423 0.00389976 0.00824074 -0.00082764 -0.00209201 -0.00646585 0.0114087 -0.00397547 -0.0041538 0.0112701 0.0153203 0.00460883 0.00364178 0.018187 -0.00269868 -0.003977 -0.00397696 -0.00269287 0.00150044 0.00897471 -0.00319855 -0.00652625 0.000372284 -0.000383339 0.0162606 -0.00473224 -0.00275328 -0.00232743 -0.00234098 -0.00130598 0.0208779 -0.000364566 0.00369132 0.0071734 0.0184893 0.00984117 0.00469071
internal_weight=5.40283e+07 4.42668e+07 9.76146e+06 2.52526e+07 1.90143e+07 5.62442e+06 4.13703e+06 5.22852e+06 2.64342e+06 2.981e+06 2.38223e+06 2.00241e+07 1.88288e+07 1.63489e+06 2.50214e+06 185418 1.83855e+07 2.41783e+06 1.42995e+06 1.9432e+07 1.67515e+07 8.73066e+06 8.02087e+06 6.63494e+06 1.34239e+06 592030 3.66493e+06 1.56359e+06 1.55105e+06 3.29145e+06 3.48465e+06 6.08714e+06 626580 5.24601e+06 4.78755e+06 84316 1.00831e+06 1.66828e+06 1.50748e+06 1.03752e+06 443353 2.68048e+06 1.38594e+06 513281 1.40896e+06 713945 1.53788e+06 6.01644e+06 552038 2.59048e+06 654304 872656 3.34349e+06 2.11905e+06 438333 261194 1.38031e+06 2.25597e+06 113555 930496 973143 620555 737755
internal_count=54028280 44266825 9761455 25252574 19014251 5624421 4137034 5228520 2643422 2980999 2382228 20024054 18828833 1634890 2502144 185418 18385480 2417828 1429948 19432024 16751539 8730665 8020874 6634937 1342390 592030 3664926 1563594 1551051 3291450 3484651 6087142 626580 5246014 4787548 84316 1008310 1668283 1507483 1037517 443353 2680485 1385937 513281 1408958 713945 1537875 6016441 552038 2590476 654304 872656 3343487 2119046 438333 261194 1380311 2255968 113555 930496 973143 620555 737755
is_linear=0
shrinkage=0.03


Tree=4
num_leaves=64
num_cat=0
split_feature=5 5 4 5 26 26 29 26 46 5 5 4 26 28 0 26 13 29 46 29 5 5 5 26 5 4 5 4 26 4 26 8 29 6 26 46 5 5 5 44 36 15 5 26 46 29 4 5 26 15 0 4 4 15 17 44 20 4 5 4 5 26 15
split_gain=2.23318e+06 300230 234335 80769.8 45318.5 37709.7 34666.4 15357.7 13637.2 12763.3 10589 9787.65 9706.05 6569.87 6468.67 5653.44 4766.31 4765.29 4053.28 4047.1 3932.01 5113.25 8252.9 6047.99 6833.72 3664.17 3374.63 3106.37 2943.9 2667.95 2182.27 2099.61 2065.54 1935.92 2297.13 1905.54 1830.75 1813.25 1766.38 1591.98 1583.62 1535.03 1493.51 2385.87 1486.71 1457.39 1448.75 1448.2 1426.98 1385.68 1329.44 1318.52 1165.94 1276.31 1078.63 1070.28 1043.86 960.388 903.218 901.62 892.228 854.148 794.339
threshold=0.10852554440498353 -0.32051683962345118 0.61858350038528453 -0.067491851747035966 0.10202573612332345 0.10104775801301004 0.8275497853755952 0.084606595337390914 0.065947871655225768 0.36155053973197943 0.3175461888313294 -0.30366761982440943 0.13723944872617724 0.56053820252418529 -0.15653926227241752 0.29209585487842565 -0.96281075477600087 0.98724260926246654 0.032255470752716071 0.72733980417251598 -0.29851467907428736 -0.22150707244873044 -0.1444994658231735 0.00064304174156859528 -0.26551140844821924 0.1993784308433533 0.020516853313893083 0.45090144872665411 0.1813902631402016 -0.30366761982440943 0.034297576174139983 -1.5459783673286436 0.63325291872024547 -0.48243986070156092 0.0063363404478877791 0.15542745590209964 0.73558744788169872 0.1965342313051224 0.020516853313893083 0.094861160963773741 0.011345030274242164 0.088439702987670912 -0.26551140844821924 0.037308637052774436 0.022510869428515438 0.68488040566444408 0.11553743109107019 -0.33151793479919428 0.26072351634502416 0.07775162905454637 -0.15653926227241752 -0.052144586108624928 -0.30366761982440943 0.081277094781398787 0.072829514741897597 0.17354781925678256 1.0000000180025095e-35 0.1993784308433533 0.21853639185428622 1.0377885699272158 0.21853639185428622 0.15094651281833651 0.55832189321517955
decision_type=2 2 2 2 2 2 2 2 2 2 2 2 2 2 2 2 2 2 2 2 2 2 2 2 2 2 2 2 2 2 2 2 2 2 2 2 2 2 2 2 2 2 2 2 2 2 2 2 2 2 2 2 2 2 2 2 2 2 2 2 2 2 2
left_child=1 4 5 12 11 8 13 26 10 28 37 16 20 32 35 57 -1 39 19 -11 40 23 33 24 52 48 56 38 58 -26 -24 -18 -4 -23 -35 -8 -15 -2 -9 59 -3 -13 43 -25 -28 -12 -36 -33 -14 -31 -38 -44 -22 -54 -10 -19 -5 -6 -7 -16 -30 -40 -17
right_child=2 3 6 7 15 9 14 27 54 18 45 41 25 36 17 62 31 55 -20 -21 21 22 30 42 29 -27 44 -29 60 49 -32 47 -34 34 46 -37 50 -39 61 -41 -42 -43 51 -45 -46 -47 -48 -49 -50 -51 -52 -53 53 -55 -56 -57 -58 -59 -60 -61 -62 -63 -64
leaf_value=-0.01840914650723004 0.010768660823604873 -0.01840914650723004 0.0241858086928535 0.010768660823604873 0.01074774113425255 0.01840914650723004 0.039946468154439786 0.010768660823604873 -0.0003609608423473831 0.024335568651992941 0.01840914650723004 -0.01840914650723004 0.010517832962293626 0.029177807330834915 0.033162176508936166 0.023558854709298631 0 0.059021717393026828 0.024335568651992941 0.029177807330834915 -0.01840914650723004 -0.018978501553845402 0 -0.01840914650723004 -0.01840914650723004 0.024511551697265911 0.010768660823604873 0.028934195288631958 0.01840914650723004 -0.01840914650723004 0 -0.01840914650723004 0.029177807330834915 0 0 0.033271860004101886 0.033271860004101886 0.010768660823604873 0.010768660823604873 0.033162176508936166 -0.01840914650723004 0 0 0 -0.0010303743440892199 0.024335568651992941 0.011101712189283373 -0.01840914650723004 0.018988802111546802 0.00056935504661536187 0.033271860004101886 -0.00033273279172897353 -0.01840914650723004 -0.01840914650723004 -0.01840914650723004 0.043037690060927752 0 0.01883499684708359 0.01840914650723004 0.040043215839181426 0.0241858086928535 0.010768660823604873 0.045849407119185941
leaf_weight=12298338 937020 250150 200476 503456 86223 437242 68116 769728 195394 680157 453989 254572 523636 354006 347331 30484 70701 1364041 87558 662233 1224441 458466 2491801 270493 700974 39992 1306103 56111 289049 1142736 992850 5132797 426104 3249673 1501769 16200 44162 731263 397213 64374 2430335 188781 822592 242788 102855 259956 36106 883644 28402 1447740 610142 50064 1322907 796139 65800 16270 1752512 27332 493254 625812 331506 340542 41379
leaf_count=12298338 937020 250150 200476 503456 86223 437242 68116 769728 195394 680157 453989 254572 523636 354006 347331 30484 70701 1364041 87558 662233 1224441 458466 2491801 270493 700974 39992 1306103 56111 289049 1142736 992850 5132797 426104 3249673 1501769 16200 44162 731263 397213 64374 2430335 188781 822592 242788 102855 259956 36106 883644 28402 1447740 610142 50064 1322907 796139 65800 16270 1752512 27332 493254 625812 331506 340542 41379
internal_value=-0.00118953 -0.00405365 0.0117988 -0.00190979 -0.00690088 0.00781237 0.0172185 0.00141053 0.00520377 0.0101256 0.00591727 -0.00704622 -0.00277677 0.0138212 0.0194384 0.00785806 -0.00715243 0.0197232 0.01217 0.0125779 -0.00289205 -0.00272135 -0.00322372 -0.00217451 -0.00179801 0.00100725 0.000348527 0.00389976 0.00824074 -0.00082764 -0.00209201 -0.00646585 0.0114087 -0.00397546 -0.0041538 0.0112701 0.0153203 0.00460883 0.00364178 0.018187 -0.00395887 -0.00264157 -0.00397696 -0.00269287 0.00150044 0.00897471 -0.00319855 -0.00652625 0.000372012 -0.000383339 0.0162606 -0.00473224 -0.00275328 -0.00232743 -0.00130369 0.0208779 -0.000370896 0.00369079 0.0071734 0.0184893 0.00984117 0.00469071 0.014443
internal_weight=5.40283e+07 4.42668e+07 9.76146e+06 2.52526e+07 1.90143e+07 5.62442e+06 4.13703e+06 5.22852e+06 2.64342e+06 2.981e+06 2.38223e+06 1.88288e+07 2.00241e+07 1.63489e+06 2.50214e+06 185418 1.83855e+07 2.41783e+06 1.42995e+06 1.34239e+06 1.9432e+07 1.67515e+07 8.73066e+06 8.02087e+06 6.63494e+06 592030 3.66493e+06 1.56359e+06 1.55105e+06 3.29145e+06 3.48465e+06 6.08714e+06 626580 5.24601e+06 4.78755e+06 84316 1.00831e+06 1.66828e+06 1.50748e+06 1.03752e+06 2.68048e+06 443353 1.38594e+06 513281 1.40896e+06 713945 1.53788e+06 6.01644e+06 552038 2.59048e+06 654304 872656 3.34349e+06 2.11905e+06 261194 1.38031e+06 2.25597e+06 113555 930496 973143 620555 737755 71863
internal_count=54028280 44266825 9761455 25252574 19014251 5624421 4137034 5228520 2643422 2980999 2382228 18828833 20024054 1634890 2502144 185418 18385480 2417828 1429948 1342390 19432024 16751539 8730665 8020874 6634937 592030 3664926 1563594 1551051 3291450 3484651 6087142 626580 5246014 4787548 84316 1008310 1668283 1507483 1037517 2680485 443353 1385937 513281 1408958 713945 1537875 6016441 552038 2590476 654304 872656 3343487 2119046 261194 1380311 2255968 113555 930496 973143 620555 737755 71863
is_linear=0
shrinkage=0.03


Tree=5
num_leaves=64
num_cat=0
split_feature=5 5 4 5 26 26 29 26 46 5 4 5 26 28 0 13 29 46 29 4 26 36 5 5 5 26 5 5 4 26 4 8 29 6 46 26 26 5 5 5 15 44 46 29 5 0 15 35 5 26 17 44 26 4 15 5 4 5 26 44 4 4 20
split_gain=2.23214e+06 301715 234335 80143.8 44273.2 37709.7 34666.4 15406.1 13637.2 12763.3 11245.4 10589 9690.3 6569.87 6468.67 4853.82 4765.29 4053.28 4047.1 3954.93 3804.73 3638.53 4553.38 5032.5 8069.29 7049.78 6969.69 3407.47 3106.37 2943.9 2574.81 2542.14 2065.54 2058.11 1905.54 1864.93 1864.47 1830.75 1813.25 1766.38 1734.06 1591.98 1486.71 1457.39 1448.12 1329.44 1303.2 1229.54 1122.16 2276.42 1078.63 1070.28 1051.57 978.179 1019.84 903.218 901.62 892.228 854.148 836.688 816.114 788.249 780.731
threshold=0.10852554440498353 -0.32051683962345118 0.61858350038528453 -0.067491851747035966 0.14808963239192965 0.10104775801301004 0.8275497853755952 0.084606595337390914 0.065947871655225768 0.36155053973197943 -0.30366761982440943 0.3175461888313294 0.12970838695764544 0.56053820252418529 -0.15653926227241752 -0.96281075477600087 0.98724260926246654 0.032255470752716071 0.72733980417251598 0.11553743109107019 0.31194664537906652 1.0000000180025095e-35 -0.29851467907428736 -0.22150707244873044 -0.1444994658231735 0.00064304174156859528 -0.26551140844821924 0.020516853313893083 0.45090144872665411 0.1813902631402016 -0.30366761982440943 -1.5459783673286436 0.63325291872024547 -0.48243986070156092 0.15542745590209964 0.023710865527391437 0.0056452066637575635 0.73558744788169872 0.1965342313051224 0.020516853313893083 0.088439702987670912 0.094861160963773741 0.022510869428515438 0.68488040566444408 -0.33151793479919428 -0.15653926227241752 0.07775162905454637 0.46148274838924414 -0.26551140844821924 0.037308637052774436 0.072829514741897597 0.17354781925678256 0.018099794164299968 -0.30366761982440943 0.063202623277902617 0.21853639185428622 1.0377885699272158 0.21853639185428622 0.15094651281833651 0.14871000498533252 0.2412989288568497 0.073616927489638342 1.0000000180025095e-35
decision_type=2 2 2 2 2 2 2 2 2 2 2 2 2 2 2 2 2 2 2 2 2 2 2 2 2 2 2 2 2 2 2 2 2 2 2 2 2 2 2 2 2 2 2 2 2 2 2 2 2 2 2 2 2 2 2 2 2 2 2 2 2 2 2
left_child=1 4 5 12 10 8 13 27 11 29 15 38 21 32 34 -1 41 18 -11 47 60 59 -23 25 33 26 53 52 39 55 -28 -17 -4 -25 -8 -26 -35 -15 -2 -9 -12 56 62 -13 -33 -39 -32 -14 49 -27 -10 -18 -5 -24 -55 -7 -16 -31 -41 -3 -6 -38 -29
right_child=2 3 6 7 20 9 14 28 50 17 40 43 19 37 16 31 51 -19 -20 -21 -22 22 23 24 35 48 30 42 -30 57 46 44 -34 36 -36 -37 61 45 -40 58 -42 -43 -44 -45 -46 -47 -48 -49 -50 -51 -52 -53 -54 54 -56 -57 -58 -59 -60 -61 -62 -63 -64
leaf_value=-0.017856872112013141 0.010445600998896727 0.001176106859435041 0.023460234432067895 0 0.010790227513658809 0.017856872112013141 0.038748074109806588 0.010445600998896727 -0.00035013201707696171 0.023605501592433152 -0.017856872112013141 0.017856872112013141 0 0.02830247311090987 0.03216731121366808 0 0.057251065871236018 0.023605501592433152 0.02830247311090987 0.019445644572049999 0.038453803331208507 -0.017856872112013141 -0.017856872112013141 -0.01840914650723004 0 -0.017856872112013141 -0.017856872112013141 0.010445600998896727 0.028066169429973 0.017856872112013141 -0.017856872112013141 -0.017856872112013141 0.02830247311090987 0 0.032273704203978827 0 0 0.032273704203978827 0.010445600998896727 0.010445600998896727 0 0.03216731121366808 -0.00099946311376654211 0.023605501592433152 -0.017856872112013141 0.032273704203978827 0.00055227439521690071 0.019445644572049999 0 -0.020794415473937986 -0.017856872112013141 0.041746559359099926 0.010445600998896727 -0.017856872112013141 -0.017856872112013141 0.017856872112013141 0.038841919364005981 0.023460234432067895 0.010445600998896727 0 0.022852089068019672 0.010768660823604873 0.010445600998896727
leaf_weight=12298338 937020 250588 200476 1277084 56188 437242 68116 769728 195394 680157 254703 453989 592834 354006 347331 76956 1364041 87558 662233 71827 65366 2503362 1220805 457151 2290984 231095 699260 314346 56111 289049 1139156 5134480 426104 3216027 16200 1122063 1436163 44162 731263 397213 220315 64374 102855 259956 883659 610142 1415178 25377 788435 171466 65800 16270 978884 1132042 905283 493254 625812 331506 340542 318685 24246 36273 991757
leaf_count=12298338 937020 250588 200476 1277084 56188 437242 68116 769728 195394 680157 254703 453989 592834 354006 347331 76956 1364041 87558 662233 71827 65366 2503362 1220805 457151 2290984 231095 699260 314346 56111 289049 1139156 5134480 426104 3216027 16200 1122063 1436163 44162 731263 397213 220315 64374 102855 259956 883659 610142 1415178 25377 788435 171466 65800 16270 978884 1132042 905283 493254 625812 331506 340542 318685 24246 36273 991757
internal_value=-0.00118652 -0.00404997 0.0117988 -0.00190082 -0.00690423 0.00781237 0.0172185 0.00140661 0.00520377 0.0101256 -0.00703148 0.00591727 -0.00276443 0.0138212 0.0194384 -0.00714918 0.0197232 0.01217 0.0125779 0.000728895 0.00956379 -0.0028891 -0.00296079 -0.00277743 -0.0032781 -0.00222112 -0.00183298 0.000342936 0.00389976 0.00824074 -0.000850815 -0.00645693 0.0114087 -0.00402832 0.0112701 -0.00214705 -0.00421567 0.0153203 0.00460883 0.00364178 -0.00247409 0.018187 0.00150044 0.00897471 -0.00652621 0.0162606 -0.000409251 -4.52637e-05 -0.00434329 -0.00305456 -0.00130369 0.0208779 -0.000379979 -0.00281377 -0.00241139 0.0071734 0.0184893 0.00984117 0.00469071 -0.000526263 0.005195 -0.00333152 0.00177391
internal_weight=5.40283e+07 4.42668e+07 9.76146e+06 2.52526e+07 1.90143e+07 5.62442e+06 4.13703e+06 5.22852e+06 2.64342e+06 2.981e+06 1.88685e+07 2.38223e+06 2.00241e+07 1.63489e+06 2.50214e+06 1.83934e+07 2.41783e+06 1.42995e+06 1.34239e+06 690038 145800 1.9334e+07 1.87647e+07 1.62614e+07 8.55866e+06 7.70272e+06 6.51172e+06 3.66493e+06 1.56359e+06 1.55105e+06 3.25359e+06 6.0951e+06 626580 5.14561e+06 84316 3.41305e+06 4.68846e+06 1.00831e+06 1.66828e+06 1.50748e+06 475018 1.03752e+06 1.40896e+06 713945 6.01814e+06 654304 2.55433e+06 618211 1.191e+06 402561 261194 1.38031e+06 2.25597e+06 3.25813e+06 2.03732e+06 930496 973143 620555 737755 569273 80434 1.47244e+06 1.3061e+06
internal_count=54028280 44266825 9761455 25252574 19014251 5624421 4137034 5228520 2643422 2980999 18868451 2382228 20024054 1634890 2502144 18393433 2417828 1429948 1342390 690038 145800 19334016 18764743 16261381 8558661 7702720 6511724 3664926 1563594 1551051 3253594 6095095 626580 5145614 84316 3413047 4688463 1008310 1668283 1507483 475018 1037517 1408958 713945 6018139 654304 2554334 618211 1190996 402561 261194 1380311 2255968 3258130 2037325 930496 973143 620555 737755 569273 80434 1472436 1306103
is_linear=0
shrinkage=0.03


Tree=6
num_leaves=64
num_cat=0
split_feature=5 5 4 5 26 26 29 26 46 5 4 5 26 28 0 13 29 4 46 29 26 5 5 5 5 4 26 5 5 4 36 26 8 29 6 26 46 5 5 5 15 26 44 29 5 15 0 26 15 46 4 4 17 44 26 5 4 5 26 4 20 44 15
split_gain=2.22545e+06 306760 234335 78981.9 44273.1 37709.7 34666.4 15189.3 13637.2 12763.3 11246.3 10589 9476.06 6569.87 6468.67 4853.82 4765.29 4427.24 4053.28 4047.1 3804.73 3684.12 6935.74 7683.99 3649.89 3210.42 4894.98 5499.83 4894.77 3106.37 3060.67 2943.9 2542.14 2065.54 2018.12 1950.81 1905.54 1830.75 1813.25 1766.38 1733.72 1720.65 1591.98 1457.39 1448.12 1385.68 1329.44 1315.04 1276.31 1248.1 1178.42 1106.8 1078.63 1070.28 1050.98 903.218 901.62 892.228 854.148 816.114 797.178 791.137 787.774
threshold=0.10852554440498353 -0.32051683962345118 0.61858350038528453 -0.067491851747035966 0.14808963239192965 0.10104775801301004 0.8275497853755952 0.084606595337390914 0.065947871655225768 0.36155053973197943 -0.30366761982440943 0.3175461888313294 0.11762730032205583 0.56053820252418529 -0.15653926227241752 -0.96281075477600087 0.98724260926246654 0.11553743109107019 0.032255470752716071 0.72733980417251598 0.31194664537906652 -0.29851467907428736 -0.22150707244873044 -0.1444994658231735 0.020516853313893083 -0.30366761982440943 0.00064304174156859528 -0.26551140844821924 -0.26551140844821924 0.45090144872665411 1.0000000180025095e-35 0.1813902631402016 -1.5459783673286436 0.63325291872024547 -0.48243986070156092 0.0056452066637575635 0.15542745590209964 0.73558744788169872 0.1965342313051224 0.020516853313893083 0.088439702987670912 0.023710865527391437 0.094861160963773741 0.68488040566444408 -0.33151793479919428 0.07775162905454637 -0.15653926227241752 0.24056714773178103 0.081277094781398787 0.080868311226367964 0.073616927489638342 -0.052144586108624928 0.072829514741897597 0.17354781925678256 0.018099794164299968 0.21853639185428622 1.0377885699272158 0.21853639185428622 0.15094651281833651 0.2412989288568497 1.0000000180025095e-35 0.16618687659502032 0.52438771724700939
decision_type=2 2 2 2 2 2 2 2 2 2 2 2 2 2 2 2 2 2 2 2 2 2 2 2 2 2 2 2 2 2 2 2 2 2 2 2 2 2 2 2 2 2 2 2 2 2 2 2 2 2 2 2 2 2 2 2 2 2 2 2 2 2 2
left_child=1 4 5 12 10 8 13 24 11 31 15 38 21 33 36 -1 42 47 19 -11 59 30 25 34 54 -23 28 -28 48 39 -3 55 -17 -4 -24 -36 -8 -15 -2 -9 -12 -25 56 -13 -34 -30 -39 61 -27 60 -37 -29 -10 -18 -5 -7 -16 -33 -41 -6 -26 -14 -19
right_child=2 3 6 7 20 9 14 29 52 18 40 43 17 37 16 32 53 62 -20 -21 -22 22 23 41 49 26 27 51 45 -31 -32 57 44 -35 35 50 -38 46 -40 58 -42 -43 -44 -45 -46 -47 -48 -49 -50 -51 -52 -53 -54 -55 -56 -57 -58 -59 -60 -61 -62 -63 -64
leaf_value=-0.017321165948652746 0.010132232968929827 -0.01844383607759599 0.022756427399105859 0 0.010466520688249046 0.017321165948652746 0.037585631886512393 0.010132232968929827 -0.00033962805656465142 0.022897336544660158 -0.017321165948652746 0.017321165948652746 0.010815182879239943 0.027453398917582573 0.031202291877258037 0 0.055533533895098942 0.016498528481915926 0.022897336544660158 0.027453398917582573 0.037300189231272256 -0.017321165948652746 -0.017856872112013141 0 0.010132232968929827 -0.017321165948652746 -0.017321165948652746 0 -0.017321165948652746 0.027224184347073813 -0.017321165948652746 0.017321165948652746 -0.017321165948652746 0.027453398917582573 0 0 0.031305493077859459 0.031305493077859459 0.010132232968929827 0.010132232968929827 0 0 0.031202291877258037 0.022897336544660158 -0.017321165948652746 0.00053570616336039427 0.031305493077859459 0.017470850097605059 -0.017321165948652746 -0.018885739182354394 0.010445600998896727 -0.00032275080797710461 -0.017321165948652746 0.040494162578326928 0.010132232968929827 0.017321165948652746 0.037676661783085805 0.022756427399105859 0.010132232968929827 0.022166526395979082 0.010132232968929827 0 0.028078240896895857
leaf_weight=12298338 937020 170713 200476 1277084 56188 437242 68116 769728 195394 680157 254703 453989 307921 354006 347331 76956 1364041 53854 87558 662233 65366 1926476 458443 2300648 328400 1322907 496073 792788 1142736 56111 2502121 289049 5134480 426104 3233786 1406526 16200 44162 731263 397213 220315 1062723 64374 259956 883659 1447740 610142 37668 796139 46273 45003 45009 65800 16270 978884 493254 625812 331506 340542 24246 1034285 448673 26107
leaf_count=12298338 937020 170713 200476 1277084 56188 437242 68116 769728 195394 680157 254703 453989 307921 354006 347331 76956 1364041 53854 87558 662233 65366 1926476 458443 2300648 328400 1322907 496073 792788 1142736 56111 2502121 289049 5134480 426104 3233786 1406526 16200 44162 731263 397213 220315 1062723 64374 259956 883659 1447740 610142 37668 796139 46273 45003 45009 65800 16270 978884 493254 625812 331506 340542 24246 1034285 448673 26107
internal_value=-0.00116704 -0.0040262 0.0117988 -0.00185915 -0.00690423 0.00781237 0.0172185 0.00142421 0.00520377 0.0101256 -0.00703148 0.00591727 -0.00271648 0.0138212 0.0194384 -0.00714918 0.0197232 0.000337954 0.01217 0.0125779 0.00956379 -0.00285592 -0.00268833 -0.00328407 0.00036805 -0.00205242 -0.00171247 -0.00331677 -0.00125808 0.00389976 -0.00388906 0.00824074 -0.00645693 0.0114087 -0.00401315 -0.00419902 0.0112701 0.0153203 0.00460883 0.00364178 -0.0024739 -0.00216907 0.018187 0.00897471 -0.00652621 -0.000383339 0.0162606 -0.000339428 -0.00232743 0.00156602 -0.00328533 -0.0047991 -0.00130369 0.0208779 -0.000380138 0.0071734 0.0184893 0.00984117 0.00469071 0.005195 0.00173056 -0.000611801 0.00706648
internal_weight=5.40283e+07 4.42668e+07 9.76146e+06 2.52526e+07 1.90143e+07 5.62442e+06 4.13703e+06 5.22852e+06 2.64342e+06 2.981e+06 1.88685e+07 2.38223e+06 2.00241e+07 1.63489e+06 2.50214e+06 1.83934e+07 2.41783e+06 874223 1.42995e+06 1.34239e+06 145800 1.91498e+07 1.6477e+07 8.50713e+06 3.66493e+06 7.96987e+06 6.04339e+06 1.33387e+06 4.70952e+06 1.56359e+06 2.67283e+06 1.55105e+06 6.0951e+06 626580 5.14376e+06 4.68532e+06 84316 1.00831e+06 1.66828e+06 1.50748e+06 475018 3.36337e+06 1.03752e+06 713945 6.01814e+06 2.59048e+06 654304 794262 2.11905e+06 1.40896e+06 1.45153e+06 837797 261194 1.38031e+06 2.25597e+06 930496 973143 620555 737755 80434 1.36268e+06 756594 79961
internal_count=54028280 44266825 9761455 25252574 19014251 5624421 4137034 5228520 2643422 2980999 18868451 2382228 20024054 1634890 2502144 18393433 2417828 874223 1429948 1342390 145800 19149831 16476997 8507129 3664926 7969868 6043392 1333870 4709522 1563594 2672834 1551051 6095095 626580 5143758 4685315 84316 1008310 1668283 1507483 475018 3363371 1037517 713945 6018139 2590476 654304 794262 2119046 1408958 1451529 837797 261194 1380311 2255968 930496 973143 620555 737755 80434 1362685 756594 79961
is_linear=0
shrinkage=0.03


Tree=7
num_leaves=64
num_cat=0
split_feature=5 5 4 5 26 29 26 26 46 4 5 36 5 28 28 5 13 5 5 26 46 29 26 15 5 46 26 5 5 4 4 8 26 46 5 5 26 6 44 5 5 15 5 46 0 29 4 15 4 29 0 43 44 26 17 4 15 5 5 26 20 4 6
split_gain=2.198e+06 308199 223917 77682 44273 34722.7 34703.6 15377.5 13337.2 11249.3 11101.8 10985.9 9787.78 6994.22 6490.05 5552.14 4854.1 4563.09 10242.4 4092.76 3807.39 4128.09 3804.73 3689.99 3442.67 3294.15 3281.41 6969.69 5310.23 3106.37 2574.81 2542.11 2479.44 2423.48 2327.94 2132.35 2019.93 2546.54 1860.65 1788.65 1766.38 1732.6 1448.05 1387.71 1371.27 1318.92 1308.36 1303.2 1281.02 1275.99 1181.36 1105.02 1102.03 1049.99 1026.46 978.179 1019.84 892.034 876.086 854.148 841.848 816.114 801.119
threshold=0.10852554440498353 -0.32051683962345118 0.57666298747062694 -0.067491851747035966 0.14808963239192965 0.81835255026817333 0.10104775801301004 0.084606595337390914 0.070768643170595183 -0.30366761982440943 0.32854726910591131 1.0000000180025095e-35 0.3175461888313294 0.54889261722564708 0.74086645245552074 -0.29851467907428736 -0.96281075477600087 -0.22150707244873044 -0.1444994658231735 0.05743879824876786 0.034323494881391532 0.72302025556564342 0.31194664537906652 0.4696186780929566 0.020516853313893083 0.06519628688693048 0.00064304174156859528 -0.26551140844821924 -0.26551140844821924 0.45090144872665411 -0.30366761982440943 -1.5459783673286436 0.1813902631402016 0.069319941103458418 0.73558744788169872 0.50456464290618908 0.038831824436783798 -0.48243986070156092 0.094861160963773741 0.1965342313051224 0.020516853313893083 0.088439702987670912 -0.33151793479919428 0.022510869428515438 -0.15653926227241752 0.68488040566444408 0.073616927489638342 0.07775162905454637 0.1993784308433533 1.1317933797836306 -0.15653926227241752 0.11696921661496164 0.14871000498533252 0.018099794164299968 0.072829514741897597 -0.30366761982440943 0.063202623277902617 0.82359617948532116 -0.17750272154808042 0.15094651281833651 1.0000000180025095e-35 0.2412989288568497 1.7318507432937624
decision_type=2 2 2 2 2 2 2 2 2 2 2 2 2 2 2 2 2 2 2 2 2 2 2 2 2 2 2 2 2 2 2 2 2 2 2 2 2 2 2 2 2 2 2 2 2 2 2 2 2 2 2 2 2 2 2 2 2 2 2 2 2 2 2
left_child=1 4 6 11 9 13 8 24 12 16 32 23 39 35 25 -13 -1 26 36 -20 21 -12 61 52 53 38 27 55 -28 40 -29 -18 60 49 -15 62 37 -19 57 -2 -9 -11 -33 -26 -36 -14 -38 -32 -21 -16 -37 -25 -3 -5 -10 -17 -57 -7 -39 -42 -8 -6 -4
right_child=2 3 5 7 22 14 10 29 54 41 20 15 45 34 33 17 31 18 19 48 -22 -23 -24 51 43 -27 28 30 -30 -31 47 42 -34 -35 44 50 46 58 -40 -41 59 -43 -44 -45 -46 -47 -48 -49 -50 -51 -52 -53 -54 -55 -56 56 -58 -59 -60 -61 -62 -63 -64
leaf_value=-0.016801530970193164 0.0098282659798619321 0.0022992562262714664 0.016801530970193164 0 0.010152525067601574 0.026370883099270791 0.016801530970193164 0.0098282659798619321 -0.00032943921486771276 -0.016801530970193164 0.022210416448320353 -0.016801530970193164 0.016801530970193164 0.022237823970748402 0.040793133223018321 -0.016801530970193164 0 -0.017321165948652746 0 0 0.022210416448320353 0.026629796950055094 0.036181183554334091 0.025893228556258852 0.0098282659798619321 0.032924570841599145 -0.016801530970193164 -0.016801530970193164 0 0.026407458816661594 -0.016801530970193164 -0.016801530970193164 0.016801530970193164 0.046536225603410031 0.030366328285523676 0.026629796950055094 0 0 0.030266223120940294 0.0098282659798619321 0.0098282659798619321 0 -0.016801530970193164 -0.0012734462094214415 0.030366328285523676 0.022210416448320353 0.010132232968929827 0.00051963497845958218 0.015656181255009054 0.063988826715907721 0.026629796950055094 0.010815182879239943 0 0.0098282659798619321 -0.016801530970193164 -0.016801530970193164 -0.016801530970193164 0.036345532709775114 0 0.0098282659798619321 0.016801530970193164 0.021501530604099709 0.015744345863296011
leaf_weight=12298338 936519 280641 147756 1277084 56188 217263 258960 769728 186892 254703 696339 2505740 437546 432048 742673 1220805 76956 456868 2810416 887073 87663 662699 65366 45109 1306103 20498 412524 699260 825655 56111 1139156 5134480 540582 12583 48257 114058 994583 2407051 85316 725878 397213 220315 883659 102855 610274 243656 38053 1415178 31963 685282 337202 30675 360191 978884 65447 1132042 905283 864161 1425788 340542 555949 24246 45954
leaf_count=12298338 936519 280641 147756 1277084 56188 217263 258960 769728 186892 254703 696339 2505740 437546 432048 742673 1220805 76956 456868 2810416 887073 87663 662699 65366 45109 1306103 20498 412524 699260 825655 56111 1139156 5134480 540582 12583 48257 114058 994583 2407051 85316 725878 397213 220315 883659 102855 610274 243656 38053 1415178 31963 685282 337202 30675 360191 978884 65447 1132042 905283 864161 1425788 340542 555949 24246 45954
internal_value=-0.00117797 -0.00401944 0.0117077 -0.00184731 -0.0069042 0.0167615 0.00762266 0.00140892 0.00512353 -0.00703145 0.00993784 -0.00269755 0.00582913 0.0134685 0.0189364 -0.00283293 -0.00714917 -0.00263647 -0.00309393 -0.00188839 0.0117656 0.0121565 0.00956379 0.000949839 0.000346235 0.0172942 -0.00210216 -0.00183298 -0.00351782 0.00389976 -0.000850815 -0.0064569 0.00798705 0.0202899 0.0149331 0.010992 -0.00393867 -0.00422542 0.0175036 0.00458807 0.00364178 -0.00247326 -0.00652618 0.0015097 0.0160557 0.00885779 -0.00274749 -0.000409251 -0.000150484 0.0204054 0.0121222 0.00720983 0.00020954 -0.000380404 -0.00142971 -0.00281377 -0.00241139 0.0178401 -0.00447778 0.00469071 0.00694203 0.005195 0.00835922
internal_weight=5.40283e+07 4.42668e+07 9.76146e+06 2.52526e+07 1.90143e+07 4.36332e+06 5.39813e+06 5.22852e+06 2.59594e+06 1.88685e+07 2.80219e+06 2.00241e+07 2.3436e+06 1.73555e+06 2.62778e+06 1.93074e+07 1.83934e+07 1.68017e+07 9.0518e+06 3.72945e+06 1.4467e+06 1.35904e+06 145800 716616 3.66493e+06 1.18724e+06 7.7499e+06 6.51172e+06 1.23818e+06 1.56359e+06 3.25359e+06 6.0951e+06 1.35549e+06 1.44054e+06 1.09058e+06 644970 5.32234e+06 4.28971e+06 1.16674e+06 1.6624e+06 1.50748e+06 475018 6.01814e+06 1.40896e+06 658531 681202 1.03264e+06 2.55433e+06 919036 1.42796e+06 451260 75784 640832 2.25597e+06 252339 3.25813e+06 2.03732e+06 1.08142e+06 3.83284e+06 737755 814909 80434 193710
internal_count=54028280 44266825 9761455 25252574 19014251 4363325 5398130 5228520 2595938 18868451 2802192 20024054 2343599 1735549 2627776 19307438 18393433 16801698 9051795 3729452 1446701 1359038 145800 716616 3664926 1187238 7749903 6511724 1238179 1563594 3253594 6095095 1355491 1440538 1090579 644970 5322343 4289707 1166740 1662397 1507483 475018 6018139 1408958 658531 681202 1032636 2554334 919036 1427955 451260 75784 640832 2255968 252339 3258130 2037325 1081424 3832839 737755 814909 80434 193710
is_linear=0
shrinkage=0.03


Tree=8
num_leaves=64
num_cat=0
split_feature=5 5 4 5 26 26 29 26 46 4 5 36 5 28 28 5 13 5 5 26 46 29 26 15 5 46 26 5 5 4 4 8 26 46 5 5 26 6 44 5 5 15 29 5 46 29 4 15 4 46 44 5 0 26 17 43 4 15 5 26 20 4 6
split_gain=2.18922e+06 308251 220511 77660.7 44272.9 34703.8 33302.9 15377.6 13337.2 11251.7 11101.8 10930.4 9787.57 7589.22 6631.85 5554.07 4854.1 4581.74 10242.4 4092.76 3807.39 4128.09 3804.73 3605.43 3442.72 3257.34 3232.24 6969.69 5407.59 3106.37 2574.81 2542.11 2479.44 2426.58 2186.56 2062.96 2019.93 2546.54 1938.48 1788.65 1766.38 1731.7 1468.58 1448.05 1387.71 1318.81 1308.36 1303.2 1281.02 1275.94 1148.99 1142.1 1134.71 1049.94 1026.46 1008.56 978.179 1019.84 876.086 854.148 841.848 816.114 782.917
threshold=0.10852554440498353 -0.32051683962345118 0.57666298747062694 -0.067491851747035966 0.14808963239192965 0.10104775801301004 0.80911555886268627 0.084606595337390914 0.070768643170595183 -0.30366761982440943 0.32854726910591131 1.0000000180025095e-35 0.3175461888313294 0.74086645245552074 0.54889261722564708 -0.29851467907428736 -0.96281075477600087 -0.22150707244873044 -0.1444994658231735 0.05743879824876786 0.034323494881391532 0.72302025556564342 0.31194664537906652 0.47875466942787176 0.020516853313893083 0.06519628688693048 0.00064304174156859528 -0.26551140844821924 -0.26551140844821924 0.45090144872665411 -0.30366761982440943 -1.5459783673286436 0.1813902631402016 0.069319941103458418 0.73558744788169872 0.50456464290618908 0.038831824436783798 -0.48243986070156092 0.094861160963773741 0.1965342313051224 0.020516853313893083 0.088439702987670912 1.1317933797836306 -0.33151793479919428 0.022510869428515438 0.68488040566444408 0.073616927489638342 0.07775162905454637 0.1993784308433533 0.047479834407567985 0.14871000498533252 0.97761139273643505 -0.15653926227241752 0.018099794164299968 0.072829514741897597 0.10782572254538537 -0.30366761982440943 0.063202623277902617 -0.17750272154808042 0.15094651281833651 1.0000000180025095e-35 0.2412989288568497 1.7318507432937624
decision_type=2 2 2 2 2 2 2 2 2 2 2 2 2 2 2 2 2 2 2 2 2 2 2 2 2 2 2 2 2 2 2 2 2 2 2 2 2 2 2 2 2 2 2 2 2 2 2 2 2 2 2 2 2 2 2 2 2 2 2 2 2 2 2
left_child=1 4 5 11 9 8 14 24 12 16 32 23 39 25 35 -13 -1 26 36 -20 21 -12 61 50 53 38 27 56 -28 40 -29 -18 60 42 -16 62 37 -19 51 -2 -9 -11 -15 -33 -26 -14 -38 -32 -21 -36 -3 -8 -37 -5 -10 -25 -17 -58 -39 -42 -7 -6 -4
right_child=2 3 6 7 22 10 13 29 54 41 20 15 45 33 34 17 31 18 19 48 -22 -23 -24 55 44 -27 28 30 -30 -31 47 43 -34 -35 49 52 46 58 -40 -41 59 -43 -44 -45 -46 -47 -48 -49 -50 -51 -52 -53 -54 -55 -56 -57 57 -59 -60 -61 -62 -63 -64
leaf_value=-0.016297485041087367 0.0095334180004660717 0.0022302785394833222 0.016297485041087367 0 0.0098479493155735291 0.016297485041087367 0.027828261323547467 0.0095334180004660717 -0.00031955603842168112 -0.016297485041087367 0.021544103954870743 -0.016297485041087367 0.016297485041087367 0.038483383171855318 0.021543281729197901 -0.016297485041087367 0 -0.016801530970193164 0 0 0.021544103954870743 0.025830903041553444 0.035095748047704066 0.026459096813301219 0.0095334180004660717 0.031936833716351171 -0.016297485041087367 -0.016297485041087367 0 0.025615235052161747 -0.016297485041087367 -0.016297485041087367 0.016297485041087367 0.045140138835307729 0.029455338436957967 0.025830903041553444 0 0 0.029358236427312084 0.0095334180004660717 0.0095334180004660717 0 0.062069161914430494 -0.016297485041087367 -0.0012352428231387968 0.021544103954870743 0.0098282659798619321 0.00050404592910579637 0.015186495817358783 0.024830820280906333 0 0.03671529276472333 0.025830903041553444 0.0095334180004660717 -0.016297485041087367 0.01085564600629658 -0.016297485041087367 -0.016297485041087367 0 0.0095334180004660717 0.016297485041087367 0.020856484685976718 0.015272015487397131
leaf_weight=12298338 936519 285360 145209 1277084 56188 258960 357415 769728 186892 254703 696339 2505740 437546 761237 418107 1220805 76956 456868 2810416 887073 87663 662699 65366 39812 1306103 21284 412524 699260 825655 56111 1139156 5134480 540582 12725 601052 111386 994583 2407051 90287 725878 397213 220315 685282 883659 102855 243656 38053 1415178 31963 12823 361745 776755 324273 978884 65447 29699 1132042 905283 1425788 340542 555949 24246 45490
leaf_count=12298338 936519 285360 145209 1277084 56188 258960 357415 769728 186892 254703 696339 2505740 437546 761237 418107 1220805 76956 456868 2810416 887073 87663 662699 65366 39812 1306103 21284 412524 699260 825655 56111 1139156 5134480 540582 12725 601052 111386 994583 2407051 90287 725878 397213 220315 685282 883659 102855 243656 38053 1415178 31963 12823 361745 776755 324273 978884 65447 29699 1132042 905283 1425788 340542 555949 24246 45490
internal_value=-0.00118339 -0.00401918 0.0116765 -0.00184687 -0.00690419 0.00762265 0.0166917 0.00140891 0.00512352 -0.00703144 0.00993784 -0.002697 0.00582911 0.0187439 0.0133444 -0.00283203 -0.00714917 -0.00263553 -0.00309393 -0.00188839 0.0117656 0.0121565 0.00956379 0.000941174 0.000346227 0.017024 -0.00210013 -0.00183298 -0.00350515 0.00389976 -0.000850815 -0.0064569 0.00798705 0.0202121 0.0148224 0.0109092 -0.00393867 -0.00422542 0.0172263 0.00458807 0.00364178 -0.00247276 0.0203268 -0.00652618 0.0015097 0.00885775 -0.00274749 -0.000409251 -0.000150484 0.015962 0.000243751 0.0175631 0.0120483 -0.000380418 -0.00142971 0.00743375 -0.00281377 -0.00241139 -0.00447778 0.00469071 0.00694203 0.005195 0.00830695
internal_weight=5.40283e+07 4.42668e+07 9.76146e+06 2.52526e+07 1.90143e+07 5.39813e+06 4.36332e+06 5.22852e+06 2.59594e+06 1.88685e+07 2.80219e+06 2.00241e+07 2.3436e+06 2.70498e+06 1.65834e+06 1.93074e+07 1.83934e+07 1.68017e+07 9.0518e+06 3.72945e+06 1.4467e+06 1.35904e+06 145800 716616 3.66493e+06 1.24574e+06 7.7499e+06 6.51172e+06 1.23818e+06 1.56359e+06 3.25359e+06 6.0951e+06 1.35549e+06 1.45924e+06 1.03198e+06 626358 5.32234e+06 4.28971e+06 1.22446e+06 1.6624e+06 1.50748e+06 475018 1.44652e+06 6.01814e+06 1.40896e+06 681202 1.03264e+06 2.55433e+06 919036 613875 647105 1.13417e+06 435659 2.25597e+06 252339 69511 3.25813e+06 2.03732e+06 3.83284e+06 737755 814909 80434 190699
internal_count=54028280 44266825 9761455 25252574 19014251 5398130 4363325 5228520 2595938 18868451 2802192 20024054 2343599 2704985 1658340 19307438 18393433 16801698 9051795 3729452 1446701 1359038 145800 716616 3664926 1245741 7749903 6511724 1238179 1563594 3253594 6095095 1355491 1459244 1031982 626358 5322343 4289707 1224457 1662397 1507483 475018 1446519 6018139 1408958 681202 1032636 2554334 919036 613875 647105 1134170 435659 2255968 252339 69511 3258130 2037325 3832839 737755 814909 80434 190699
is_linear=0
shrinkage=0.03


Tree=9
num_leaves=64
num_cat=0
split_feature=5 5 4 5 26 26 29 26 46 4 5 36 5 28 28 5 13 5 5 26 46 29 26 15 5 26 5 5 4 46 0 4 8 26 5 5 26 6 44 5 5 15 29 5 46 29 4 15 4 46 0 44 43 17 5 26 4 15 5 26 20 4 6
split_gain=2.18891e+06 308405 220483 77600.3 44272.9 34707.8 33289 15377.6 13347.3 11251.7 11101.8 10883.9 9791.98 7579.47 6631.85 5552.82 4854.1 4619.08 10242.4 4092.76 3807.39 4128.09 3804.73 3543.73 3442.72 3135.19 6969.69 5604.57 3106.37 3088.73 2590.69 2574.81 2542.11 2479.44 2186.56 2062.96 2019.93 2546.54 1856.92 1787.41 1766.38 1731.7 1563.63 1448.05 1387.71 1310.66 1308.36 1303.2 1281.02 1275.94 1134.71 1102.03 1082.74 1073.31 1057.35 1049.94 978.179 1019.84 876.086 854.148 841.848 816.114 782.917
threshold=0.10852554440498353 -0.32051683962345118 0.57666298747062694 -0.067491851747035966 0.14808963239192965 0.10104775801301004 0.80911555886268627 0.084606595337390914 0.065947871655225768 -0.30366761982440943 0.32854726910591131 1.0000000180025095e-35 0.3175461888313294 0.72746825218200695 0.54889261722564708 -0.29851467907428736 -0.96281075477600087 -0.22150707244873044 -0.1444994658231735 0.05743879824876786 0.034323494881391532 0.72302025556564342 0.31194664537906652 0.4696186780929566 0.020516853313893083 0.00064304174156859528 -0.26551140844821924 -0.26551140844821924 0.45090144872665411 0.06519628688693048 -0.15653926227241752 -0.30366761982440943 -1.5459783673286436 0.1813902631402016 0.73558744788169872 0.50456464290618908 0.038831824436783798 -0.48243986070156092 0.094861160963773741 0.1965342313051224 0.020516853313893083 0.088439702987670912 1.1317933797836306 -0.33151793479919428 0.022510869428515438 0.68488040566444408 0.073616927489638342 0.07775162905454637 0.1993784308433533 0.047479834407567985 -0.15653926227241752 0.14871000498533252 0.10782572254538537 0.072829514741897597 0.92260602116584789 0.018099794164299968 -0.30366761982440943 0.063202623277902617 -0.17750272154808042 0.15094651281833651 1.0000000180025095e-35 0.2412989288568497 1.7318507432937624
decision_type=2 2 2 2 2 2 2 2 2 2 2 2 2 2 2 2 2 2 2 2 2 2 2 2 2 2 2 2 2 2 2 2 2 2 2 2 2 2 2 2 2 2 2 2 2 2 2 2 2 2 2 2 2 2 2 2 2 2 2 2 2 2 2
left_child=1 4 5 11 9 8 14 24 12 16 33 23 39 29 35 -13 -1 25 36 -20 21 -12 61 51 55 26 56 -27 40 38 -15 -28 -18 60 -16 62 37 -19 54 -2 -9 -11 -32 -34 -26 -14 -38 -33 -21 -36 -37 -3 -25 -10 -8 -5 -17 -58 -39 -42 -7 -6 -4
right_child=2 3 6 7 22 10 13 28 53 41 20 15 45 30 34 17 32 18 19 48 -22 -23 -24 52 44 27 31 -29 -30 -31 42 47 43 -35 49 50 46 58 -40 -41 59 -43 -44 -45 -46 -47 -48 -49 -50 -51 -52 -53 -54 -55 -56 -57 57 -59 -60 -61 -62 -63 -64
leaf_value=-0.015808560489854746 0.0092474154604520915 0.0021633701832988227 0.015808560489854746 0 0.0095525108361063215 0.015808560489854746 0.025003822617370549 0.0092474154604520915 -0.00030996935726902984 -0.015808560489854746 0.020897780836224622 -0.015808560489854746 0.015808560489854746 0.044680998318713035 0.020896983277321965 -0.015808560489854746 0 -0.016297485041087367 0 0 0.020897780836224622 0.025055975950306841 0.034042875606272942 0.025558414347961442 0.0092474154604520915 -0.015808560489854746 -0.015808560489854746 0 0.024846778000596894 0.030978728704860632 0.037128052456881541 -0.015808560489854746 -0.015808560489854746 0.015808560489854746 0.028571678283849229 0.025055975950306841 0 0 0.028477489334492723 0.0092474154604520915 0.0092474154604520915 0 0.06020708705699758 -0.015808560489854746 -0.0011981855384446327 0.020897780836224622 0.0095334180004660717 0.00048892455123262233 0.014730900942838019 0.024085895672479141 0.025055975950306841 0 0.010366139443654316 -0.015808560489854746 0.034266238165682056 0.0092474154604520915 -0.015808560489854746 -0.015808560489854746 0 0.0092474154604520915 0.015808560489854746 0.020230790145397418 0.014813855022775218
leaf_weight=12298338 934023 280641 145209 1277084 56188 258960 302481 769728 194884 254703 696339 2505740 435155 21424 418107 1220805 76956 456868 2810416 887073 87663 662699 65366 42602 1306103 412524 699260 825655 56111 20349 815569 1139156 5134480 540582 601052 111386 994583 2407051 87968 723686 397213 220315 696782 883659 102855 242555 38053 1415178 31963 12823 324273 360191 33182 65635 760412 978884 1132042 905283 1425788 340542 555949 24246 45490
leaf_count=12298338 934023 280641 145209 1277084 56188 258960 302481 769728 194884 254703 696339 2505740 435155 21424 418107 1220805 76956 456868 2810416 887073 87663 662699 65366 42602 1306103 412524 699260 825655 56111 20349 815569 1139156 5134480 540582 601052 111386 994583 2407051 87968 723686 397213 220315 696782 883659 102855 242555 38053 1415178 31963 12823 324273 360191 33182 65635 760412 978884 1132042 905283 1425788 340542 555949 24246 45490
internal_value=-0.00118287 -0.00401846 0.0116761 -0.0018456 -0.00690419 0.00762252 0.016691 0.00140891 0.00512324 -0.00703144 0.00993784 -0.0026954 0.00584171 0.0187427 0.0133444 -0.00283015 -0.00714917 -0.00263367 -0.00309393 -0.00188839 0.0117656 0.0121565 0.00956379 0.00093502 0.000346227 -0.00209609 -0.00183298 -0.00347985 0.00389976 0.0169255 0.0201304 -0.000850815 -0.0064569 0.00798705 0.0148224 0.0109092 -0.00393867 -0.00422542 0.0171303 0.00459965 0.00364178 -0.00247276 0.0202772 -0.00652618 0.0015097 0.00887984 -0.00274749 -0.000409251 -0.000150484 0.015962 0.0120483 0.00020954 0.0070697 -0.00131746 0.017477 -0.000380418 -0.00281377 -0.00241139 -0.00447778 0.00469071 0.00694203 0.005195 0.00830695
internal_weight=5.40283e+07 4.42668e+07 9.76146e+06 2.52526e+07 1.90143e+07 5.39813e+06 4.36332e+06 5.22852e+06 2.59594e+06 1.88685e+07 2.80219e+06 2.00241e+07 2.33542e+06 2.70498e+06 1.65834e+06 1.93074e+07 1.83934e+07 1.68017e+07 9.0518e+06 3.72945e+06 1.4467e+06 1.35904e+06 145800 716616 3.66493e+06 7.7499e+06 6.51172e+06 1.23818e+06 1.56359e+06 1.17121e+06 1.53378e+06 3.25359e+06 6.0951e+06 1.35549e+06 1.03198e+06 626358 5.32234e+06 4.28971e+06 1.15086e+06 1.65771e+06 1.50748e+06 475018 1.51235e+06 6.01814e+06 1.40896e+06 677710 1.03264e+06 2.55433e+06 919036 613875 435659 640832 75784 260519 1.06289e+06 2.25597e+06 3.25813e+06 2.03732e+06 3.83284e+06 737755 814909 80434 190699
internal_count=54028280 44266825 9761455 25252574 19014251 5398130 4363325 5228520 2595938 18868451 2802192 20024054 2335419 2704985 1658340 19307438 18393433 16801698 9051795 3729452 1446701 1359038 145800 716616 3664926 7749903 6511724 1238179 1563594 1171210 1533775 3253594 6095095 1355491 1031982 626358 5322343 4289707 1150861 1657709 1507483 475018 1512351 6018139 1408958 677710 1032636 2554334 919036 613875 435659 640832 75784 260519 1062893 2255968 3258130 2037325 3832839 737755 814909 80434 190699
is_linear=0
shrinkage=0.03


Tree=10
num_leaves=64
num_cat=0
split_feature=5 5 4 5 26 26 29 26 46 5 4 5 36 28 28 5 13 5 5 26 46 46 29 26 15 26 5 5 4 5 26 4 8 44 5 5 26 6 0 5 15 29 29 5 5 46 4 4 15 4 46 44 0 17 43 4 15 13 20 5 20 4 26
split_gain=2.17486e+06 300864 226810 70812.3 43945.3 36909.3 31203.9 14202.9 13120.3 12037.5 11251.7 10827.6 10799.6 7257.8 6356.03 5551.22 4854.1 4631.06 10242.4 4092.76 3847.12 3807.39 4128.09 3698.32 3556.54 3104.45 6969.69 5668.33 3008.99 2963.55 2584.51 2574.81 2542.11 2371.49 2057.73 2033.2 2019.93 2546.54 1988 1734.96 1731.7 1510.99 1500.23 1459.49 1448.05 1366.77 1361.34 1308.36 1303.2 1281.02 1207.86 1118.21 1093.29 1078.23 1018.49 978.179 1019.84 975.764 913.945 876.086 866.097 816.114 802.621
threshold=0.097524460405111327 -0.32051683962345118 0.57666298747062694 -0.067491851747035966 0.14808963239192965 0.10104775801301004 0.80082893371582042 0.084606595337390914 0.065947871655225768 0.32854726910591131 -0.30366761982440943 0.29554402828216558 1.0000000180025095e-35 0.79606539011001598 0.54889261722564708 -0.29851467907428736 -0.96281075477600087 -0.22150707244873044 -0.1444994658231735 0.05743879824876786 0.06519628688693048 0.034323494881391532 0.72302025556564342 0.31194664537906652 0.47875466942787176 0.00064304174156859528 -0.26551140844821924 -0.26551140844821924 0.45090144872665411 1.0000000180025095e-35 0.1813902631402016 -0.30366761982440943 -1.5459783673286436 0.084070716053247466 0.70258423686027538 0.50456464290618908 0.038831824436783798 -0.48243986070156092 -0.15653926227241752 0.18553315103054049 0.088439702987670912 0.68188020586967479 1.1317933797836306 0.009515753714367749 -0.33151793479919428 0.020075995475053791 1.1635500192642214 0.073616927489638342 0.07775162905454637 0.1993784308433533 0.040917018428444869 0.14871000498533252 -0.15653926227241752 0.072829514741897597 0.10782572254538537 -0.30366761982440943 0.063202623277902617 -0.74876970052719105 1.0000000180025095e-35 -0.17750272154808042 1.0000000180025095e-35 0.2412989288568497 0.15094651281833651
decision_type=2 2 2 2 2 2 2 2 2 2 2 2 2 2 2 2 2 2 2 2 2 2 2 2 2 2 2 2 2 2 2 2 2 2 2 2 2 2 2 2 2 2 2 2 2 2 2 2 2 2 2 2 2 2 2 2 2 2 2 2 2 2 2
left_child=1 4 5 12 10 8 14 29 11 30 16 39 24 20 35 -14 -1 25 36 -20 33 22 -11 61 51 26 55 -27 43 -5 60 -28 -18 46 -16 -4 37 -19 -15 -2 -12 -13 -40 -9 -34 58 -8 -38 -33 -21 -36 -3 -37 -10 -26 -17 -57 -48 -31 -39 -7 -6 -45
right_child=2 3 6 7 23 9 13 28 53 21 40 41 15 38 34 17 32 18 19 49 -22 -23 -24 -25 54 27 31 -29 -30 45 -32 48 44 -35 50 52 47 59 42 -41 -42 -43 -44 62 -46 -47 57 -49 -50 -51 -52 -53 -54 -55 -56 56 -58 -59 -60 -61 -62 -63 -64
leaf_value=-0.015334303675159101 0.0089699929966385299 0.0020984690777998581 0.015334303675159101 0 0.009265935511023133 0.015334303675159101 0.027046411211734882 0.0089699929966385299 -0.00030067027655095944 0.020270847411137882 -0.015334303675159101 0.015334303675159101 -0.015334303675159101 0.048064106508589978 0.020105984385386584 -0.015334303675159101 0 -0.015808560489854746 0 0 0.030049366843714811 0.020270847411137882 0.024304296671797634 0.033021589338084752 0.02489857147846334 -0.015334303675159101 -0.015334303675159101 0 0.024360288511363289 0.0089699929966385299 0.015334303675159101 -0.015334303675159101 -0.015334303675159101 0.027714527935333754 0.027714527935333754 0.024304296671797634 0 0 0.038010607811747275 0.0089699929966385299 0 0.017341540838664286 0.059533088514654109 0.0089699929966385299 -0.015334303675159101 -0.0011622399722912935 0.046058722062789825 0.0092474154604520915 0.00047425681469564384 0.01428897391455288 0.023363318802304765 0 0.024304296671797634 -0.015334303675159101 0.010218992442798053 -0.015334303675159101 -0.015334303675159101 0.035672592849686317 0.0089699929966385299 0 0.015334303675159101 0.019623866441035497 0.0089699929966385299
leaf_weight=12298338 986338 285360 189127 1785768 56188 276556 659707 674263 200108 696339 254703 502036 2505740 12851 371019 1220805 76956 456868 2810416 887073 25434 87663 662699 65366 39812 412524 699260 825655 50908 384533 569903 1139156 5134480 115869 596832 108938 994583 2407051 528521 724130 220315 272485 628851 401797 883659 125737 83507 38053 1415178 31963 13389 361745 312551 67081 29699 1132042 905283 720195 1228581 1425788 584170 24246 342089
leaf_count=12298338 986338 285360 189127 1785768 56188 276556 659707 674263 200108 696339 254703 502036 2505740 12851 371019 1220805 76956 456868 2810416 887073 25434 87663 662699 65366 39812 412524 699260 825655 50908 384533 569903 1139156 5134480 115869 596832 108938 994583 2407051 528521 724130 220315 272485 628851 401797 883659 125737 83507 38053 1415178 31963 13389 361745 312551 67081 29699 1132042 905283 720195 1228581 1425788 584170 24246 342089
internal_value=-0.00119227 -0.00406016 0.0114403 -0.00189825 -0.00690466 0.0074603 0.0165711 0.00129783 0.00497653 0.00983603 -0.00703144 0.00565574 -0.0026953 0.0184918 0.0132228 -0.00282952 -0.00714917 -0.00263307 -0.00309393 -0.00188839 0.0171816 0.0117656 0.0121565 0.00950226 0.000921037 -0.0020948 -0.00183298 -0.00347176 0.00377603 0.000264924 0.00788474 -0.000850815 -0.0064569 0.0173681 0.0147182 0.0108198 -0.00393867 -0.00422542 0.0202885 0.00432319 -0.00247276 0.00859858 0.0204188 0.00351879 -0.00652618 0.00114649 0.0176952 -0.00274749 -0.000409251 -0.000150484 0.0157895 0.000228359 0.0119794 -0.00134043 0.00736945 -0.00281377 -0.00241139 0.0185242 0.00138131 -0.00447778 0.00684718 0.005195 0.00443505
internal_weight=5.40283e+07 4.4032e+07 9.9963e+06 2.50177e+07 1.90143e+07 5.62951e+06 4.36679e+06 4.99368e+06 2.75218e+06 2.87733e+06 1.88685e+07 2.48499e+06 2.00241e+07 2.77494e+06 1.59186e+06 1.93074e+07 1.83934e+07 1.68017e+07 9.0518e+06 3.72945e+06 1.60471e+06 1.4467e+06 1.35904e+06 145800 716616 7.7499e+06 6.51172e+06 1.23818e+06 1.46906e+06 3.52462e+06 1.43063e+06 3.25359e+06 6.0951e+06 1.57928e+06 981240 610616 5.32234e+06 4.28971e+06 1.17022e+06 1.71047e+06 475018 774521 1.15737e+06 1.41815e+06 6.01814e+06 1.73885e+06 1.46341e+06 1.03264e+06 2.55433e+06 919036 610221 647105 421489 267189 69511 3.25813e+06 2.03732e+06 803702 1.61311e+06 3.83284e+06 860726 80434 743886
internal_count=54028280 44031981 9996299 25017730 19014251 5629508 4366791 4993676 2752178 2877330 18868451 2484989 20024054 2774935 1591856 19307438 18393433 16801698 9051795 3729452 1604712 1446701 1359038 145800 716616 7749903 6511724 1238179 1469057 3524619 1430629 3253594 6095095 1579278 981240 610616 5322343 4289707 1170223 1710468 475018 774521 1157372 1418149 6018139 1738851 1463409 1032636 2554334 919036 610221 647105 421489 267189 69511 3258130 2037325 803702 1613114 3832839 860726 80434 743886
is_linear=0
shrinkage=0.03


Tree=11
num_leaves=64
num_cat=0
split_feature=5 5 4 5 26 26 28 26 46 4 36 5 29 5 29 5 13 5 5 26 46 29 15 26 5 5 0 26 4 5 5 5 4 26 8 46 26 6 15 5 0 5 5 46 29 46 0 4 5 15 4 44 44 17 43 4 15 20 5 44 20 15 26
split_gain=2.14769e+06 301447 215712 70801.8 40674.7 33852.2 33743.8 14205.6 12795.2 11015.1 10754.1 10401.6 10044.8 9953.64 7884.55 5550.14 4839.83 4637.48 10242.4 4092.76 3561.44 3562.06 3540.16 3088.04 6969.69 5702.65 3074.93 3012.25 3008.99 2961.2 2760.42 2679.67 2574.81 2516.18 2470.36 2185.8 2019.93 2546.54 1689.34 1611.41 1600.87 1459.49 1448.26 1420.9 1389.35 1366.15 1327.45 1308.36 1307.82 1303.2 1281.02 1122.17 1106.16 1074.23 1030.16 978.179 1019.84 915.01 876.086 864.388 863.027 845.52 802.621
threshold=0.097524460405111327 -0.32051683962345118 0.53474250435829174 -0.067491851747035966 0.1411281302571297 0.10104775801301004 0.67356005311012279 0.084606595337390914 0.065947871655225768 -0.30366761982440943 1.0000000180025095e-35 0.32854726910591131 0.7046889364719392 0.27354182302951818 1.0259131789207461 -0.29851467907428736 -0.96281075477600087 -0.22150707244873044 -0.1444994658231735 0.05743879824876786 0.034323494881391532 0.72302025556564342 0.47875466942787176 0.00064304174156859528 -0.26551140844821924 -0.26551140844821924 -0.15653926227241752 0.28336951136589056 0.45090144872665411 1.0000000180025095e-35 0.66958096623420726 0.46056032180786138 -0.30366761982440943 0.1813902631402016 -1.5459783673286436 0.06230332329869271 0.038831824436783798 -0.48243986070156092 0.088439702987670912 0.43855814635753637 -0.15653926227241752 0.009515753714367749 -0.33151793479919428 0.10663825646042825 0.59165790677070629 0.020075995475053791 -0.15653926227241752 0.073616927489638342 0.73558744788169872 0.07775162905454637 0.1993784308433533 0.14168824255466464 0.14871000498533252 0.072829514741897597 0.10782572254538537 -0.30366761982440943 0.063202623277902617 1.0000000180025095e-35 -0.17750272154808042 0.2098491117358208 1.0000000180025095e-35 0.31701780855655676 0.15094651281833651
decision_type=2 2 2 2 2 2 2 2 2 2 2 2 2 2 2 2 2 2 2 2 2 2 2 2 2 2 2 2 2 2 2 2 2 2 2 2 2 2 2 2 2 2 2 2 2 2 2 2 2 2 2 2 2 2 2 2 2 2 2 2 2 2 2
left_child=1 4 5 10 9 8 12 29 13 16 22 33 31 44 40 -12 -1 23 36 -20 21 -13 52 24 55 -25 43 -6 41 -5 59 61 -26 60 -18 -16 37 -19 -11 -15 -8 -9 -36 -14 -2 57 -33 -38 -42 -34 -21 -32 -3 -10 -24 -17 -57 -31 -39 -28 -7 -4 -43
right_child=2 3 6 7 27 11 14 28 53 38 15 20 26 39 35 17 34 18 19 50 -22 -23 54 25 32 -27 30 -29 -30 45 51 46 49 -35 42 -37 47 58 -40 -41 48 62 -44 -45 -46 -47 -48 -49 -50 -51 -52 -53 -54 -55 -56 56 -58 -59 -60 -61 -62 -63 -64
leaf_value=-0.01487427456490433 0.0087008932067393751 0.002035515005465862 0.013817089458007175 0 0.0093528760591262746 0.01487427456490433 0.030889035634032166 0.0087008932067393751 -0.00029165016825442923 -0.01487427456490433 -0.01487427456490433 0.019662721988803748 0.028190825532404692 0.01487427456490433 0.051485446943193812 -0.01487427456490433 0 -0.015334303675159101 0 0 0.019662721988803748 0.019350591613132535 0.02415161433410944 -0.01487427456490433 -0.01487427456490433 0 0.01995143040579607 0.029832577208451155 0.023629479856022394 0.0087008932067393751 0.02858229348979387 0.020678793606073203 -0.01487427456490433 0.01487427456490433 -0.01487427456490433 0.045628103257759726 0 0 0 0.019750601185977955 0.024250364142791171 0.0087008932067393751 -0.01487427456490433 0.020517424145593311 0.0087008932067393751 -0.0011273727731225557 0.021367752672356723 0.0089699929966385299 0.031783217858731866 0.00046002911025477599 0.013860304697116294 0.028079916888961765 0 -0.01487427456490433 0.0099124226695141131 -0.01487427456490433 -0.01487427456490433 0.0087008932067393751 0 0.016817742512591632 0.01487427456490433 0.01487427456490433 0.0087008932067393751
leaf_weight=12298338 886411 285360 66114 1785768 76174 272654 34999 674263 199527 254695 2505740 624111 130425 538949 1025883 1220805 76047 456868 2810416 887073 84759 577754 39812 412524 699260 825655 337322 74962 50908 384533 981416 115538 1139156 557889 5134288 10699 994583 2407051 216088 300335 242160 401797 883659 16320 702765 125737 444858 38053 977755 1415178 31963 40683 361745 66937 29699 1132042 905283 1228581 1425788 17073 571814 171149 342089
leaf_count=12298338 886411 285360 66114 1785768 76174 272654 34999 674263 199527 254695 2505740 624111 130425 538949 1025883 1220805 76047 456868 2810416 887073 84759 577754 39812 412524 699260 825655 337322 74962 50908 384533 981416 115538 1139156 557889 5134288 10699 994583 2407051 216088 300335 242160 401797 883659 16320 702765 125737 444858 38053 977755 1415178 31963 40683 361745 66937 29699 1132042 905283 1228581 1425788 17073 571814 171149 342089
internal_value=-0.00121234 -0.00406225 0.0113411 -0.00189825 -0.00690951 0.00726206 0.0161023 0.00129759 0.00488584 -0.00703371 -0.00269524 0.00964353 0.0135527 0.00557058 0.0186847 -0.00282918 -0.0071497 -0.00263275 -0.00309393 -0.00188839 0.0115915 0.0120107 0.00091346 -0.00209411 -0.00183298 -0.00346742 0.0149809 0.00859173 0.00377603 0.000264584 0.0154209 0.0108253 -0.000850815 0.00785633 -0.00645836 0.020621 -0.00393867 -0.00422542 -0.00250247 0.00821347 0.0170854 0.00351879 -0.00652626 0.0108527 0.00417481 0.0011458 0.0119567 -0.00274749 0.0172669 -0.000409251 -0.000150484 0.016212 0.000222379 -0.00135463 0.007347 -0.00281377 -0.00241139 0.00138056 -0.00447778 0.0131394 0.00682346 0.00815301 0.00443505
internal_weight=5.40283e+07 4.4032e+07 9.9963e+06 2.50177e+07 1.90143e+07 5.3839e+06 4.61239e+06 4.99368e+06 2.69492e+06 1.88631e+07 2.00241e+07 2.68898e+06 2.3209e+06 2.42846e+06 2.2915e+06 1.93074e+07 1.83923e+07 1.68017e+07 9.0518e+06 3.72945e+06 1.28662e+06 1.20186e+06 716616 7.7499e+06 6.51172e+06 1.23818e+06 1.52324e+06 151136 1.46906e+06 3.52462e+06 1.37649e+06 797659 3.25359e+06 1.40236e+06 6.09399e+06 1.03658e+06 5.32234e+06 4.28971e+06 470783 839284 1.25491e+06 1.41815e+06 6.01795e+06 146745 1.58918e+06 1.73885e+06 560396 1.03264e+06 1.21992e+06 2.55433e+06 919036 1.0221e+06 647105 266464 69511 3.25813e+06 2.03732e+06 1.61311e+06 3.83284e+06 354395 844468 237263 743886
internal_count=54028280 44031981 9996299 25017730 19014251 5383905 4612394 4993676 2694924 18863115 20024054 2688981 2320898 2428460 2291496 19307438 18392332 16801698 9051795 3729452 1286624 1201865 716616 7749903 6511724 1238179 1523239 151136 1469057 3524619 1376494 797659 3253594 1402357 6093994 1036582 5322343 4289707 470783 839284 1254914 1418149 6017947 146745 1589176 1738851 560396 1032636 1219915 2554334 919036 1022099 647105 266464 69511 3258130 2037325 1613114 3832839 354395 844468 237263 743886
is_linear=0
shrinkage=0.03


Tree=12
num_leaves=64
num_cat=0
split_feature=5 5 4 5 26 26 29 26 46 5 5 36 28 4 5 26 13 5 5 0 26 4 29 46 29 15 26 5 5 4 26 5 4 5 46 26 6 8 5 5 15 5 15 4 15 26 4 13 5 46 17 5 44 46 17 43 4 15 5 20 26 5 20
split_gain=2.11527e+06 294410 215008 64131.7 37498.9 35957.3 32457.1 13063.3 12554.4 11253.6 11022.7 10753.2 10158.6 8766.81 5549.6 4823.77 4728.85 4639.38 10242.4 4572.27 4092.76 4057.08 3774.26 3561.44 3562.06 3539.73 3083.19 6969.69 5712.83 2879.8 2601.02 2584.57 2574.81 2508.81 2181.88 2019.93 2546.54 1924.19 1614.58 1611.41 1499.16 1448.06 1347.41 1308.36 1303.2 1297.03 1281.02 1266.06 1257.35 1186.68 1163.75 1174.51 1106.16 1091.81 1077.19 1029.95 978.179 1019.84 888.234 883.762 883.352 876.086 816.362
threshold=0.086523357778787627 -0.32051683962345118 0.53474250435829174 -0.067491851747035966 0.078920025378465666 0.10104775801301004 0.93314391374588024 0.084606595337390914 0.065947871655225768 0.32854726910591131 0.27354182302951818 1.0000000180025095e-35 0.56891846656799328 -0.30366761982440943 -0.29851467907428736 0.22960428148508075 -0.96281075477600087 -0.22150707244873044 -0.1444994658231735 -0.15653926227241752 0.05743879824876786 1.7504370808601382 0.66103211045265209 0.034323494881391532 0.72302025556564342 0.47875466942787176 0.00064304174156859528 -0.26551140844821924 -0.26551140844821924 0.45090144872665411 0.1813902631402016 0.65857985615730297 -0.30366761982440943 1.0000000180025095e-35 0.043128876015543945 0.038831824436783798 -0.48243986070156092 -1.5459783673286436 0.17453207075595858 0.43855814635753637 0.69005262851715099 -0.33151793479919428 0.079544007778167738 0.073616927489638342 0.07775162905454637 0.17587895691394809 0.1993784308433533 -0.76731988787651051 0.46056032180786138 0.019550807774066929 1.0000000180025095e-35 0.58157223463058483 0.14871000498533252 0.18366409093141559 0.072829514741897597 0.10782572254538537 -0.30366761982440943 0.063202623277902617 0.1965342313051224 1.0000000180025095e-35 0.20114182680845263 -0.17750272154808042 1.0000000180025095e-35
decision_type=2 2 2 2 2 2 2 2 2 2 2 2 2 2 2 2 2 2 2 2 2 2 2 2 2 2 2 2 2 2 2 2 2 2 2 2 2 2 2 2 2 2 2 2 2 2 2 2 2 2 2 2 2 2 2 2 2 2 2 2 2 2 2
left_child=1 4 5 11 13 8 12 33 10 30 38 25 22 16 -13 -6 -1 26 35 53 -20 -21 48 24 -11 52 27 56 -28 45 59 60 -29 -5 -33 36 -19 -18 -2 -12 -17 -39 -15 -37 -34 -9 -22 -23 -4 62 51 -24 -3 -8 -10 -27 -16 -58 -32 -7 -14 -38 -35
right_child=2 3 6 7 15 9 19 29 54 23 39 14 31 42 17 40 37 18 20 21 46 47 50 -25 -26 55 28 32 -30 -31 58 34 44 49 -36 43 61 41 -40 -41 -42 -43 -44 -45 -46 -47 -48 -49 -50 -51 -52 -53 -54 -55 -56 -57 57 -59 -60 -61 -62 -63 -64
leaf_value=-0.0144280463279572 0.0084398664105371935 0.001974449555301887 0.013463182024890059 0 0.0083424525504848124 0.0144280463279572 0.039533677757438261 0.0084398664105371935 -0.00028290066320679763 0.019072840329139636 0.0144280463279572 -0.0144280463279572 0.018139685108763046 -0.0144280463279572 -0.0144280463279572 0.019457826316768307 0 -0.01487427456490433 0 0.029856079715241624 0 0.052669040362600804 0.018171227218356852 0.019072840329139636 0.018770073864738557 0.023427065904086157 -0.0144280463279572 -0.0144280463279572 0 0.022920595460341722 0.0144280463279572 0.027625067794034855 -0.0144280463279572 0.0084398664105371935 0.025743918516355768 0 0 -0.0144280463279572 0.0084398664105371935 0.019158083150398617 0.046460733361769244 -0.0144280463279572 0 0.0087008932067393751 0.00044622823694713261 0.0084398664105371935 0.013444495556202803 0.048663100402121066 0.018398741590539096 -0.0010935515899288782 0.022729443005671566 0.023598384004217456 0 0.020596282028543481 -0.0144280463279572 0.0096150499894286905 -0.0144280463279572 -0.0144280463279572 0.0144280463279572 0.0144280463279572 0.02348773183700157 0 0.0084398664105371935
leaf_weight=12298338 1040570 285360 141798 1785768 113261 290646 31244 933479 204745 624111 538949 2505740 223717 241617 1220805 72718 67478 456868 2810416 556235 887073 79287 207626 84759 577754 39812 412524 699260 825655 45967 286372 1288364 1139156 350647 23108 994583 2407051 5130991 706749 300335 24281 883620 181947 38053 1415178 395174 31963 1074737 239662 115077 35259 474729 361745 11007 68377 29699 1132042 905283 300435 599585 229749 1425788 1123954
leaf_count=12298338 1040570 285360 141798 1785768 113261 290646 31244 933479 204745 624111 538949 2505740 223717 241617 1220805 72718 67478 456868 2810416 556235 887073 79287 207626 84759 577754 39812 412524 699260 825655 45967 286372 1288364 1139156 350647 23108 994583 2407051 5130991 706749 300335 24281 883620 181947 38053 1415178 395174 31963 1074737 239662 115077 35259 474729 361745 11007 68377 29699 1132042 905283 300435 599585 229749 1425788 1123954
internal_value=-0.00123625 -0.00410678 0.0110389 -0.00195173 -0.00691466 0.0071001 0.0158367 0.00118217 0.00474182 0.00954036 0.00538773 -0.00269514 0.0138689 -0.00705553 -0.00282908 0.00568439 -0.00715387 -0.00263266 -0.00309393 0.0190524 -0.00188839 0.0192932 0.0116048 0.0115915 0.0120107 0.000913418 -0.0020939 -0.00183298 -0.00346614 0.00364748 0.00775364 0.0152789 -0.000850815 0.000178194 0.0159539 -0.00393867 -0.00422542 -0.00646961 0.00403045 0.00821347 0.0105945 -0.00652613 -0.00278841 -0.00274749 -0.000409251 0.00339208 -0.000150484 0.0203076 0.00919355 0.00104505 0.0128866 0.0131612 0.000222379 0.00930315 -0.00137526 0.00734657 -0.00281377 -0.00241139 0.00930425 0.00673154 0.0133265 -0.00447778 0.00127403
internal_weight=5.40283e+07 4.37884e+07 1.02399e+07 2.47741e+07 1.90143e+07 5.62339e+06 4.61652e+06 4.75007e+06 2.85972e+06 2.76366e+06 2.5866e+06 2.00241e+07 2.86401e+06 1.8804e+07 1.93074e+07 210260 1.83804e+07 1.68017e+07 9.0518e+06 1.75251e+06 3.72945e+06 1.71026e+06 1.09907e+06 1.28662e+06 1.20186e+06 716616 7.7499e+06 6.51172e+06 1.23818e+06 1.37462e+06 1.47704e+06 1.76494e+06 3.25359e+06 3.37545e+06 1.31147e+06 5.32234e+06 4.28971e+06 6.08209e+06 1.74732e+06 839284 96999 6.01461e+06 423564 1.03264e+06 2.55433e+06 1.32865e+06 919036 1.15402e+06 381460 1.58968e+06 717614 682355 647105 42251 273122 69511 3.25813e+06 2.03732e+06 586807 890231 453466 3.83284e+06 1.4746e+06
internal_count=54028280 43788371 10239909 24774120 19014251 5623387 4616522 4750066 2859725 2763662 2586603 20024054 2864012 18803991 19307438 210260 18380427 16801698 9051795 1752510 3729452 1710259 1099074 1286624 1201865 716616 7749903 6511724 1238179 1374620 1477038 1764938 3253594 3375446 1311472 5322343 4289707 6082089 1747319 839284 96999 6014611 423564 1032636 2554334 1328653 919036 1154024 381460 1589678 717614 682355 647105 42251 273122 69511 3258130 2037325 586807 890231 453466 3832839 1474601
is_linear=0
shrinkage=0.03


Tree=13
num_leaves=64
num_cat=0
split_feature=5 5 4 5 29 26 26 26 46 36 29 5 5 4 4 5 5 5 13 15 15 26 0 46 29 26 5 5 5 4 5 28 4 26 26 6 8 46 4 17 44 5 5 13 15 4 15 29 5 15 4 44 44 0 17 46 43 4 15 29 5 20 20
split_gain=2.04043e+06 286966 199690 57854.7 52081.5 36980.8 31275.5 13125.8 11173.9 10732.4 10355.5 9222.32 9183.69 8766.81 6408.6 5167.39 5688.89 8160.68 4728.85 4635.05 3378.54 3372.48 3300.7 3128.2 3374.02 3081.64 6969.69 5716.1 2985.45 2975.11 2789.4 2712.99 2574.81 2297.77 2019.93 2546.54 1924.19 1771.15 1703.53 1609.97 1597.35 1548.87 1448.06 1439.43 1347.41 1308.36 1303.2 1284.14 1282.73 1281.19 1138.54 1090.22 1061.9 1049.24 1046.1 993.206 989.401 978.179 1019.84 889.308 876.086 868.585 829.6
threshold=0.075522258877754225 -0.32051683962345118 0.45090144872665411 -0.078492932021617876 0.91091233491897594 0.078920025378465666 0.096075978130102171 0.084606595337390914 0.065947871655225768 1.0000000180025095e-35 0.69116321206092846 0.24053857475519183 0.28454293310642248 -0.30366761982440943 1.7504370808601382 -0.29851467907428736 -0.22150707244873044 -0.1444994658231735 -0.96281075477600087 0.55832189321517955 0.47875466942787176 0.056662239134311683 -0.15653926227241752 0.037268936634063728 0.7046889364719392 0.00064304174156859528 -0.26551140844821924 -0.26551140844821924 0.42755702137947088 0.45090144872665411 -0.012486427323892711 0.70358514785766613 -0.30366761982440943 0.17964960634708407 0.038831824436783798 -0.48243986070156092 -1.5459783673286436 0.088078547269105925 0.1993784308433533 0.014291191007941963 0.11968775838613512 0.37255162000656133 -0.33151793479919428 -0.76731988787651051 0.079544007778167738 0.073616927489638342 0.07775162905454637 0.59165790677070629 1.0000000180025095e-35 0.33910371363163 0.1993784308433533 0.14871000498533252 0.14285711199045184 -0.15653926227241752 0.072829514741897597 0.057463482022285468 0.11696921661496164 -0.30366761982440943 0.063202623277902617 1.2114295363426211 -0.17750272154808042 1.0000000180025095e-35 1.0000000180025095e-35
decision_type=2 2 2 2 2 2 2 2 2 2 2 2 2 2 2 2 2 2 2 2 2 2 2 2 2 2 2 2 2 2 2 2 2 2 2 2 2 2 2 2 2 2 2 2 2 2 2 2 2 2 2 2 2 2 2 2 2 2 2 2 2 2 2
left_child=1 5 6 9 10 13 8 30 11 20 28 47 33 18 37 -11 25 34 -1 38 51 -19 -16 24 -14 26 57 -27 49 48 -5 39 -28 61 35 -18 -20 52 -7 40 -12 -13 -38 -24 -15 -36 -34 -2 -9 -4 -23 -3 -6 -30 -10 62 -22 -17 -59 -45 -37 -8 -32
right_child=2 3 4 7 14 19 12 29 54 15 31 41 23 44 22 16 17 21 36 -21 56 50 43 -25 -26 27 32 -29 53 -31 55 -33 46 -35 45 60 42 -39 -40 -41 -42 -43 -44 59 -46 -47 -48 -49 -50 -51 -52 -53 -54 -55 -56 -57 -58 58 -60 -61 -62 -63 -64
leaf_value=-0.013995204938118485 0.0081866704182210794 0.0019152160686428299 0.012966965760313344 0 0.028368602378797361 0.0080921789739702692 0.013995204938118483 0.0081866704182210794 -0.0002744136433105937 -0.013995204938118485 0.022595577436534831 0.013995204938118483 0.013995204938118483 -0.013995204938118485 0.04476226851428261 -0.013995204938118485 -0.0144280463279572 0 0 0.035762263915237451 0.022617344366022835 0 0.051015979069912974 0.013506184814994918 0.018039574828000875 -0.013995204938118485 -0.013995204938118485 0 0.018500655119265449 0.022232977596531468 0.0081866704182210794 0.028186388686211015 -0.013995204938118485 0.013995204938118483 0 0 -0.013995204938118485 0.026825216503791795 0.018503095128739027 0.02234763103649957 0.018607274810830795 0.013995204938118483 -0.013995204938118485 0.036609576781195904 0 0.0084398664105371935 0.00043284138983871735 0.0081866704182210794 0.0081866704182210794 0.014024150867210499 0.013388552061966119 0 0.024894945857667966 0.018896288682307135 -0.013995204938118485 -0.018106465839693334 0.0089616798763119936 -0.013995204938118485 -0.013995204938118485 0.055833669082867493 0 0.0081866704182210794 0.0081866704182210794
leaf_weight=12298338 952930 281526 124119 1911389 693423 123843 274579 679075 204906 2505740 1372664 502794 571831 241617 22895 1220805 456868 2460611 67478 43434 40732 763149 84372 86739 569887 412524 699260 825655 139189 44352 383667 609846 1139156 507457 994583 2407051 5130991 10757 42983 48630 108660 340330 883620 543020 181947 38053 1415178 674052 659799 242598 25074 360882 21299 600183 69173 70059 26143 1132042 905283 563230 1425788 551990 1238032
leaf_count=12298338 952930 281526 124119 1911389 693423 123843 274579 679075 204906 2505740 1372664 502794 571831 241617 22895 1220805 456868 2460611 67478 43434 40732 763149 84372 86739 569887 412524 699260 825655 139189 44352 383667 609846 1139156 507457 994583 2407051 5130991 10757 42983 48630 108660 340330 883620 543020 181947 38053 1415178 674052 659799 242598 25074 360882 21299 600183 69173 70059 26143 1132042 905283 563230 1425788 551990 1238032
internal_value=-0.00128768 -0.00414964 0.0105886 -0.00200495 0.0147757 -0.00691563 0.00649748 0.000879319 0.00427193 -0.00274112 0.0124518 0.00490961 0.00888083 -0.00705553 0.0186659 -0.0028776 -0.00268286 -0.00321544 -0.00715387 0.00559607 0.000881549 -0.00203063 0.0199995 0.0107524 0.0111697 -0.00209384 -0.00183298 -0.00346573 0.010095 0.00336352 -7.43496e-05 0.0136701 -0.000850815 0.00715739 -0.00393867 -0.00422542 -0.00646961 0.0164353 0.00332331 0.0129957 0.013172 0.00745602 -0.00652613 0.0202164 -0.00278841 -0.00274749 -0.000409251 0.00359002 0.00311029 0.00788192 -0.000322856 0.000213509 0.0166172 0.0111926 -0.00147502 0.000812891 0.0072988 -0.00281377 -0.00241139 0.0205045 -0.00447778 0.00618183 0.000963975
internal_weight=5.40283e+07 4.35367e+07 1.04916e+07 2.45225e+07 5.18488e+06 1.90143e+07 5.30667e+06 4.98637e+06 2.74418e+06 1.95361e+07 3.24589e+06 2.47011e+06 2.56248e+06 1.8804e+07 1.939e+06 1.88268e+07 1.63211e+07 8.57118e+06 1.83804e+07 210260 709283 3.24883e+06 1.21352e+06 1.22846e+06 1.14172e+06 7.7499e+06 6.51172e+06 1.23818e+06 1.10609e+06 1.38323e+06 3.60315e+06 2.1398e+06 3.25359e+06 1.33403e+06 5.32234e+06 4.28971e+06 6.08209e+06 725479 166826 1.52995e+06 1.48132e+06 843124 6.01461e+06 1.19062e+06 423564 1.03264e+06 2.55433e+06 1.62698e+06 1.33887e+06 366717 788223 642408 714722 739372 274079 1.69176e+06 66875 3.25813e+06 2.03732e+06 1.10625e+06 3.83284e+06 826569 1.6217e+06
internal_count=54028280 43536727 10491553 24522476 5184885 19014251 5306668 4986373 2744185 19536103 3245889 2470106 2562483 18803991 1938996 18826820 16321080 8571177 18380427 210260 709283 3248834 1213517 1228457 1141718 7749903 6511724 1238179 1106089 1383226 3603147 2139800 3253594 1334026 5322343 4289707 6082089 725479 166826 1529954 1481324 843124 6014611 1190622 423564 1032636 2554334 1626982 1338874 366717 788223 642408 714722 739372 274079 1691758 66875 3258130 2037325 1106250 3832839 826569 1621699
is_linear=0
shrinkage=0.03


Tree=14
num_leaves=64
num_cat=0
split_feature=5 5 4 5 29 26 26 26 46 36 29 5 5 4 28 5 5 5 13 15 28 15 26 46 29 26 5 5 4 5 5 46 4 26 26 6 8 46 44 4 5 5 0 5 15 4 15 29 5 15 0 4 44 29 17 43 4 15 4 20 5 20 13
split_gain=2.01128e+06 287046 189550 57960.7 51329.2 36975 31274.4 13090.8 11173.9 10732.4 10286.7 9222.32 9183.54 8766.81 5251.11 5167.39 5688.89 8160.68 4728.85 4630.98 3930.02 3378.54 3372.48 3129.66 3374.02 3081.64 6969.69 5716.1 2975.11 2822.64 2822.09 2662.86 2574.81 2297.96 2019.93 2546.54 1924.19 1814.48 1848.71 1703.53 1580.96 1548.87 1492.87 1448.06 1347.41 1308.36 1303.2 1284.14 1282.73 1281.1 1230.06 1138.54 1090.22 1065.79 1046.1 989.401 978.179 1019.84 964.56 937.529 876.086 868.447 839.968
threshold=0.075522258877754225 -0.32051683962345118 0.45090144872665411 -0.078492932021617876 0.93314391374588024 0.078920025378465666 0.096075978130102171 0.084606595337390914 0.065947871655225768 1.0000000180025095e-35 0.69116321206092846 0.24053857475519183 0.28454293310642248 -0.30366761982440943 0.82068645954132091 -0.29851467907428736 -0.22150707244873044 -0.1444994658231735 -0.96281075477600087 0.55832189321517955 0.7146875560283662 0.47875466942787176 0.056662239134311683 0.037268936634063728 0.7046889364719392 0.00064304174156859528 -0.26551140844821924 -0.26551140844821924 0.45090144872665411 0.42755702137947088 -0.012486427323892711 0.061284359544515617 -0.30366761982440943 0.17964960634708407 0.038831824436783798 -0.48243986070156092 -1.5459783673286436 0.074916705489158644 0.11968775838613512 0.1993784308433533 1.1096244454383852 0.37255162000656133 -0.15653926227241752 -0.33151793479919428 0.079544007778167738 0.073616927489638342 0.07775162905454637 0.59165790677070629 1.0000000180025095e-35 0.33910371363163 -0.15653926227241752 0.1993784308433533 0.14871000498533252 1.2114295363426211 0.072829514741897597 0.11696921661496164 -0.30366761982440943 0.063202623277902617 1.2473909854888918 1.0000000180025095e-35 -0.17750272154808042 1.0000000180025095e-35 -0.76731988787651051
decision_type=2 2 2 2 2 2 2 2 2 2 2 2 2 2 2 2 2 2 2 2 2 2 2 2 2 2 2 2 2 2 2 2 2 2 2 2 2 2 2 2 2 2 2 2 2 2 2 2 2 2 2 2 2 2 2 2 2 2 2 2 2 2 2
left_child=1 5 6 9 10 13 8 30 11 21 29 47 33 18 31 -11 25 34 -1 39 37 52 -19 24 -14 26 56 -27 48 49 -5 40 -28 61 35 -18 -20 38 -12 -7 -6 -13 -16 -38 -15 -36 -34 -2 -9 -4 -31 -24 -3 -44 -10 -23 -17 -58 -22 -32 -37 -8 -42
right_child=2 3 4 7 14 19 12 28 54 15 20 41 23 44 42 16 17 22 36 -21 58 55 51 -25 -26 27 32 -29 -30 50 59 -33 46 -35 45 60 43 -39 -40 -41 62 -43 53 -45 -46 -47 -48 -49 -50 -51 -52 -53 -54 -55 -56 -57 57 -59 -60 -61 -62 -63 -64
leaf_value=-0.013575348789974928 0.0079410703056744473 0.0018577595865835437 0.012577956787503945 0 0.024187519548882944 0.0078494136047511601 0.013575348789974928 0.0079410703056744473 -0.00026618123401127568 -0.013575348789974928 0.022140353940301345 0.013575348789974928 0.013575348789974928 -0.013575348789974928 0.048264284868701796 -0.013575348789974928 -0.013995204938118485 0 0 0.034689395997780328 0.023520343475578225 0.021938824035042149 0 0.013100999270545073 0.01749838758316085 -0.013575348789974928 -0.013575348789974928 0 0.021565988268635521 0.017945635465687487 0.0079410703056744473 0.030831402490552974 -0.013575348789974928 0.013575348789974928 0 0 -0.013575348789974928 0.018549589199960383 0.018448816769587963 0.017948002274876855 0.042672739940773655 0.013575348789974928 0.036010751900433818 -0.013575348789974928 0 0.0081866704182210794 0.00041985614814355696 0.0079410703056744473 0.0079410703056744473 0.013603426341194182 0.018329400021837923 0.012986895500107136 0 0.056228444605321649 -0.013575348789974928 0.0086928294800226336 -0.013575348789974928 -0.013575348789974928 0.032246052418653345 0.0079410703056744473 0 0.0079410703056744473 0.032510771639078839
