tree
version=v4
num_class=1
num_tree_per_iteration=1
label_index=0
max_feature_idx=46
objective=quantile
feature_names=Column_0 Column_1 Column_2 Column_3 Column_4 Column_5 Column_6 Column_7 Column_8 Column_9 Column_10 Column_11 Column_12 Column_13 Column_14 Column_15 Column_16 Column_17 Column_18 Column_19 Column_20 Column_21 Column_22 Column_23 Column_24 Column_25 Column_26 Column_27 Column_28 Column_29 Column_30 Column_31 Column_32 Column_33 Column_34 Column_35 Column_36 Column_37 Column_38 Column_39 Column_40 Column_41 Column_42 Column_43 Column_44 Column_45 Column_46
feature_infos=[-0.28488168120384216:158.85971069335938] [-0.28412732481956482:76.793212890625] [-0.28346124291419983:125.563232421875] [-0.28169348835945129:48.230735778808594] [-0.32462787628173828:119.44225311279297] [-0.33701848983764648:104.2943115234375] [-0.48244228959083557:63.33642578125] [-1.7310736179351807:1.7310736179351807] [-1.5784550905227661:1.6259156465530396] [-1.3792937994003296:1.3780460357666016] [-1.2747400999069214:1.4138048887252808] [-1.498625636100769:1.5003180503845215] [-1.642849326133728:1.6247442960739136] [-0.96994543075561523:11.584277153015137] [-1.8420482873916626:0.54287391901016235] [0:10.137248039245605] [0:0.79111999273300171] [0:1.0985912084579468] [0.032591145485639572:7.5186514854431152] [0:10.707796096801758] [0:0.67488765716552734] [0:1.7548061609268188] [0:7.5433182716369629] [0.043757162988185883:10.694111824035645] [0:1.7021725177764893] [0:1.5827033519744873] [0:4.5458593368530273] [0:0.44384366273880005] [0:10.429836273193359] [0.099834322929382324:14.972973823547363] [0:29.846057891845703] [0:17.071277618408203] [0:0.55029547214508057] [0:0.7358819842338562] [0:10.144794464111328] [0:11.567427635192871] [0:2.5159878730773926] [0:10.650430679321289] [0.03847050666809082:8.6599617004394531] [0:0.7667662501335144] [0:14.751423835754395] [0:1.1050832271575928] [0.13912069797515869:9.2417535781860352] [0:0.3819122314453125] [0:0.7875218391418457] [0:0.91445553302764893] [0:0.90082848072052002]
tree_sizes=5854 5854 5853 5854 5853 5854 5854 5854 5845 5847 5855 5855 5855 5855 5855 5826 5825 5826 5826 5826 5826 5826 5826 5825 5825 5877 5856 5873 5852 5847 5825 5865 5843 5844 5843 5847 5823 5821 5822 5823 5851 5852 5854 5824 5847 5824 5836 5817 5863 5819 5825 5842 5826 5821 5812 5817 5816 5819 5815 5815 5827 5782 5778 5815 5845 5810 5807 5802 5816 5804 5817 5802 5808 5805 5807 5805 5805 5806 5808 5779 5806 5819 5770 5801 5813 5755 5793 5797 5761 5780 5744 5778 5751 5765 5749 5752 5748 5749 5773 5773 5775 5841 5805 5810 5775 5777 5755 5817 5771 5812 5773 5802 5773 5795 5772 5739 5774 5793 5745 5789 5769 5794 5765 5793 5794 5763 5764 5763 5823 5766 5791 5769 5794 5752 5813 5774 5769 5744 5770 5749 5749 5745 5774 5768 5747 5741 5748 5770 5774 5776 5777 5777 5751 5761 5777 5782 5728 5776 5779 5722 5723 5776 5752 5728 5753 5774 5759 5730 5755 5784 5722 5723 5724 5721 5728 5731 5727 5778 5727 5726 5725 5724 5730 5748 5723 5722 5732 5733 5727 5726 5757 5725 5730 5736 5724 5752 5752 5756 5723 5718

Tree=0
num_leaves=64
num_cat=0
split_feature=5 4 4 26 15 29 5 4 5 5 4 43 5 5 0 46 5 29 26 0 5 5 46 5 46 15 5 15 5 4 15 13 5 5 7 5 4 26 44 27 29 13 26 5 13 29 46 6 46 27 5 17 15 6 17 27 5 29 5 5 0 5 36
split_gain=3.57878e+06 440057 419929 77117.8 58475.1 48844.9 43651.8 38965.2 28052.9 26766.7 21942.8 18401.1 13978.8 12674.5 11035.4 8162.83 7228.41 6669.33 6506.15 6478.83 6195.06 5001.62 4601.99 4378.17 4201.1 4180.1 3875.69 3819.53 3137.52 3078.17 3041.29 2735.68 2384.98 2329.24 2188.68 1982.63 1876.7 1862.91 1837.21 1788.11 1765.68 1697.63 1658.2 1556.85 1332.17 1302.75 1277.41 1237.09 1123.13 1120.35 1087.21 1056.81 1021.78 1008.19 939.19 934.394 923.468 879.917 878.461 800.279 796.463 765.5 780.99
threshold=-0.1555005460977554 -0.30366761982440943 0.1993784308433533 0.018786964006721977 0.16386100649833682 0.73183414340019237 -0.33151793479919428 -0.30366761982440943 1.0000000180025095e-35 -0.25451032817363733 0.031696426216512925 1.0000000180025095e-35 -0.056490771472454064 0.22953747212886813 -0.15653926227241752 0.048591181635856635 0.72458633780479442 0.60654553771018993 0.08546431735157968 -0.15653926227241752 -0.22150707244873044 -0.28751358389854426 0.10663825646042825 -0.21050597727298734 0.017292832955718044 0.17597278207540515 -0.067491851747035966 0.2536665946245194 0.0535200983285904 0.1993784308433533 0.063202623277902617 -0.96281075477600087 0.13052770495414737 0.46056032180786138 -1.7027273774147031 0.10852554440498353 -0.13598559051752088 0.095216955989599242 0.17087782919406894 1.0000000180025095e-35 0.57570171356201183 -0.74876970052719105 0.16736749559640887 -0.28751358389854426 -0.74876970052719105 0.95762792229652416 0.072392780333757414 1.0660598874092104 0.12953945994377139 1.0000000180025095e-35 -0.1224972829222679 0.039919883012771613 0.40840362012386328 1.5142784714698794 0.038572860881686218 1.0000000180025095e-35 -0.19950488209724423 0.50698679685592662 0.33954834938049322 -0.30951575934886927 -0.15653926227241752 -0.25451032817363733 1.0000000180025095e-35
decision_type=2 2 2 2 2 2 2 2 2 2 2 2 2 2 2 2 2 2 2 2 2 2 2 2 2 2 2 2 2 2 2 2 2 2 2 2 2 2 2 2 2 2 2 2 2 2 2 2 2 2 2 2 2 2 2 2 2 2 2 2 2 2 2
left_child=1 6 3 7 9 13 11 51 26 30 18 25 39 27 22 17 38 35 20 46 36 59 -7 55 28 -1 37 47 49 -12 43 -13 -19 -21 -33 -10 61 -5 58 -9 -28 -18 -20 -3 -35 -43 53 -4 -17 -14 -41 -2 -29 -15 -23 -11 -22 -25 -16 -8 -37 62 -6
right_child=2 4 5 8 10 14 21 12 15 23 29 31 24 19 16 48 41 32 42 33 56 54 -24 57 -26 -27 40 52 -30 -31 -32 34 -34 44 -36 60 -38 -39 -40 50 -42 45 -44 -45 -46 -47 -48 -49 -50 -51 -52 -53 -54 -55 -56 -57 -58 -59 -60 -61 -62 -63 -64
leaf_value=0 0 0 0 0 0 0.020794415473937986 0 0 0 0 0 0 0 0 0.020794415473937986 0 0.032958369255065914 0 0 0.020794415473937986 0 0 0 0 0 0 0 0 0 0.020794415473937986 0 0 0.020794415473937986 0 0 0 0 0 0 0 0 0.032958369255065914 0 0 0.020794415473937986 0.058377302885055542 0 0 0 0 0 0 0 0 0 0 0 0 0.020794415473937986 0 0 0 0
leaf_weight=33536 269134 1355345 180796 1111756 202336 265831 1646123 1018076 870593 801221 128592 12287824 600787 306968 352108 125937 226113 876978 643245 932384 594151 1587911 38633 1063011 150504 47601 569371 515004 510505 98609 1782906 17956 873432 129707 5153063 243940 170618 622200 88912 706415 672260 1230245 121417 1066919 936974 1437534 23240 66767 45024 557179 887619 220433 373281 117954 257863 1336002 1203731 545870 779957 1138155 488081 668595 653048
leaf_count=33536 269134 1355345 180796 1111756 202336 265831 1646123 1018076 870593 801221 128592 12287824 600787 306968 352108 125937 226113 876978 643245 932384 594151 1587911 38633 1063011 150504 47601 569371 515004 510505 98609 1782906 17956 873432 129707 5153063 243940 170618 622200 88912 706415 672260 1230245 121417 1066919 936974 1437534 23240 66767 45024 557179 887619 220433 373281 117954 257863 1336002 1203731 545870 779957 1138155 488081 668595 653048
internal_value=-0.0131804 -0.0189648 -0.0028742 -0.00656677 -0.0144478 0.00239545 -0.0214985 -0.00940007 -0.00442175 -0.0159927 -0.0117084 -0.0221824 -0.00851271 -0.000207528 0.00450588 -0.00261067 0.00491366 -0.00228465 -0.0121932 0.00100805 -0.012742 -0.0189075 -0.00100534 -0.0141485 -0.00649349 -0.00792872 -0.00656661 -0.00282653 -0.00606047 -0.00262456 -0.0176355 -0.0222486 -0.00100441 0.00173891 -0.0216698 -0.00368294 -0.0140435 -0.0074828 0.0029779 -0.00991881 -0.00528713 0.00573039 -0.00968681 -0.0183277 0.00269631 0.00594193 -0.00225203 -0.00612187 -0.00900499 -0.00692426 -0.00929153 -0.0174316 -0.00190813 -0.00187746 -0.0176965 -0.0150383 -0.0115153 -0.0129664 0.00330403 -0.0197103 -0.00253221 -0.0143775 -0.0149719
internal_weight=5.40283e+07 3.46056e+07 1.94226e+07 1.14202e+07 1.24356e+07 8.00241e+06 2.217e+07 4.92065e+06 6.49957e+06 7.95127e+06 4.48434e+06 1.754e+07 4.43108e+06 3.58308e+06 4.41933e+06 3.52398e+06 4.11487e+06 3.35302e+06 4.25714e+06 2.44723e+06 3.49248e+06 4.63005e+06 304464 3.7461e+06 1.81898e+06 81137 2.97559e+06 1.13585e+06 1.66847e+06 227201 4.20517e+06 1.74588e+07 1.75041e+06 1.99906e+06 5.17102e+06 1.60261e+06 1.6946e+06 1.73396e+06 1.22098e+06 2.61211e+06 1.24163e+06 2.89389e+06 764662 2.42226e+06 1.06668e+06 2.66778e+06 448162 247563 170961 1.15797e+06 1.59403e+06 489567 888285 424922 1.84577e+06 2.13722e+06 1.79788e+06 1.60888e+06 1.13206e+06 2.78428e+06 732021 1.52398e+06 855384
internal_count=54028280 34605648 19422632 11420224 12435616 8002408 22170032 4920652 6499572 7951274 4484342 17539980 4431085 3583075 4419333 3523985 4114869 3353024 4257141 2447227 3492479 4630052 304464 3746104 1818975 81137 2975587 1135848 1668471 227201 4205170 17458843 1750410 1999065 5171019 1602614 1694597 1733956 1220977 2612110 1241631 2893892 764662 2422264 1066681 2667779 448162 247563 170961 1157966 1594034 489567 888285 424922 1845774 2137223 1797882 1608881 1132065 2784278 732021 1523979 855384
is_linear=0
shrinkage=0.03


Tree=1
num_leaves=64
num_cat=0
split_feature=5 4 4 26 15 29 5 4 5 5 4 43 5 5 0 46 5 29 26 0 5 5 46 5 46 15 5 15 5 4 15 13 5 5 7 5 4 26 44 27 29 13 26 5 13 29 46 6 46 27 5 17 15 6 17 27 5 29 5 5 0 5 36
split_gain=3.57878e+06 440057 419929 77117.8 58475.1 48844.9 43651.8 38965.2 28052.9 26766.7 21942.8 18401.1 13978.8 12674.5 11035.4 8162.83 7228.41 6669.33 6506.15 6478.83 6195.06 5001.62 4601.99 4378.17 4201.1 4180.1 3875.69 3819.53 3137.52 3078.17 3041.29 2735.68 2384.98 2329.24 2188.68 1982.63 1876.7 1862.91 1837.21 1788.11 1765.68 1697.63 1658.2 1556.85 1332.17 1302.75 1277.41 1237.09 1123.13 1120.35 1087.21 1056.81 1021.78 1008.19 939.19 934.394 923.468 879.917 878.461 800.279 796.463 765.5 780.99
threshold=-0.1555005460977554 -0.30366761982440943 0.1993784308433533 0.018786964006721977 0.16386100649833682 0.73183414340019237 -0.33151793479919428 -0.30366761982440943 1.0000000180025095e-35 -0.25451032817363733 0.031696426216512925 1.0000000180025095e-35 -0.056490771472454064 0.22953747212886813 -0.15653926227241752 0.048591181635856635 0.72458633780479442 0.60654553771018993 0.08546431735157968 -0.15653926227241752 -0.22150707244873044 -0.28751358389854426 0.10663825646042825 -0.21050597727298734 0.017292832955718044 0.17597278207540515 -0.067491851747035966 0.2536665946245194 0.0535200983285904 0.1993784308433533 0.063202623277902617 -0.96281075477600087 0.13052770495414737 0.46056032180786138 -1.7027273774147031 0.10852554440498353 -0.13598559051752088 0.095216955989599242 0.17087782919406894 1.0000000180025095e-35 0.57570171356201183 -0.74876970052719105 0.16736749559640887 -0.28751358389854426 -0.74876970052719105 0.95762792229652416 0.072392780333757414 1.0660598874092104 0.12953945994377139 1.0000000180025095e-35 -0.1224972829222679 0.039919883012771613 0.40840362012386328 1.5142784714698794 0.038572860881686218 1.0000000180025095e-35 -0.19950488209724423 0.50698679685592662 0.33954834938049322 -0.30951575934886927 -0.15653926227241752 -0.25451032817363733 1.0000000180025095e-35
decision_type=2 2 2 2 2 2 2 2 2 2 2 2 2 2 2 2 2 2 2 2 2 2 2 2 2 2 2 2 2 2 2 2 2 2 2 2 2 2 2 2 2 2 2 2 2 2 2 2 2 2 2 2 2 2 2 2 2 2 2 2 2 2 2
left_child=1 6 3 7 9 13 11 51 26 30 18 25 39 27 22 17 38 35 20 46 36 59 -7 55 28 -1 37 47 49 -12 43 -13 -19 -21 -33 -10 61 -5 58 -9 -28 -18 -20 -3 -35 -43 53 -4 -17 -14 -41 -2 -29 -15 -23 -11 -22 -25 -16 -8 -37 62 -6
right_child=2 4 5 8 10 14 21 12 15 23 29 31 24 19 16 48 41 32 42 33 56 54 -24 57 -26 -27 40 52 -30 -31 -32 34 -34 44 -36 60 -38 -39 -40 50 -42 45 -44 -45 -46 -47 -48 -49 -50 -51 -52 -53 -54 -55 -56 -57 -58 -59 -60 -61 -62 -63 -64
leaf_value=0 0 0 0 0 0 0.020170583009719849 0 0 0 0 0 0 0 0 0.020170583009719849 0 0.031969618177413943 0 0 0.020170583009719849 0 0 0 0 0 0 0 0 0 0.020170583009719849 0 0 0.020170583009719849 0 0 0 0 0 0 0 0 0.031969618177413943 0 0 0.020170583009719849 0.056625983798503872 0 0 0 0 0 0 0 0 0 0 0 0 0.020170583009719849 0 0 0 0
leaf_weight=33536 269134 1355345 180796 1111756 202336 265831 1646123 1018076 870593 801221 128592 12287824 600787 306968 352108 125937 226113 876978 643245 932384 594151 1587911 38633 1063011 150504 47601 569371 515004 510505 98609 1782906 17956 873432 129707 5153063 243940 170618 622200 88912 706415 672260 1230245 121417 1066919 936974 1437534 23240 66767 45024 557179 887619 220433 373281 117954 257863 1336002 1203731 545870 779957 1138155 488081 668595 653048
leaf_count=33536 269134 1355345 180796 1111756 202336 265831 1646123 1018076 870593 801221 128592 12287824 600787 306968 352108 125937 226113 876978 643245 932384 594151 1587911 38633 1063011 150504 47601 569371 515004 510505 98609 1782906 17956 873432 129707 5153063 243940 170618 622200 88912 706415 672260 1230245 121417 1066919 936974 1437534 23240 66767 45024 557179 887619 220433 373281 117954 257863 1336002 1203731 545870 779957 1138155 488081 668595 653048
internal_value=-0.0131804 -0.0189648 -0.0028742 -0.00656677 -0.0144478 0.00239545 -0.0214985 -0.00940007 -0.00442175 -0.0159927 -0.0117084 -0.0221824 -0.00851271 -0.000207528 0.00450588 -0.00261067 0.00491366 -0.00228465 -0.0121932 0.00100805 -0.012742 -0.0189075 -0.00100534 -0.0141485 -0.00649349 -0.00792872 -0.00656661 -0.00282653 -0.00606047 -0.00262456 -0.0176355 -0.0222486 -0.00100441 0.00173891 -0.0216698 -0.00368294 -0.0140435 -0.0074828 0.0029779 -0.00991881 -0.00528713 0.00573039 -0.00968681 -0.0183277 0.00269631 0.00594193 -0.00225203 -0.00612187 -0.00900499 -0.00692426 -0.00929153 -0.0174316 -0.00190813 -0.00187746 -0.0176965 -0.0150383 -0.0115153 -0.0129664 0.00330403 -0.0197103 -0.00253221 -0.0143775 -0.0149719
internal_weight=5.40283e+07 3.46056e+07 1.94226e+07 1.14202e+07 1.24356e+07 8.00241e+06 2.217e+07 4.92065e+06 6.49957e+06 7.95127e+06 4.48434e+06 1.754e+07 4.43108e+06 3.58308e+06 4.41933e+06 3.52398e+06 4.11487e+06 3.35302e+06 4.25714e+06 2.44723e+06 3.49248e+06 4.63005e+06 304464 3.7461e+06 1.81898e+06 81137 2.97559e+06 1.13585e+06 1.66847e+06 227201 4.20517e+06 1.74588e+07 1.75041e+06 1.99906e+06 5.17102e+06 1.60261e+06 1.6946e+06 1.73396e+06 1.22098e+06 2.61211e+06 1.24163e+06 2.89389e+06 764662 2.42226e+06 1.06668e+06 2.66778e+06 448162 247563 170961 1.15797e+06 1.59403e+06 489567 888285 424922 1.84577e+06 2.13722e+06 1.79788e+06 1.60888e+06 1.13206e+06 2.78428e+06 732021 1.52398e+06 855384
internal_count=54028280 34605648 19422632 11420224 12435616 8002408 22170032 4920652 6499572 7951274 4484342 17539980 4431085 3583075 4419333 3523985 4114869 3353024 4257141 2447227 3492479 4630052 304464 3746104 1818975 81137 2975587 1135848 1668471 227201 4205170 17458843 1750410 1999065 5171019 1602614 1694597 1733956 1220977 2612110 1241631 2893892 764662 2422264 1066681 2667779 448162 247563 170961 1157966 1594034 489567 888285 424922 1845774 2137223 1797882 1608881 1132065 2784278 732021 1523979 855384
is_linear=0
shrinkage=0.03


Tree=2
num_leaves=64
num_cat=0
split_feature=5 4 4 26 15 29 5 4 5 5 4 43 5 5 0 46 5 29 26 0 5 5 46 5 46 15 5 15 5 4 15 13 5 5 7 5 4 26 44 27 29 13 26 5 13 29 46 6 46 27 5 17 15 6 17 27 5 29 5 5 0 5 36
split_gain=3.57878e+06 440057 419929 77117.8 58475.1 48844.9 43651.8 38965.2 28052.9 26766.7 21942.8 18401.1 13978.8 12674.5 11035.4 8162.83 7228.41 6669.33 6506.15 6478.83 6195.06 5001.62 4601.99 4378.17 4201.1 4180.1 3875.69 3819.53 3137.52 3078.17 3041.29 2735.68 2384.98 2329.24 2188.68 1982.63 1876.7 1862.91 1837.21 1788.11 1765.68 1697.63 1658.2 1556.85 1332.17 1302.75 1277.41 1237.09 1123.13 1120.35 1087.21 1056.81 1021.78 1008.19 939.19 934.394 923.468 879.917 878.461 800.279 796.463 765.5 780.99
threshold=-0.1555005460977554 -0.30366761982440943 0.1993784308433533 0.018786964006721977 0.16386100649833682 0.73183414340019237 -0.33151793479919428 -0.30366761982440943 1.0000000180025095e-35 -0.25451032817363733 0.031696426216512925 1.0000000180025095e-35 -0.056490771472454064 0.22953747212886813 -0.15653926227241752 0.048591181635856635 0.72458633780479442 0.60654553771018993 0.08546431735157968 -0.15653926227241752 -0.22150707244873044 -0.28751358389854426 0.10663825646042825 -0.21050597727298734 0.017292832955718044 0.17597278207540515 -0.067491851747035966 0.2536665946245194 0.0535200983285904 0.1993784308433533 0.063202623277902617 -0.96281075477600087 0.13052770495414737 0.46056032180786138 -1.7027273774147031 0.10852554440498353 -0.13598559051752088 0.095216955989599242 0.17087782919406894 1.0000000180025095e-35 0.57570171356201183 -0.74876970052719105 0.16736749559640887 -0.28751358389854426 -0.74876970052719105 0.95762792229652416 0.072392780333757414 1.0660598874092104 0.12953945994377139 1.0000000180025095e-35 -0.1224972829222679 0.039919883012771613 0.40840362012386328 1.5142784714698794 0.038572860881686218 1.0000000180025095e-35 -0.19950488209724423 0.50698679685592662 0.33954834938049322 -0.30951575934886927 -0.15653926227241752 -0.25451032817363733 1.0000000180025095e-35
decision_type=2 2 2 2 2 2 2 2 2 2 2 2 2 2 2 2 2 2 2 2 2 2 2 2 2 2 2 2 2 2 2 2 2 2 2 2 2 2 2 2 2 2 2 2 2 2 2 2 2 2 2 2 2 2 2 2 2 2 2 2 2 2 2
left_child=1 6 3 7 9 13 11 51 26 30 18 25 39 27 22 17 38 35 20 46 36 59 -7 55 28 -1 37 47 49 -12 43 -13 -19 -21 -33 -10 61 -5 58 -9 -28 -18 -20 -3 -35 -43 53 -4 -17 -14 -41 -2 -29 -15 -23 -11 -22 -25 -16 -8 -37 62 -6
right_child=2 4 5 8 10 14 21 12 15 23 29 31 24 19 16 48 41 32 42 33 56 54 -24 57 -26 -27 40 52 -30 -31 -32 34 -34 44 -36 60 -38 -39 -40 50 -42 45 -44 -45 -46 -47 -48 -49 -50 -51 -52 -53 -54 -55 -56 -57 -58 -59 -60 -61 -62 -63 -64
leaf_value=0 0 0 0 0 0 0.019565465519428251 0 0 0 0 0 0 0 0 0.019565465519428251 0 0.031010529632091523 0 0 0.019565465519428251 0 0 0 0 0 0 0 0 0 0.019565465519428251 0 0 0.019565465519428251 0 0 0 0 0 0 0 0 0.031010529632091523 0 0 0.019565465519428251 0.05492720428454876 0 0 0 0 0 0 0 0 0 0 0 0 0.019565465519428251 0 0 0 0
leaf_weight=33536 269134 1355345 180796 1111756 202336 265831 1646123 1018076 870593 801221 128592 12287824 600787 306968 352108 125937 226113 876978 643245 932384 594151 1587911 38633 1063011 150504 47601 569371 515004 510505 98609 1782906 17956 873432 129707 5153063 243940 170618 622200 88912 706415 672260 1230245 121417 1066919 936974 1437534 23240 66767 45024 557179 887619 220433 373281 117954 257863 1336002 1203731 545870 779957 1138155 488081 668595 653048
leaf_count=33536 269134 1355345 180796 1111756 202336 265831 1646123 1018076 870593 801221 128592 12287824 600787 306968 352108 125937 226113 876978 643245 932384 594151 1587911 38633 1063011 150504 47601 569371 515004 510505 98609 1782906 17956 873432 129707 5153063 243940 170618 622200 88912 706415 672260 1230245 121417 1066919 936974 1437534 23240 66767 45024 557179 887619 220433 373281 117954 257863 1336002 1203731 545870 779957 1138155 488081 668595 653048
internal_value=-0.0131804 -0.0189648 -0.0028742 -0.00656677 -0.0144478 0.00239545 -0.0214985 -0.00940007 -0.00442175 -0.0159927 -0.0117084 -0.0221824 -0.00851271 -0.000207528 0.00450588 -0.00261067 0.00491366 -0.00228465 -0.0121932 0.00100805 -0.012742 -0.0189075 -0.00100534 -0.0141485 -0.00649349 -0.00792872 -0.00656661 -0.00282653 -0.00606047 -0.00262456 -0.0176355 -0.0222486 -0.00100441 0.00173891 -0.0216698 -0.00368294 -0.0140435 -0.0074828 0.0029779 -0.00991881 -0.00528713 0.00573039 -0.00968681 -0.0183277 0.00269631 0.00594193 -0.00225203 -0.00612187 -0.00900499 -0.00692426 -0.00929153 -0.0174316 -0.00190813 -0.00187746 -0.0176965 -0.0150383 -0.0115153 -0.0129664 0.00330403 -0.0197103 -0.00253221 -0.0143775 -0.0149719
internal_weight=5.40283e+07 3.46056e+07 1.94226e+07 1.14202e+07 1.24356e+07 8.00241e+06 2.217e+07 4.92065e+06 6.49957e+06 7.95127e+06 4.48434e+06 1.754e+07 4.43108e+06 3.58308e+06 4.41933e+06 3.52398e+06 4.11487e+06 3.35302e+06 4.25714e+06 2.44723e+06 3.49248e+06 4.63005e+06 304464 3.7461e+06 1.81898e+06 81137 2.97559e+06 1.13585e+06 1.66847e+06 227201 4.20517e+06 1.74588e+07 1.75041e+06 1.99906e+06 5.17102e+06 1.60261e+06 1.6946e+06 1.73396e+06 1.22098e+06 2.61211e+06 1.24163e+06 2.89389e+06 764662 2.42226e+06 1.06668e+06 2.66778e+06 448162 247563 170961 1.15797e+06 1.59403e+06 489567 888285 424922 1.84577e+06 2.13722e+06 1.79788e+06 1.60888e+06 1.13206e+06 2.78428e+06 732021 1.52398e+06 855384
internal_count=54028280 34605648 19422632 11420224 12435616 8002408 22170032 4920652 6499572 7951274 4484342 17539980 4431085 3583075 4419333 3523985 4114869 3353024 4257141 2447227 3492479 4630052 304464 3746104 1818975 81137 2975587 1135848 1668471 227201 4205170 17458843 1750410 1999065 5171019 1602614 1694597 1733956 1220977 2612110 1241631 2893892 764662 2422264 1066681 2667779 448162 247563 170961 1157966 1594034 489567 888285 424922 1845774 2137223 1797882 1608881 1132065 2784278 732021 1523979 855384
is_linear=0
shrinkage=0.03


Tree=3
num_leaves=64
num_cat=0
split_feature=5 4 4 26 15 29 5 4 5 5 4 43 5 5 0 46 5 29 26 0 5 5 46 5 46 15 5 15 5 4 15 13 5 5 7 5 4 26 44 27 29 13 26 5 13 29 46 6 46 27 5 17 15 6 17 27 5 29 5 5 0 5 36
split_gain=3.57878e+06 440057 419929 77117.8 58475.1 48844.9 43651.8 38965.2 28052.9 26766.7 21942.8 18401.1 13978.8 12674.5 11035.4 8162.83 7228.41 6669.33 6506.15 6478.83 6195.06 5001.62 4601.99 4378.17 4201.1 4180.1 3875.69 3819.53 3137.52 3078.17 3041.29 2735.68 2384.98 2329.24 2188.68 1982.63 1876.7 1862.91 1837.21 1788.11 1765.68 1697.63 1658.2 1556.85 1332.17 1302.75 1277.41 1237.09 1123.13 1120.35 1087.21 1056.81 1021.78 1008.19 939.19 934.394 923.468 879.917 878.461 800.279 796.463 765.5 780.99
threshold=-0.1555005460977554 -0.30366761982440943 0.1993784308433533 0.018786964006721977 0.16386100649833682 0.73183414340019237 -0.33151793479919428 -0.30366761982440943 1.0000000180025095e-35 -0.25451032817363733 0.031696426216512925 1.0000000180025095e-35 -0.056490771472454064 0.22953747212886813 -0.15653926227241752 0.048591181635856635 0.72458633780479442 0.60654553771018993 0.08546431735157968 -0.15653926227241752 -0.22150707244873044 -0.28751358389854426 0.10663825646042825 -0.21050597727298734 0.017292832955718044 0.17597278207540515 -0.067491851747035966 0.2536665946245194 0.0535200983285904 0.1993784308433533 0.063202623277902617 -0.96281075477600087 0.13052770495414737 0.46056032180786138 -1.7027273774147031 0.10852554440498353 -0.13598559051752088 0.095216955989599242 0.17087782919406894 1.0000000180025095e-35 0.57570171356201183 -0.74876970052719105 0.16736749559640887 -0.28751358389854426 -0.74876970052719105 0.95762792229652416 0.072392780333757414 1.0660598874092104 0.12953945994377139 1.0000000180025095e-35 -0.1224972829222679 0.039919883012771613 0.40840362012386328 1.5142784714698794 0.038572860881686218 1.0000000180025095e-35 -0.19950488209724423 0.50698679685592662 0.33954834938049322 -0.30951575934886927 -0.15653926227241752 -0.25451032817363733 1.0000000180025095e-35
decision_type=2 2 2 2 2 2 2 2 2 2 2 2 2 2 2 2 2 2 2 2 2 2 2 2 2 2 2 2 2 2 2 2 2 2 2 2 2 2 2 2 2 2 2 2 2 2 2 2 2 2 2 2 2 2 2 2 2 2 2 2 2 2 2
left_child=1 6 3 7 9 13 11 51 26 30 18 25 39 27 22 17 38 35 20 46 36 59 -7 55 28 -1 37 47 49 -12 43 -13 -19 -21 -33 -10 61 -5 58 -9 -28 -18 -20 -3 -35 -43 53 -4 -17 -14 -41 -2 -29 -15 -23 -11 -22 -25 -16 -8 -37 62 -6
right_child=2 4 5 8 10 14 21 12 15 23 29 31 24 19 16 48 41 32 42 33 56 54 -24 57 -26 -27 40 52 -30 -31 -32 34 -34 44 -36 60 -38 -39 -40 50 -42 45 -44 -45 -46 -47 -48 -49 -50 -51 -52 -53 -54 -55 -56 -57 -58 -59 -60 -61 -62 -63 -64
leaf_value=0 0 0 0 0 0 0.018978501553845402 0 0 0 0 0 0 0 0 0.018978501553845402 0 0.030080213743128772 0 0 0.018978501553845402 0 0 0 0 0 0 0 0 0 0.018978501553845402 0 0 0.018978501553845402 0 0 0 0 0 0 0 0 0.030080213743128772 0 0 0.018978501553845402 0.053279388156012297 0 0 0 0 0 0 0 0 0 0 0 0 0.018978501553845402 0 0 0 0
leaf_weight=33536 269134 1355345 180796 1111756 202336 265831 1646123 1018076 870593 801221 128592 12287824 600787 306968 352108 125937 226113 876978 643245 932384 594151 1587911 38633 1063011 150504 47601 569371 515004 510505 98609 1782906 17956 873432 129707 5153063 243940 170618 622200 88912 706415 672260 1230245 121417 1066919 936974 1437534 23240 66767 45024 557179 887619 220433 373281 117954 257863 1336002 1203731 545870 779957 1138155 488081 668595 653048
leaf_count=33536 269134 1355345 180796 1111756 202336 265831 1646123 1018076 870593 801221 128592 12287824 600787 306968 352108 125937 226113 876978 643245 932384 594151 1587911 38633 1063011 150504 47601 569371 515004 510505 98609 1782906 17956 873432 129707 5153063 243940 170618 622200 88912 706415 672260 1230245 121417 1066919 936974 1437534 23240 66767 45024 557179 887619 220433 373281 117954 257863 1336002 1203731 545870 779957 1138155 488081 668595 653048
internal_value=-0.0131804 -0.0189648 -0.0028742 -0.00656677 -0.0144478 0.00239545 -0.0214985 -0.00940007 -0.00442175 -0.0159927 -0.0117084 -0.0221824 -0.00851271 -0.000207528 0.00450588 -0.00261067 0.00491366 -0.00228465 -0.0121932 0.00100805 -0.012742 -0.0189075 -0.00100534 -0.0141485 -0.00649349 -0.00792872 -0.00656661 -0.00282653 -0.00606047 -0.00262456 -0.0176355 -0.0222486 -0.00100441 0.00173891 -0.0216698 -0.00368294 -0.0140435 -0.0074828 0.0029779 -0.00991881 -0.00528713 0.00573039 -0.00968681 -0.0183277 0.00269631 0.00594193 -0.00225203 -0.00612187 -0.00900499 -0.00692426 -0.00929153 -0.0174316 -0.00190813 -0.00187746 -0.0176965 -0.0150383 -0.0115153 -0.0129664 0.00330403 -0.0197103 -0.00253221 -0.0143775 -0.0149719
internal_weight=5.40283e+07 3.46056e+07 1.94226e+07 1.14202e+07 1.24356e+07 8.00241e+06 2.217e+07 4.92065e+06 6.49957e+06 7.95127e+06 4.48434e+06 1.754e+07 4.43108e+06 3.58308e+06 4.41933e+06 3.52398e+06 4.11487e+06 3.35302e+06 4.25714e+06 2.44723e+06 3.49248e+06 4.63005e+06 304464 3.7461e+06 1.81898e+06 81137 2.97559e+06 1.13585e+06 1.66847e+06 227201 4.20517e+06 1.74588e+07 1.75041e+06 1.99906e+06 5.17102e+06 1.60261e+06 1.6946e+06 1.73396e+06 1.22098e+06 2.61211e+06 1.24163e+06 2.89389e+06 764662 2.42226e+06 1.06668e+06 2.66778e+06 448162 247563 170961 1.15797e+06 1.59403e+06 489567 888285 424922 1.84577e+06 2.13722e+06 1.79788e+06 1.60888e+06 1.13206e+06 2.78428e+06 732021 1.52398e+06 855384
internal_count=54028280 34605648 19422632 11420224 12435616 8002408 22170032 4920652 6499572 7951274 4484342 17539980 4431085 3583075 4419333 3523985 4114869 3353024 4257141 2447227 3492479 4630052 304464 3746104 1818975 81137 2975587 1135848 1668471 227201 4205170 17458843 1750410 1999065 5171019 1602614 1694597 1733956 1220977 2612110 1241631 2893892 764662 2422264 1066681 2667779 448162 247563 170961 1157966 1594034 489567 888285 424922 1845774 2137223 1797882 1608881 1132065 2784278 732021 1523979 855384
is_linear=0
shrinkage=0.03


Tree=4
num_leaves=64
num_cat=0
split_feature=5 4 4 26 15 29 5 4 5 5 4 43 5 5 0 46 5 29 26 0 5 5 46 5 46 15 5 15 5 4 15 13 5 5 7 5 4 26 44 27 29 13 26 5 13 29 46 6 46 27 5 17 15 6 17 27 5 29 5 5 0 5 36
split_gain=3.57878e+06 440057 419929 77117.8 58475.1 48844.9 43651.8 38965.2 28052.9 26766.7 21942.8 18401.1 13978.8 12674.5 11035.4 8162.83 7228.41 6669.33 6506.15 6478.83 6195.06 5001.62 4601.99 4378.17 4201.1 4180.1 3875.69 3819.53 3137.52 3078.17 3041.29 2735.68 2384.98 2329.24 2188.68 1982.63 1876.7 1862.91 1837.21 1788.11 1765.68 1697.63 1658.2 1556.85 1332.17 1302.75 1277.41 1237.09 1123.13 1120.35 1087.21 1056.81 1021.78 1008.19 939.19 934.394 923.468 879.917 878.461 800.279 796.463 765.5 780.99
threshold=-0.1555005460977554 -0.30366761982440943 0.1993784308433533 0.018786964006721977 0.16386100649833682 0.73183414340019237 -0.33151793479919428 -0.30366761982440943 1.0000000180025095e-35 -0.25451032817363733 0.031696426216512925 1.0000000180025095e-35 -0.056490771472454064 0.22953747212886813 -0.15653926227241752 0.048591181635856635 0.72458633780479442 0.60654553771018993 0.08546431735157968 -0.15653926227241752 -0.22150707244873044 -0.28751358389854426 0.10663825646042825 -0.21050597727298734 0.017292832955718044 0.17597278207540515 -0.067491851747035966 0.2536665946245194 0.0535200983285904 0.1993784308433533 0.063202623277902617 -0.96281075477600087 0.13052770495414737 0.46056032180786138 -1.7027273774147031 0.10852554440498353 -0.13598559051752088 0.095216955989599242 0.17087782919406894 1.0000000180025095e-35 0.57570171356201183 -0.74876970052719105 0.16736749559640887 -0.28751358389854426 -0.74876970052719105 0.95762792229652416 0.072392780333757414 1.0660598874092104 0.12953945994377139 1.0000000180025095e-35 -0.1224972829222679 0.039919883012771613 0.40840362012386328 1.5142784714698794 0.038572860881686218 1.0000000180025095e-35 -0.19950488209724423 0.50698679685592662 0.33954834938049322 -0.30951575934886927 -0.15653926227241752 -0.25451032817363733 1.0000000180025095e-35
decision_type=2 2 2 2 2 2 2 2 2 2 2 2 2 2 2 2 2 2 2 2 2 2 2 2 2 2 2 2 2 2 2 2 2 2 2 2 2 2 2 2 2 2 2 2 2 2 2 2 2 2 2 2 2 2 2 2 2 2 2 2 2 2 2
left_child=1 6 3 7 9 13 11 51 26 30 18 25 39 27 22 17 38 35 20 46 36 59 -7 55 28 -1 37 47 49 -12 43 -13 -19 -21 -33 -10 61 -5 58 -9 -28 -18 -20 -3 -35 -43 53 -4 -17 -14 -41 -2 -29 -15 -23 -11 -22 -25 -16 -8 -37 62 -6
right_child=2 4 5 8 10 14 21 12 15 23 29 31 24 19 16 48 41 32 42 33 56 54 -24 57 -26 -27 40 52 -30 -31 -32 34 -34 44 -36 60 -38 -39 -40 50 -42 45 -44 -45 -46 -47 -48 -49 -50 -51 -52 -53 -54 -55 -56 -57 -58 -59 -60 -61 -62 -63 -64
leaf_value=0 0 0 0 0 0 0.018409146507230044 0 0 0 0 0 0 0 0 0.018409146507230044 0 0.029177807330834915 0 0 0.018409146507230044 0 0 0 0 0 0 0 0 0 0.018409146507230044 0 0 0.018409146507230044 0 0 0 0 0 0 0 0 0.029177807330834915 0 0 0.018409146507230044 0.05168100651133193 0 0 0 0 0 0 0 0 0 0 0 0 0.018409146507230044 0 0 0 0
leaf_weight=33536 269134 1355345 180796 1111756 202336 265831 1646123 1018076 870593 801221 128592 12287824 600787 306968 352108 125937 226113 876978 643245 932384 594151 1587911 38633 1063011 150504 47601 569371 515004 510505 98609 1782906 17956 873432 129707 5153063 243940 170618 622200 88912 706415 672260 1230245 121417 1066919 936974 1437534 23240 66767 45024 557179 887619 220433 373281 117954 257863 1336002 1203731 545870 779957 1138155 488081 668595 653048
leaf_count=33536 269134 1355345 180796 1111756 202336 265831 1646123 1018076 870593 801221 128592 12287824 600787 306968 352108 125937 226113 876978 643245 932384 594151 1587911 38633 1063011 150504 47601 569371 515004 510505 98609 1782906 17956 873432 129707 5153063 243940 170618 622200 88912 706415 672260 1230245 121417 1066919 936974 1437534 23240 66767 45024 557179 887619 220433 373281 117954 257863 1336002 1203731 545870 779957 1138155 488081 668595 653048
internal_value=-0.0131804 -0.0189648 -0.0028742 -0.00656677 -0.0144478 0.00239545 -0.0214985 -0.00940007 -0.00442175 -0.0159927 -0.0117084 -0.0221824 -0.00851271 -0.000207528 0.00450588 -0.00261067 0.00491366 -0.00228465 -0.0121932 0.00100805 -0.012742 -0.0189075 -0.00100534 -0.0141485 -0.00649349 -0.00792872 -0.00656661 -0.00282653 -0.00606047 -0.00262456 -0.0176355 -0.0222486 -0.00100441 0.00173891 -0.0216698 -0.00368294 -0.0140435 -0.0074828 0.0029779 -0.00991881 -0.00528713 0.00573039 -0.00968681 -0.0183277 0.00269631 0.00594193 -0.00225203 -0.00612187 -0.00900499 -0.00692426 -0.00929153 -0.0174316 -0.00190813 -0.00187746 -0.0176965 -0.0150383 -0.0115153 -0.0129664 0.00330403 -0.0197103 -0.00253221 -0.0143775 -0.0149719
internal_weight=5.40283e+07 3.46056e+07 1.94226e+07 1.14202e+07 1.24356e+07 8.00241e+06 2.217e+07 4.92065e+06 6.49957e+06 7.95127e+06 4.48434e+06 1.754e+07 4.43108e+06 3.58308e+06 4.41933e+06 3.52398e+06 4.11487e+06 3.35302e+06 4.25714e+06 2.44723e+06 3.49248e+06 4.63005e+06 304464 3.7461e+06 1.81898e+06 81137 2.97559e+06 1.13585e+06 1.66847e+06 227201 4.20517e+06 1.74588e+07 1.75041e+06 1.99906e+06 5.17102e+06 1.60261e+06 1.6946e+06 1.73396e+06 1.22098e+06 2.61211e+06 1.24163e+06 2.89389e+06 764662 2.42226e+06 1.06668e+06 2.66778e+06 448162 247563 170961 1.15797e+06 1.59403e+06 489567 888285 424922 1.84577e+06 2.13722e+06 1.79788e+06 1.60888e+06 1.13206e+06 2.78428e+06 732021 1.52398e+06 855384
internal_count=54028280 34605648 19422632 11420224 12435616 8002408 22170032 4920652 6499572 7951274 4484342 17539980 4431085 3583075 4419333 3523985 4114869 3353024 4257141 2447227 3492479 4630052 304464 3746104 1818975 81137 2975587 1135848 1668471 227201 4205170 17458843 1750410 1999065 5171019 1602614 1694597 1733956 1220977 2612110 1241631 2893892 764662 2422264 1066681 2667779 448162 247563 170961 1157966 1594034 489567 888285 424922 1845774 2137223 1797882 1608881 1132065 2784278 732021 1523979 855384
is_linear=0
shrinkage=0.03


Tree=5
num_leaves=64
num_cat=0
split_feature=5 4 4 26 15 29 5 4 5 5 4 43 5 5 0 46 5 29 26 0 5 5 46 5 46 15 5 15 5 4 15 13 5 5 7 5 4 26 44 27 29 13 26 5 13 29 46 6 46 27 5 17 15 6 17 27 5 29 5 5 0 5 36
split_gain=3.57878e+06 440057 419929 77117.8 58475.1 48844.9 43651.8 38965.2 28052.9 26766.7 21942.8 18401.1 13978.8 12674.5 11035.4 8162.83 7228.41 6669.33 6506.15 6478.83 6195.06 5001.62 4601.99 4378.17 4201.1 4180.1 3875.69 3819.53 3137.52 3078.17 3041.29 2735.68 2384.98 2329.24 2188.68 1982.63 1876.7 1862.91 1837.21 1788.11 1765.68 1697.63 1658.2 1556.85 1332.17 1302.75 1277.41 1237.09 1123.13 1120.35 1087.21 1056.81 1021.78 1008.19 939.19 934.394 923.468 879.917 878.461 800.279 796.463 765.5 780.99
threshold=-0.1555005460977554 -0.30366761982440943 0.1993784308433533 0.018786964006721977 0.16386100649833682 0.73183414340019237 -0.33151793479919428 -0.30366761982440943 1.0000000180025095e-35 -0.25451032817363733 0.031696426216512925 1.0000000180025095e-35 -0.056490771472454064 0.22953747212886813 -0.15653926227241752 0.048591181635856635 0.72458633780479442 0.60654553771018993 0.08546431735157968 -0.15653926227241752 -0.22150707244873044 -0.28751358389854426 0.10663825646042825 -0.21050597727298734 0.017292832955718044 0.17597278207540515 -0.067491851747035966 0.2536665946245194 0.0535200983285904 0.1993784308433533 0.063202623277902617 -0.96281075477600087 0.13052770495414737 0.46056032180786138 -1.7027273774147031 0.10852554440498353 -0.13598559051752088 0.095216955989599242 0.17087782919406894 1.0000000180025095e-35 0.57570171356201183 -0.74876970052719105 0.16736749559640887 -0.28751358389854426 -0.74876970052719105 0.95762792229652416 0.072392780333757414 1.0660598874092104 0.12953945994377139 1.0000000180025095e-35 -0.1224972829222679 0.039919883012771613 0.40840362012386328 1.5142784714698794 0.038572860881686218 1.0000000180025095e-35 -0.19950488209724423 0.50698679685592662 0.33954834938049322 -0.30951575934886927 -0.15653926227241752 -0.25451032817363733 1.0000000180025095e-35
decision_type=2 2 2 2 2 2 2 2 2 2 2 2 2 2 2 2 2 2 2 2 2 2 2 2 2 2 2 2 2 2 2 2 2 2 2 2 2 2 2 2 2 2 2 2 2 2 2 2 2 2 2 2 2 2 2 2 2 2 2 2 2 2 2
left_child=1 6 3 7 9 13 11 51 26 30 18 25 39 27 22 17 38 35 20 46 36 59 -7 55 28 -1 37 47 49 -12 43 -13 -19 -21 -33 -10 61 -5 58 -9 -28 -18 -20 -3 -35 -43 53 -4 -17 -14 -41 -2 -29 -15 -23 -11 -22 -25 -16 -8 -37 62 -6
right_child=2 4 5 8 10 14 21 12 15 23 29 31 24 19 16 48 41 32 42 33 56 54 -24 57 -26 -27 40 52 -30 -31 -32 34 -34 44 -36 60 -38 -39 -40 50 -42 45 -44 -45 -46 -47 -48 -49 -50 -51 -52 -53 -54 -55 -56 -57 -58 -59 -60 -61 -62 -63 -64
leaf_value=0 0 0 0 0 0 0.017856872112013141 0 0 0 0 0 0 0 0 0.017856872112013141 0 0.028302473110909866 0 0 0.017856872112013141 0 0 0 0 0 0 0 0 0 0.017856872112013141 0 0 0.017856872112013141 0 0 0 0 0 0 0 0 0.028302473110909866 0 0 0.017856872112013141 0.050130576315991972 0 0 0 0 0 0 0 0 0 0 0 0 0.017856872112013141 0 0 0 0
leaf_weight=33536 269134 1355345 180796 1111756 202336 265831 1646123 1018076 870593 801221 128592 12287824 600787 306968 352108 125937 226113 876978 643245 932384 594151 1587911 38633 1063011 150504 47601 569371 515004 510505 98609 1782906 17956 873432 129707 5153063 243940 170618 622200 88912 706415 672260 1230245 121417 1066919 936974 1437534 23240 66767 45024 557179 887619 220433 373281 117954 257863 1336002 1203731 545870 779957 1138155 488081 668595 653048
leaf_count=33536 269134 1355345 180796 1111756 202336 265831 1646123 1018076 870593 801221 128592 12287824 600787 306968 352108 125937 226113 876978 643245 932384 594151 1587911 38633 1063011 150504 47601 569371 515004 510505 98609 1782906 17956 873432 129707 5153063 243940 170618 622200 88912 706415 672260 1230245 121417 1066919 936974 1437534 23240 66767 45024 557179 887619 220433 373281 117954 257863 1336002 1203731 545870 779957 1138155 488081 668595 653048
internal_value=-0.0131804 -0.0189648 -0.0028742 -0.00656677 -0.0144478 0.00239545 -0.0214985 -0.00940007 -0.00442175 -0.0159927 -0.0117084 -0.0221824 -0.00851271 -0.000207528 0.00450588 -0.00261067 0.00491366 -0.00228465 -0.0121932 0.00100805 -0.012742 -0.0189075 -0.00100534 -0.0141485 -0.00649349 -0.00792872 -0.00656661 -0.00282653 -0.00606047 -0.00262456 -0.0176355 -0.0222486 -0.00100441 0.00173891 -0.0216698 -0.00368294 -0.0140435 -0.0074828 0.0029779 -0.00991881 -0.00528713 0.00573039 -0.00968681 -0.0183277 0.00269631 0.00594193 -0.00225203 -0.00612187 -0.00900499 -0.00692426 -0.00929153 -0.0174316 -0.00190813 -0.00187746 -0.0176965 -0.0150383 -0.0115153 -0.0129664 0.00330403 -0.0197103 -0.00253221 -0.0143775 -0.0149719
internal_weight=5.40283e+07 3.46056e+07 1.94226e+07 1.14202e+07 1.24356e+07 8.00241e+06 2.217e+07 4.92065e+06 6.49957e+06 7.95127e+06 4.48434e+06 1.754e+07 4.43108e+06 3.58308e+06 4.41933e+06 3.52398e+06 4.11487e+06 3.35302e+06 4.25714e+06 2.44723e+06 3.49248e+06 4.63005e+06 304464 3.7461e+06 1.81898e+06 81137 2.97559e+06 1.13585e+06 1.66847e+06 227201 4.20517e+06 1.74588e+07 1.75041e+06 1.99906e+06 5.17102e+06 1.60261e+06 1.6946e+06 1.73396e+06 1.22098e+06 2.61211e+06 1.24163e+06 2.89389e+06 764662 2.42226e+06 1.06668e+06 2.66778e+06 448162 247563 170961 1.15797e+06 1.59403e+06 489567 888285 424922 1.84577e+06 2.13722e+06 1.79788e+06 1.60888e+06 1.13206e+06 2.78428e+06 732021 1.52398e+06 855384
internal_count=54028280 34605648 19422632 11420224 12435616 8002408 22170032 4920652 6499572 7951274 4484342 17539980 4431085 3583075 4419333 3523985 4114869 3353024 4257141 2447227 3492479 4630052 304464 3746104 1818975 81137 2975587 1135848 1668471 227201 4205170 17458843 1750410 1999065 5171019 1602614 1694597 1733956 1220977 2612110 1241631 2893892 764662 2422264 1066681 2667779 448162 247563 170961 1157966 1594034 489567 888285 424922 1845774 2137223 1797882 1608881 1132065 2784278 732021 1523979 855384
is_linear=0
shrinkage=0.03


Tree=6
num_leaves=64
num_cat=0
split_feature=5 4 4 26 15 29 5 4 5 5 4 43 5 5 0 46 5 29 26 0 5 5 46 5 46 15 5 15 5 4 15 13 5 5 7 5 4 26 44 27 29 13 26 5 13 29 46 6 46 27 5 17 15 6 17 27 5 29 5 5 0 5 36
split_gain=3.57878e+06 440057 419929 77117.8 58475.1 48844.9 43651.8 38965.2 28052.9 26766.7 21942.8 18401.1 13978.8 12674.5 11035.4 8162.83 7228.41 6669.33 6506.15 6478.83 6195.06 5001.62 4601.99 4378.17 4201.1 4180.1 3875.69 3819.53 3137.52 3078.17 3041.29 2735.68 2384.98 2329.24 2188.68 1982.63 1876.7 1862.91 1837.21 1788.11 1765.68 1697.63 1658.2 1556.85 1332.17 1302.75 1277.41 1237.09 1123.13 1120.35 1087.21 1056.81 1021.78 1008.19 939.19 934.394 923.468 879.917 878.461 800.279 796.463 765.5 780.99
threshold=-0.1555005460977554 -0.30366761982440943 0.1993784308433533 0.018786964006721977 0.16386100649833682 0.73183414340019237 -0.33151793479919428 -0.30366761982440943 1.0000000180025095e-35 -0.25451032817363733 0.031696426216512925 1.0000000180025095e-35 -0.056490771472454064 0.22953747212886813 -0.15653926227241752 0.048591181635856635 0.72458633780479442 0.60654553771018993 0.08546431735157968 -0.15653926227241752 -0.22150707244873044 -0.28751358389854426 0.10663825646042825 -0.21050597727298734 0.017292832955718044 0.17597278207540515 -0.067491851747035966 0.2536665946245194 0.0535200983285904 0.1993784308433533 0.063202623277902617 -0.96281075477600087 0.13052770495414737 0.46056032180786138 -1.7027273774147031 0.10852554440498353 -0.13598559051752088 0.095216955989599242 0.17087782919406894 1.0000000180025095e-35 0.57570171356201183 -0.74876970052719105 0.16736749559640887 -0.28751358389854426 -0.74876970052719105 0.95762792229652416 0.072392780333757414 1.0660598874092104 0.12953945994377139 1.0000000180025095e-35 -0.1224972829222679 0.039919883012771613 0.40840362012386328 1.5142784714698794 0.038572860881686218 1.0000000180025095e-35 -0.19950488209724423 0.50698679685592662 0.33954834938049322 -0.30951575934886927 -0.15653926227241752 -0.25451032817363733 1.0000000180025095e-35
decision_type=2 2 2 2 2 2 2 2 2 2 2 2 2 2 2 2 2 2 2 2 2 2 2 2 2 2 2 2 2 2 2 2 2 2 2 2 2 2 2 2 2 2 2 2 2 2 2 2 2 2 2 2 2 2 2 2 2 2 2 2 2 2 2
left_child=1 6 3 7 9 13 11 51 26 30 18 25 39 27 22 17 38 35 20 46 36 59 -7 55 28 -1 37 47 49 -12 43 -13 -19 -21 -33 -10 61 -5 58 -9 -28 -18 -20 -3 -35 -43 53 -4 -17 -14 -41 -2 -29 -15 -23 -11 -22 -25 -16 -8 -37 62 -6
right_child=2 4 5 8 10 14 21 12 15 23 29 31 24 19 16 48 41 32 42 33 56 54 -24 57 -26 -27 40 52 -30 -31 -32 34 -34 44 -36 60 -38 -39 -40 50 -42 45 -44 -45 -46 -47 -48 -49 -50 -51 -52 -53 -54 -55 -56 -57 -58 -59 -60 -61 -62 -63 -64
leaf_value=0 0 0 0 0 0 0.017321165948652746 0 0 0 0 0 0 0 0 0.017321165948652746 0 0.027453398917582569 0 0 0.017321165948652746 0 0 0 0 0 0 0 0 0 0.017321165948652746 0 0 0.017321165948652746 0 0 0 0 0 0 0 0 0.027453398917582569 0 0 0.017321165948652746 0.048626659026512205 0 0 0 0 0 0 0 0 0 0 0 0 0.017321165948652746 0 0 0 0
leaf_weight=33536 269134 1355345 180796 1111756 202336 265831 1646123 1018076 870593 801221 128592 12287824 600787 306968 352108 125937 226113 876978 643245 932384 594151 1587911 38633 1063011 150504 47601 569371 515004 510505 98609 1782906 17956 873432 129707 5153063 243940 170618 622200 88912 706415 672260 1230245 121417 1066919 936974 1437534 23240 66767 45024 557179 887619 220433 373281 117954 257863 1336002 1203731 545870 779957 1138155 488081 668595 653048
leaf_count=33536 269134 1355345 180796 1111756 202336 265831 1646123 1018076 870593 801221 128592 12287824 600787 306968 352108 125937 226113 876978 643245 932384 594151 1587911 38633 1063011 150504 47601 569371 515004 510505 98609 1782906 17956 873432 129707 5153063 243940 170618 622200 88912 706415 672260 1230245 121417 1066919 936974 1437534 23240 66767 45024 557179 887619 220433 373281 117954 257863 1336002 1203731 545870 779957 1138155 488081 668595 653048
internal_value=-0.0131804 -0.0189648 -0.0028742 -0.00656677 -0.0144478 0.00239545 -0.0214985 -0.00940007 -0.00442175 -0.0159927 -0.0117084 -0.0221824 -0.00851271 -0.000207528 0.00450588 -0.00261067 0.00491366 -0.00228465 -0.0121932 0.00100805 -0.012742 -0.0189075 -0.00100534 -0.0141485 -0.00649349 -0.00792872 -0.00656661 -0.00282653 -0.00606047 -0.00262456 -0.0176355 -0.0222486 -0.00100441 0.00173891 -0.0216698 -0.00368294 -0.0140435 -0.0074828 0.0029779 -0.00991881 -0.00528713 0.00573039 -0.00968681 -0.0183277 0.00269631 0.00594193 -0.00225203 -0.00612187 -0.00900499 -0.00692426 -0.00929153 -0.0174316 -0.00190813 -0.00187746 -0.0176965 -0.0150383 -0.0115153 -0.0129664 0.00330403 -0.0197103 -0.00253221 -0.0143775 -0.0149719
internal_weight=5.40283e+07 3.46056e+07 1.94226e+07 1.14202e+07 1.24356e+07 8.00241e+06 2.217e+07 4.92065e+06 6.49957e+06 7.95127e+06 4.48434e+06 1.754e+07 4.43108e+06 3.58308e+06 4.41933e+06 3.52398e+06 4.11487e+06 3.35302e+06 4.25714e+06 2.44723e+06 3.49248e+06 4.63005e+06 304464 3.7461e+06 1.81898e+06 81137 2.97559e+06 1.13585e+06 1.66847e+06 227201 4.20517e+06 1.74588e+07 1.75041e+06 1.99906e+06 5.17102e+06 1.60261e+06 1.6946e+06 1.73396e+06 1.22098e+06 2.61211e+06 1.24163e+06 2.89389e+06 764662 2.42226e+06 1.06668e+06 2.66778e+06 448162 247563 170961 1.15797e+06 1.59403e+06 489567 888285 424922 1.84577e+06 2.13722e+06 1.79788e+06 1.60888e+06 1.13206e+06 2.78428e+06 732021 1.52398e+06 855384
internal_count=54028280 34605648 19422632 11420224 12435616 8002408 22170032 4920652 6499572 7951274 4484342 17539980 4431085 3583075 4419333 3523985 4114869 3353024 4257141 2447227 3492479 4630052 304464 3746104 1818975 81137 2975587 1135848 1668471 227201 4205170 17458843 1750410 1999065 5171019 1602614 1694597 1733956 1220977 2612110 1241631 2893892 764662 2422264 1066681 2667779 448162 247563 170961 1157966 1594034 489567 888285 424922 1845774 2137223 1797882 1608881 1132065 2784278 732021 1523979 855384
is_linear=0
shrinkage=0.03


Tree=7
num_leaves=64
num_cat=0
split_feature=5 4 4 26 15 29 5 4 5 5 4 43 5 5 0 46 5 29 26 0 5 5 46 5 46 15 5 15 5 4 15 13 5 5 7 5 4 26 44 27 29 13 26 5 13 29 46 6 46 27 5 17 15 6 17 27 5 29 5 5 0 5 36
split_gain=3.57878e+06 440057 419929 77117.8 58475.1 48844.9 43651.8 38965.2 28052.9 26766.7 21942.8 18401.1 13978.8 12674.5 11035.4 8162.83 7228.41 6669.33 6506.15 6478.83 6195.06 5001.62 4601.99 4378.17 4201.1 4180.1 3875.69 3819.53 3137.52 3078.17 3041.29 2735.68 2384.98 2329.24 2188.68 1982.63 1876.7 1862.91 1837.21 1788.11 1765.68 1697.63 1658.2 1556.85 1332.17 1302.75 1277.41 1237.09 1123.13 1120.35 1087.21 1056.81 1021.78 1008.19 939.19 934.394 923.468 879.917 878.461 800.279 796.463 765.5 780.99
threshold=-0.1555005460977554 -0.30366761982440943 0.1993784308433533 0.018786964006721977 0.16386100649833682 0.73183414340019237 -0.33151793479919428 -0.30366761982440943 1.0000000180025095e-35 -0.25451032817363733 0.031696426216512925 1.0000000180025095e-35 -0.056490771472454064 0.22953747212886813 -0.15653926227241752 0.048591181635856635 0.72458633780479442 0.60654553771018993 0.08546431735157968 -0.15653926227241752 -0.22150707244873044 -0.28751358389854426 0.10663825646042825 -0.21050597727298734 0.017292832955718044 0.17597278207540515 -0.067491851747035966 0.2536665946245194 0.0535200983285904 0.1993784308433533 0.063202623277902617 -0.96281075477600087 0.13052770495414737 0.46056032180786138 -1.7027273774147031 0.10852554440498353 -0.13598559051752088 0.095216955989599242 0.17087782919406894 1.0000000180025095e-35 0.57570171356201183 -0.74876970052719105 0.16736749559640887 -0.28751358389854426 -0.74876970052719105 0.95762792229652416 0.072392780333757414 1.0660598874092104 0.12953945994377139 1.0000000180025095e-35 -0.1224972829222679 0.039919883012771613 0.40840362012386328 1.5142784714698794 0.038572860881686218 1.0000000180025095e-35 -0.19950488209724423 0.50698679685592662 0.33954834938049322 -0.30951575934886927 -0.15653926227241752 -0.25451032817363733 1.0000000180025095e-35
decision_type=2 2 2 2 2 2 2 2 2 2 2 2 2 2 2 2 2 2 2 2 2 2 2 2 2 2 2 2 2 2 2 2 2 2 2 2 2 2 2 2 2 2 2 2 2 2 2 2 2 2 2 2 2 2 2 2 2 2 2 2 2 2 2
left_child=1 6 3 7 9 13 11 51 26 30 18 25 39 27 22 17 38 35 20 46 36 59 -7 55 28 -1 37 47 49 -12 43 -13 -19 -21 -33 -10 61 -5 58 -9 -28 -18 -20 -3 -35 -43 53 -4 -17 -14 -41 -2 -29 -15 -23 -11 -22 -25 -16 -8 -37 62 -6
right_child=2 4 5 8 10 14 21 12 15 23 29 31 24 19 16 48 41 32 42 33 56 54 -24 57 -26 -27 40 52 -30 -31 -32 34 -34 44 -36 60 -38 -39 -40 50 -42 45 -44 -45 -46 -47 -48 -49 -50 -51 -52 -53 -54 -55 -56 -57 -58 -59 -60 -61 -62 -63 -64
leaf_value=0 0 0 0 0 0 0.016801530970193164 0 0 0 0 0 0 0 0 0.016801530970193164 0 0.026629796950055091 0 0 0.016801530970193164 0 0 0 0 0 0 0 0 0 0.016801530970193164 0 0 0.016801530970193164 0 0 0 0 0 0 0 0 0.026629796950055091 0 0 0.016801530970193164 0.047167859255716843 0 0 0 0 0 0 0 0 0 0 0 0 0.016801530970193164 0 0 0 0
leaf_weight=33536 269134 1355345 180796 1111756 202336 265831 1646123 1018076 870593 801221 128592 12287824 600787 306968 352108 125937 226113 876978 643245 932384 594151 1587911 38633 1063011 150504 47601 569371 515004 510505 98609 1782906 17956 873432 129707 5153063 243940 170618 622200 88912 706415 672260 1230245 121417 1066919 936974 1437534 23240 66767 45024 557179 887619 220433 373281 117954 257863 1336002 1203731 545870 779957 1138155 488081 668595 653048
leaf_count=33536 269134 1355345 180796 1111756 202336 265831 1646123 1018076 870593 801221 128592 12287824 600787 306968 352108 125937 226113 876978 643245 932384 594151 1587911 38633 1063011 150504 47601 569371 515004 510505 98609 1782906 17956 873432 129707 5153063 243940 170618 622200 88912 706415 672260 1230245 121417 1066919 936974 1437534 23240 66767 45024 557179 887619 220433 373281 117954 257863 1336002 1203731 545870 779957 1138155 488081 668595 653048
internal_value=-0.0131804 -0.0189648 -0.0028742 -0.00656677 -0.0144478 0.00239545 -0.0214985 -0.00940007 -0.00442175 -0.0159927 -0.0117084 -0.0221824 -0.00851271 -0.000207528 0.00450588 -0.00261067 0.00491366 -0.00228465 -0.0121932 0.00100805 -0.012742 -0.0189075 -0.00100534 -0.0141485 -0.00649349 -0.00792872 -0.00656661 -0.00282653 -0.00606047 -0.00262456 -0.0176355 -0.0222486 -0.00100441 0.00173891 -0.0216698 -0.00368294 -0.0140435 -0.0074828 0.0029779 -0.00991881 -0.00528713 0.00573039 -0.00968681 -0.0183277 0.00269631 0.00594193 -0.00225203 -0.00612187 -0.00900499 -0.00692426 -0.00929153 -0.0174316 -0.00190813 -0.00187746 -0.0176965 -0.0150383 -0.0115153 -0.0129664 0.00330403 -0.0197103 -0.00253221 -0.0143775 -0.0149719
internal_weight=5.40283e+07 3.46056e+07 1.94226e+07 1.14202e+07 1.24356e+07 8.00241e+06 2.217e+07 4.92065e+06 6.49957e+06 7.95127e+06 4.48434e+06 1.754e+07 4.43108e+06 3.58308e+06 4.41933e+06 3.52398e+06 4.11487e+06 3.35302e+06 4.25714e+06 2.44723e+06 3.49248e+06 4.63005e+06 304464 3.7461e+06 1.81898e+06 81137 2.97559e+06 1.13585e+06 1.66847e+06 227201 4.20517e+06 1.74588e+07 1.75041e+06 1.99906e+06 5.17102e+06 1.60261e+06 1.6946e+06 1.73396e+06 1.22098e+06 2.61211e+06 1.24163e+06 2.89389e+06 764662 2.42226e+06 1.06668e+06 2.66778e+06 448162 247563 170961 1.15797e+06 1.59403e+06 489567 888285 424922 1.84577e+06 2.13722e+06 1.79788e+06 1.60888e+06 1.13206e+06 2.78428e+06 732021 1.52398e+06 855384
internal_count=54028280 34605648 19422632 11420224 12435616 8002408 22170032 4920652 6499572 7951274 4484342 17539980 4431085 3583075 4419333 3523985 4114869 3353024 4257141 2447227 3492479 4630052 304464 3746104 1818975 81137 2975587 1135848 1668471 227201 4205170 17458843 1750410 1999065 5171019 1602614 1694597 1733956 1220977 2612110 1241631 2893892 764662 2422264 1066681 2667779 448162 247563 170961 1157966 1594034 489567 888285 424922 1845774 2137223 1797882 1608881 1132065 2784278 732021 1523979 855384
is_linear=0
shrinkage=0.03


Tree=8
num_leaves=64
num_cat=0
split_feature=5 4 4 26 15 29 5 4 5 5 4 43 5 5 0 46 5 29 26 0 5 5 46 5 46 15 5 15 5 4 15 13 5 5 7 5 4 26 44 27 29 13 26 5 13 29 46 6 46 27 5 17 15 6 17 27 5 29 5 5 0 5 36
split_gain=3.57878e+06 440057 419929 77117.8 58475.1 48844.9 43651.8 38965.2 28052.9 26766.7 21942.8 18401.1 13978.8 12674.5 11035.4 8162.83 7228.41 6669.33 6506.15 6478.83 6195.06 5001.62 4601.99 4378.17 4201.1 4180.1 3875.69 3819.53 3137.52 3078.17 3041.29 2735.68 2384.98 2329.24 2188.68 1982.63 1876.7 1862.91 1837.21 1788.11 1765.68 1697.63 1658.2 1556.85 1332.17 1302.75 1277.41 1237.09 1123.13 1120.35 1087.21 1056.81 1021.78 1008.19 939.19 934.394 923.468 879.917 878.461 800.279 796.463 765.5 780.99
threshold=-0.1555005460977554 -0.30366761982440943 0.1993784308433533 0.018786964006721977 0.16386100649833682 0.73183414340019237 -0.33151793479919428 -0.30366761982440943 1.0000000180025095e-35 -0.25451032817363733 0.031696426216512925 1.0000000180025095e-35 -0.056490771472454064 0.22953747212886813 -0.15653926227241752 0.048591181635856635 0.72458633780479442 0.60654553771018993 0.08546431735157968 -0.15653926227241752 -0.22150707244873044 -0.28751358389854426 0.10663825646042825 -0.21050597727298734 0.017292832955718044 0.17597278207540515 -0.067491851747035966 0.2536665946245194 0.0535200983285904 0.1993784308433533 0.063202623277902617 -0.96281075477600087 0.13052770495414737 0.46056032180786138 -1.7027273774147031 0.10852554440498353 -0.13598559051752088 0.095216955989599242 0.17087782919406894 1.0000000180025095e-35 0.57570171356201183 -0.74876970052719105 0.16736749559640887 -0.28751358389854426 -0.74876970052719105 0.95762792229652416 0.072392780333757414 1.0660598874092104 0.12953945994377139 1.0000000180025095e-35 -0.1224972829222679 0.039919883012771613 0.40840362012386328 1.5142784714698794 0.038572860881686218 1.0000000180025095e-35 -0.19950488209724423 0.50698679685592662 0.33954834938049322 -0.30951575934886927 -0.15653926227241752 -0.25451032817363733 1.0000000180025095e-35
decision_type=2 2 2 2 2 2 2 2 2 2 2 2 2 2 2 2 2 2 2 2 2 2 2 2 2 2 2 2 2 2 2 2 2 2 2 2 2 2 2 2 2 2 2 2 2 2 2 2 2 2 2 2 2 2 2 2 2 2 2 2 2 2 2
left_child=1 6 3 7 9 13 11 51 26 30 18 25 39 27 22 17 38 35 20 46 36 59 -7 55 28 -1 37 47 49 -12 43 -13 -19 -21 -33 -10 61 -5 58 -9 -28 -18 -20 -3 -35 -43 53 -4 -17 -14 -41 -2 -29 -15 -23 -11 -22 -25 -16 -8 -37 62 -6
right_child=2 4 5 8 10 14 21 12 15 23 29 31 24 19 16 48 41 32 42 33 56 54 -24 57 -26 -27 40 52 -30 -31 -32 34 -34 44 -36 60 -38 -39 -40 50 -42 45 -44 -45 -46 -47 -48 -49 -50 -51 -52 -53 -54 -55 -56 -57 -58 -59 -60 -61 -62 -63 -64
leaf_value=0 0 0 0 0 0 0.01629748504108737 0 0 0 0 0 0 0 0 0.01629748504108737 0 0.02583090304155344 0 0 0.01629748504108737 0 0 0 0 0 0 0 0 0 0.01629748504108737 0 0 0.01629748504108737 0 0 0 0 0 0 0 0 0.02583090304155344 0 0 0.01629748504108737 0.045752823478045337 0 0 0 0 0 0 0 0 0 0 0 0 0.01629748504108737 0 0 0 0
leaf_weight=33536 269134 1355345 180796 1111756 202336 265831 1646123 1018076 870593 801221 128592 12287824 600787 306968 352108 125937 226113 876978 643245 932384 594151 1587911 38633 1063011 150504 47601 569371 515004 510505 98609 1782906 17956 873432 129707 5153063 243940 170618 622200 88912 706415 672260 1230245 121417 1066919 936974 1437534 23240 66767 45024 557179 887619 220433 373281 117954 257863 1336002 1203731 545870 779957 1138155 488081 668595 653048
leaf_count=33536 269134 1355345 180796 1111756 202336 265831 1646123 1018076 870593 801221 128592 12287824 600787 306968 352108 125937 226113 876978 643245 932384 594151 1587911 38633 1063011 150504 47601 569371 515004 510505 98609 1782906 17956 873432 129707 5153063 243940 170618 622200 88912 706415 672260 1230245 121417 1066919 936974 1437534 23240 66767 45024 557179 887619 220433 373281 117954 257863 1336002 1203731 545870 779957 1138155 488081 668595 653048
internal_value=-0.0131804 -0.0189648 -0.0028742 -0.00656677 -0.0144478 0.00239545 -0.0214985 -0.00940007 -0.00442175 -0.0159927 -0.0117084 -0.0221824 -0.00851271 -0.000207528 0.00450588 -0.00261067 0.00491366 -0.00228465 -0.0121932 0.00100805 -0.012742 -0.0189075 -0.00100534 -0.0141485 -0.00649349 -0.00792872 -0.00656661 -0.00282653 -0.00606047 -0.00262456 -0.0176355 -0.0222486 -0.00100441 0.00173891 -0.0216698 -0.00368294 -0.0140435 -0.0074828 0.0029779 -0.00991881 -0.00528713 0.00573039 -0.00968681 -0.0183277 0.00269631 0.00594193 -0.00225203 -0.00612187 -0.00900499 -0.00692426 -0.00929153 -0.0174316 -0.00190813 -0.00187746 -0.0176965 -0.0150383 -0.0115153 -0.0129664 0.00330403 -0.0197103 -0.00253221 -0.0143775 -0.0149719
internal_weight=5.40283e+07 3.46056e+07 1.94226e+07 1.14202e+07 1.24356e+07 8.00241e+06 2.217e+07 4.92065e+06 6.49957e+06 7.95127e+06 4.48434e+06 1.754e+07 4.43108e+06 3.58308e+06 4.41933e+06 3.52398e+06 4.11487e+06 3.35302e+06 4.25714e+06 2.44723e+06 3.49248e+06 4.63005e+06 304464 3.7461e+06 1.81898e+06 81137 2.97559e+06 1.13585e+06 1.66847e+06 227201 4.20517e+06 1.74588e+07 1.75041e+06 1.99906e+06 5.17102e+06 1.60261e+06 1.6946e+06 1.73396e+06 1.22098e+06 2.61211e+06 1.24163e+06 2.89389e+06 764662 2.42226e+06 1.06668e+06 2.66778e+06 448162 247563 170961 1.15797e+06 1.59403e+06 489567 888285 424922 1.84577e+06 2.13722e+06 1.79788e+06 1.60888e+06 1.13206e+06 2.78428e+06 732021 1.52398e+06 855384
internal_count=54028280 34605648 19422632 11420224 12435616 8002408 22170032 4920652 6499572 7951274 4484342 17539980 4431085 3583075 4419333 3523985 4114869 3353024 4257141 2447227 3492479 4630052 304464 3746104 1818975 81137 2975587 1135848 1668471 227201 4205170 17458843 1750410 1999065 5171019 1602614 1694597 1733956 1220977 2612110 1241631 2893892 764662 2422264 1066681 2667779 448162 247563 170961 1157966 1594034 489567 888285 424922 1845774 2137223 1797882 1608881 1132065 2784278 732021 1523979 855384
is_linear=0
shrinkage=0.03


Tree=9
num_leaves=64
num_cat=0
split_feature=5 4 4 26 15 29 5 4 5 5 4 43 5 5 0 46 5 29 26 0 5 5 46 5 46 15 5 15 5 4 15 13 5 5 7 5 4 26 44 27 29 13 26 5 13 29 46 6 46 27 5 17 15 6 17 27 5 29 5 5 0 5 36
split_gain=3.57878e+06 440057 419929 77117.8 58475.1 48844.9 43651.8 38965.2 28052.9 26766.7 21942.8 18401.1 13978.8 12674.5 11035.4 8162.83 7228.41 6669.33 6506.15 6478.83 6195.06 5001.62 4601.99 4378.17 4201.1 4180.1 3875.69 3819.53 3137.52 3078.17 3041.29 2735.68 2384.98 2329.24 2188.68 1982.63 1876.7 1862.91 1837.21 1788.11 1765.68 1697.63 1658.2 1556.85 1332.17 1302.75 1277.41 1237.09 1123.13 1120.35 1087.21 1056.81 1021.78 1008.19 939.19 934.394 923.468 879.917 878.461 800.279 796.463 765.5 780.99
threshold=-0.1555005460977554 -0.30366761982440943 0.1993784308433533 0.018786964006721977 0.16386100649833682 0.73183414340019237 -0.33151793479919428 -0.30366761982440943 1.0000000180025095e-35 -0.25451032817363733 0.031696426216512925 1.0000000180025095e-35 -0.056490771472454064 0.22953747212886813 -0.15653926227241752 0.048591181635856635 0.72458633780479442 0.60654553771018993 0.08546431735157968 -0.15653926227241752 -0.22150707244873044 -0.28751358389854426 0.10663825646042825 -0.21050597727298734 0.017292832955718044 0.17597278207540515 -0.067491851747035966 0.2536665946245194 0.0535200983285904 0.1993784308433533 0.063202623277902617 -0.96281075477600087 0.13052770495414737 0.46056032180786138 -1.7027273774147031 0.10852554440498353 -0.13598559051752088 0.095216955989599242 0.17087782919406894 1.0000000180025095e-35 0.57570171356201183 -0.74876970052719105 0.16736749559640887 -0.28751358389854426 -0.74876970052719105 0.95762792229652416 0.072392780333757414 1.0660598874092104 0.12953945994377139 1.0000000180025095e-35 -0.1224972829222679 0.039919883012771613 0.40840362012386328 1.5142784714698794 0.038572860881686218 1.0000000180025095e-35 -0.19950488209724423 0.50698679685592662 0.33954834938049322 -0.30951575934886927 -0.15653926227241752 -0.25451032817363733 1.0000000180025095e-35
decision_type=2 2 2 2 2 2 2 2 2 2 2 2 2 2 2 2 2 2 2 2 2 2 2 2 2 2 2 2 2 2 2 2 2 2 2 2 2 2 2 2 2 2 2 2 2 2 2 2 2 2 2 2 2 2 2 2 2 2 2 2 2 2 2
left_child=1 6 3 7 9 13 11 51 26 30 18 25 39 27 22 17 38 35 20 46 36 59 -7 55 28 -1 37 47 49 -12 43 -13 -19 -21 -33 -10 61 -5 58 -9 -28 -18 -20 -3 -35 -43 53 -4 -17 -14 -41 -2 -29 -15 -23 -11 -22 -25 -16 -8 -37 62 -6
right_child=2 4 5 8 10 14 21 12 15 23 29 31 24 19 16 48 41 32 42 33 56 54 -24 57 -26 -27 40 52 -30 -31 -32 34 -34 44 -36 60 -38 -39 -40 50 -42 45 -44 -45 -46 -47 -48 -49 -50 -51 -52 -53 -54 -55 -56 -57 -58 -59 -60 -61 -62 -63 -64
leaf_value=0 0 0 0 0 0 0.01580856048985475 0 0 0 0 0 0 0 0 0.01580856048985475 0 0.025055975950306838 0 0 0.01580856048985475 0 0 0 0 0 0 0 0 0 0.01580856048985475 0 0 0.01580856048985475 0 0 0 0 0 0 0 0 0.025055975950306838 0 0 0.01580856048985475 0.044380238773703985 0 0 0 0 0 0 0 0 0 0 0 0 0.01580856048985475 0 0 0 0
leaf_weight=33536 269134 1355345 180796 1111756 202336 265831 1646123 1018076 870593 801221 128592 12287824 600787 306968 352108 125937 226113 876978 643245 932384 594151 1587911 38633 1063011 150504 47601 569371 515004 510505 98609 1782906 17956 873432 129707 5153063 243940 170618 622200 88912 706415 672260 1230245 121417 1066919 936974 1437534 23240 66767 45024 557179 887619 220433 373281 117954 257863 1336002 1203731 545870 779957 1138155 488081 668595 653048
leaf_count=33536 269134 1355345 180796 1111756 202336 265831 1646123 1018076 870593 801221 128592 12287824 600787 306968 352108 125937 226113 876978 643245 932384 594151 1587911 38633 1063011 150504 47601 569371 515004 510505 98609 1782906 17956 873432 129707 5153063 243940 170618 622200 88912 706415 672260 1230245 121417 1066919 936974 1437534 23240 66767 45024 557179 887619 220433 373281 117954 257863 1336002 1203731 545870 779957 1138155 488081 668595 653048
internal_value=-0.0131804 -0.0189648 -0.0028742 -0.00656677 -0.0144478 0.00239545 -0.0214985 -0.00940007 -0.00442175 -0.0159927 -0.0117084 -0.0221824 -0.00851271 -0.000207528 0.00450588 -0.00261067 0.00491366 -0.00228465 -0.0121932 0.00100805 -0.012742 -0.0189075 -0.00100534 -0.0141485 -0.00649349 -0.00792872 -0.00656661 -0.00282653 -0.00606047 -0.00262456 -0.0176355 -0.0222486 -0.00100441 0.00173891 -0.0216698 -0.00368294 -0.0140435 -0.0074828 0.0029779 -0.00991881 -0.00528713 0.00573039 -0.00968681 -0.0183277 0.00269631 0.00594193 -0.00225203 -0.00612187 -0.00900499 -0.00692426 -0.00929153 -0.0174316 -0.00190813 -0.00187746 -0.0176965 -0.0150383 -0.0115153 -0.0129664 0.00330403 -0.0197103 -0.00253221 -0.0143775 -0.0149719
internal_weight=5.40283e+07 3.46056e+07 1.94226e+07 1.14202e+07 1.24356e+07 8.00241e+06 2.217e+07 4.92065e+06 6.49957e+06 7.95127e+06 4.48434e+06 1.754e+07 4.43108e+06 3.58308e+06 4.41933e+06 3.52398e+06 4.11487e+06 3.35302e+06 4.25714e+06 2.44723e+06 3.49248e+06 4.63005e+06 304464 3.7461e+06 1.81898e+06 81137 2.97559e+06 1.13585e+06 1.66847e+06 227201 4.20517e+06 1.74588e+07 1.75041e+06 1.99906e+06 5.17102e+06 1.60261e+06 1.6946e+06 1.73396e+06 1.22098e+06 2.61211e+06 1.24163e+06 2.89389e+06 764662 2.42226e+06 1.06668e+06 2.66778e+06 448162 247563 170961 1.15797e+06 1.59403e+06 489567 888285 424922 1.84577e+06 2.13722e+06 1.79788e+06 1.60888e+06 1.13206e+06 2.78428e+06 732021 1.52398e+06 855384
internal_count=54028280 34605648 19422632 11420224 12435616 8002408 22170032 4920652 6499572 7951274 4484342 17539980 4431085 3583075 4419333 3523985 4114869 3353024 4257141 2447227 3492479 4630052 304464 3746104 1818975 81137 2975587 1135848 1668471 227201 4205170 17458843 1750410 1999065 5171019 1602614 1694597 1733956 1220977 2612110 1241631 2893892 764662 2422264 1066681 2667779 448162 247563 170961 1157966 1594034 489567 888285 424922 1845774 2137223 1797882 1608881 1132065 2784278 732021 1523979 855384
is_linear=0
shrinkage=0.03


Tree=10
num_leaves=64
num_cat=0
split_feature=5 4 4 26 15 29 5 4 5 5 4 43 5 5 0 46 5 29 26 0 5 5 46 5 46 15 5 15 5 4 15 13 5 5 7 5 4 26 44 27 29 13 26 5 13 29 46 6 46 27 5 17 15 6 17 27 5 29 5 5 0 5 36
split_gain=3.57878e+06 440057 419929 77117.8 58475.1 48844.9 43651.8 38965.2 28052.9 26766.7 21942.8 18401.1 13978.8 12674.5 11035.4 8162.83 7228.41 6669.33 6506.15 6478.83 6195.06 5001.62 4601.99 4378.17 4201.1 4180.1 3875.69 3819.53 3137.52 3078.17 3041.29 2735.68 2384.98 2329.24 2188.68 1982.63 1876.7 1862.91 1837.21 1788.11 1765.68 1697.63 1658.2 1556.85 1332.17 1302.75 1277.41 1237.09 1123.13 1120.35 1087.21 1056.81 1021.78 1008.19 939.19 934.394 923.468 879.917 878.461 800.279 796.463 765.5 780.99
threshold=-0.1555005460977554 -0.30366761982440943 0.1993784308433533 0.018786964006721977 0.16386100649833682 0.73183414340019237 -0.33151793479919428 -0.30366761982440943 1.0000000180025095e-35 -0.25451032817363733 0.031696426216512925 1.0000000180025095e-35 -0.056490771472454064 0.22953747212886813 -0.15653926227241752 0.048591181635856635 0.72458633780479442 0.60654553771018993 0.08546431735157968 -0.15653926227241752 -0.22150707244873044 -0.28751358389854426 0.10663825646042825 -0.21050597727298734 0.017292832955718044 0.17597278207540515 -0.067491851747035966 0.2536665946245194 0.0535200983285904 0.1993784308433533 0.063202623277902617 -0.96281075477600087 0.13052770495414737 0.46056032180786138 -1.7027273774147031 0.10852554440498353 -0.13598559051752088 0.095216955989599242 0.17087782919406894 1.0000000180025095e-35 0.57570171356201183 -0.74876970052719105 0.16736749559640887 -0.28751358389854426 -0.74876970052719105 0.95762792229652416 0.072392780333757414 1.0660598874092104 0.12953945994377139 1.0000000180025095e-35 -0.1224972829222679 0.039919883012771613 0.40840362012386328 1.5142784714698794 0.038572860881686218 1.0000000180025095e-35 -0.19950488209724423 0.50698679685592662 0.33954834938049322 -0.30951575934886927 -0.15653926227241752 -0.25451032817363733 1.0000000180025095e-35
decision_type=2 2 2 2 2 2 2 2 2 2 2 2 2 2 2 2 2 2 2 2 2 2 2 2 2 2 2 2 2 2 2 2 2 2 2 2 2 2 2 2 2 2 2 2 2 2 2 2 2 2 2 2 2 2 2 2 2 2 2 2 2 2 2
left_child=1 6 3 7 9 13 11 51 26 30 18 25 39 27 22 17 38 35 20 46 36 59 -7 55 28 -1 37 47 49 -12 43 -13 -19 -21 -33 -10 61 -5 58 -9 -28 -18 -20 -3 -35 -43 53 -4 -17 -14 -41 -2 -29 -15 -23 -11 -22 -25 -16 -8 -37 62 -6
right_child=2 4 5 8 10 14 21 12 15 23 29 31 24 19 16 48 41 32 42 33 56 54 -24 57 -26 -27 40 52 -30 -31 -32 34 -34 44 -36 60 -38 -39 -40 50 -42 45 -44 -45 -46 -47 -48 -49 -50 -51 -52 -53 -54 -55 -56 -57 -58 -59 -60 -61 -62 -63 -64
leaf_value=0 0 0 0 0 0 0.015334303675159108 0 0 0 0 0 0 0 0 0.015334303675159108 0 0.024304296671797631 0 0 0.015334303675159108 0 0 0 0 0 0 0 0 0 0.015334303675159108 0 0 0.015334303675159108 0 0 0 0 0 0 0 0 0.024304296671797631 0 0 0.015334303675159108 0.043048831610492853 0 0 0 0 0 0 0 0 0 0 0 0 0.015334303675159108 0 0 0 0
leaf_weight=33536 269134 1355345 180796 1111756 202336 265831 1646123 1018076 870593 801221 128592 12287824 600787 306968 352108 125937 226113 876978 643245 932384 594151 1587911 38633 1063011 150504 47601 569371 515004 510505 98609 1782906 17956 873432 129707 5153063 243940 170618 622200 88912 706415 672260 1230245 121417 1066919 936974 1437534 23240 66767 45024 557179 887619 220433 373281 117954 257863 1336002 1203731 545870 779957 1138155 488081 668595 653048
leaf_count=33536 269134 1355345 180796 1111756 202336 265831 1646123 1018076 870593 801221 128592 12287824 600787 306968 352108 125937 226113 876978 643245 932384 594151 1587911 38633 1063011 150504 47601 569371 515004 510505 98609 1782906 17956 873432 129707 5153063 243940 170618 622200 88912 706415 672260 1230245 121417 1066919 936974 1437534 23240 66767 45024 557179 887619 220433 373281 117954 257863 1336002 1203731 545870 779957 1138155 488081 668595 653048
internal_value=-0.0131804 -0.0189648 -0.0028742 -0.00656677 -0.0144478 0.00239545 -0.0214985 -0.00940007 -0.00442175 -0.0159927 -0.0117084 -0.0221824 -0.00851271 -0.000207528 0.00450588 -0.00261067 0.00491366 -0.00228465 -0.0121932 0.00100805 -0.012742 -0.0189075 -0.00100534 -0.0141485 -0.00649349 -0.00792872 -0.00656661 -0.00282653 -0.00606047 -0.00262456 -0.0176355 -0.0222486 -0.00100441 0.00173891 -0.0216698 -0.00368294 -0.0140435 -0.0074828 0.0029779 -0.00991881 -0.00528713 0.00573039 -0.00968681 -0.0183277 0.00269631 0.00594193 -0.00225203 -0.00612187 -0.00900499 -0.00692426 -0.00929153 -0.0174316 -0.00190813 -0.00187746 -0.0176965 -0.0150383 -0.0115153 -0.0129664 0.00330403 -0.0197103 -0.00253221 -0.0143775 -0.0149719
internal_weight=5.40283e+07 3.46056e+07 1.94226e+07 1.14202e+07 1.24356e+07 8.00241e+06 2.217e+07 4.92065e+06 6.49957e+06 7.95127e+06 4.48434e+06 1.754e+07 4.43108e+06 3.58308e+06 4.41933e+06 3.52398e+06 4.11487e+06 3.35302e+06 4.25714e+06 2.44723e+06 3.49248e+06 4.63005e+06 304464 3.7461e+06 1.81898e+06 81137 2.97559e+06 1.13585e+06 1.66847e+06 227201 4.20517e+06 1.74588e+07 1.75041e+06 1.99906e+06 5.17102e+06 1.60261e+06 1.6946e+06 1.73396e+06 1.22098e+06 2.61211e+06 1.24163e+06 2.89389e+06 764662 2.42226e+06 1.06668e+06 2.66778e+06 448162 247563 170961 1.15797e+06 1.59403e+06 489567 888285 424922 1.84577e+06 2.13722e+06 1.79788e+06 1.60888e+06 1.13206e+06 2.78428e+06 732021 1.52398e+06 855384
internal_count=54028280 34605648 19422632 11420224 12435616 8002408 22170032 4920652 6499572 7951274 4484342 17539980 4431085 3583075 4419333 3523985 4114869 3353024 4257141 2447227 3492479 4630052 304464 3746104 1818975 81137 2975587 1135848 1668471 227201 4205170 17458843 1750410 1999065 5171019 1602614 1694597 1733956 1220977 2612110 1241631 2893892 764662 2422264 1066681 2667779 448162 247563 170961 1157966 1594034 489567 888285 424922 1845774 2137223 1797882 1608881 1132065 2784278 732021 1523979 855384
is_linear=0
shrinkage=0.03


Tree=11
num_leaves=64
num_cat=0
split_feature=5 4 4 26 15 29 5 4 5 5 4 43 5 5 0 46 5 29 26 0 5 5 46 5 46 15 5 15 5 4 15 13 5 5 7 5 4 26 44 27 29 13 26 5 13 29 46 6 46 27 5 17 15 6 17 27 5 29 5 5 0 5 36
split_gain=3.57878e+06 440057 419929 77117.8 58475.1 48844.9 43651.8 38965.2 28052.9 26766.7 21942.8 18401.1 13978.8 12674.5 11035.4 8162.83 7228.41 6669.33 6506.15 6478.83 6195.06 5001.62 4601.99 4378.17 4201.1 4180.1 3875.69 3819.53 3137.52 3078.17 3041.29 2735.68 2384.98 2329.24 2188.68 1982.63 1876.7 1862.91 1837.21 1788.11 1765.68 1697.63 1658.2 1556.85 1332.17 1302.75 1277.41 1237.09 1123.13 1120.35 1087.21 1056.81 1021.78 1008.19 939.19 934.394 923.468 879.917 878.461 800.279 796.463 765.5 780.99
threshold=-0.1555005460977554 -0.30366761982440943 0.1993784308433533 0.018786964006721977 0.16386100649833682 0.73183414340019237 -0.33151793479919428 -0.30366761982440943 1.0000000180025095e-35 -0.25451032817363733 0.031696426216512925 1.0000000180025095e-35 -0.056490771472454064 0.22953747212886813 -0.15653926227241752 0.048591181635856635 0.72458633780479442 0.60654553771018993 0.08546431735157968 -0.15653926227241752 -0.22150707244873044 -0.28751358389854426 0.10663825646042825 -0.21050597727298734 0.017292832955718044 0.17597278207540515 -0.067491851747035966 0.2536665946245194 0.0535200983285904 0.1993784308433533 0.063202623277902617 -0.96281075477600087 0.13052770495414737 0.46056032180786138 -1.7027273774147031 0.10852554440498353 -0.13598559051752088 0.095216955989599242 0.17087782919406894 1.0000000180025095e-35 0.57570171356201183 -0.74876970052719105 0.16736749559640887 -0.28751358389854426 -0.74876970052719105 0.95762792229652416 0.072392780333757414 1.0660598874092104 0.12953945994377139 1.0000000180025095e-35 -0.1224972829222679 0.039919883012771613 0.40840362012386328 1.5142784714698794 0.038572860881686218 1.0000000180025095e-35 -0.19950488209724423 0.50698679685592662 0.33954834938049322 -0.30951575934886927 -0.15653926227241752 -0.25451032817363733 1.0000000180025095e-35
decision_type=2 2 2 2 2 2 2 2 2 2 2 2 2 2 2 2 2 2 2 2 2 2 2 2 2 2 2 2 2 2 2 2 2 2 2 2 2 2 2 2 2 2 2 2 2 2 2 2 2 2 2 2 2 2 2 2 2 2 2 2 2 2 2
left_child=1 6 3 7 9 13 11 51 26 30 18 25 39 27 22 17 38 35 20 46 36 59 -7 55 28 -1 37 47 49 -12 43 -13 -19 -21 -33 -10 61 -5 58 -9 -28 -18 -20 -3 -35 -43 53 -4 -17 -14 -41 -2 -29 -15 -23 -11 -22 -25 -16 -8 -37 62 -6
right_child=2 4 5 8 10 14 21 12 15 23 29 31 24 19 16 48 41 32 42 33 56 54 -24 57 -26 -27 40 52 -30 -31 -32 34 -34 44 -36 60 -38 -39 -40 50 -42 45 -44 -45 -46 -47 -48 -49 -50 -51 -52 -53 -54 -55 -56 -57 -58 -59 -60 -61 -62 -63 -64
leaf_value=0 0 0 0 0 0 0.014874274564904331 0 0 0 0 0 0 0 0 0.014874274564904331 0 0.023575167771643705 0 0 0.014874274564904331 0 0 0 0 0 0 0 0 0 0.014874274564904331 0 0 0.014874274564904331 0 0 0 0 0 0 0 0 0.023575167771643705 0 0 0.014874274564904331 0.041757366662178073 0 0 0 0 0 0 0 0 0 0 0 0 0.014874274564904331 0 0 0 0
leaf_weight=33536 269134 1355345 180796 1111756 202336 265831 1646123 1018076 870593 801221 128592 12287824 600787 306968 352108 125937 226113 876978 643245 932384 594151 1587911 38633 1063011 150504 47601 569371 515004 510505 98609 1782906 17956 873432 129707 5153063 243940 170618 622200 88912 706415 672260 1230245 121417 1066919 936974 1437534 23240 66767 45024 557179 887619 220433 373281 117954 257863 1336002 1203731 545870 779957 1138155 488081 668595 653048
leaf_count=33536 269134 1355345 180796 1111756 202336 265831 1646123 1018076 870593 801221 128592 12287824 600787 306968 352108 125937 226113 876978 643245 932384 594151 1587911 38633 1063011 150504 47601 569371 515004 510505 98609 1782906 17956 873432 129707 5153063 243940 170618 622200 88912 706415 672260 1230245 121417 1066919 936974 1437534 23240 66767 45024 557179 887619 220433 373281 117954 257863 1336002 1203731 545870 779957 1138155 488081 668595 653048
internal_value=-0.0131804 -0.0189648 -0.0028742 -0.00656677 -0.0144478 0.00239545 -0.0214985 -0.00940007 -0.00442175 -0.0159927 -0.0117084 -0.0221824 -0.00851271 -0.000207528 0.00450588 -0.00261067 0.00491366 -0.00228465 -0.0121932 0.00100805 -0.012742 -0.0189075 -0.00100534 -0.0141485 -0.00649349 -0.00792872 -0.00656661 -0.00282653 -0.00606047 -0.00262456 -0.0176355 -0.0222486 -0.00100441 0.00173891 -0.0216698 -0.00368294 -0.0140435 -0.0074828 0.0029779 -0.00991881 -0.00528713 0.00573039 -0.00968681 -0.0183277 0.00269631 0.00594193 -0.00225203 -0.00612187 -0.00900499 -0.00692426 -0.00929153 -0.0174316 -0.00190813 -0.00187746 -0.0176965 -0.0150383 -0.0115153 -0.0129664 0.00330403 -0.0197103 -0.00253221 -0.0143775 -0.0149719
internal_weight=5.40283e+07 3.46056e+07 1.94226e+07 1.14202e+07 1.24356e+07 8.00241e+06 2.217e+07 4.92065e+06 6.49957e+06 7.95127e+06 4.48434e+06 1.754e+07 4.43108e+06 3.58308e+06 4.41933e+06 3.52398e+06 4.11487e+06 3.35302e+06 4.25714e+06 2.44723e+06 3.49248e+06 4.63005e+06 304464 3.7461e+06 1.81898e+06 81137 2.97559e+06 1.13585e+06 1.66847e+06 227201 4.20517e+06 1.74588e+07 1.75041e+06 1.99906e+06 5.17102e+06 1.60261e+06 1.6946e+06 1.73396e+06 1.22098e+06 2.61211e+06 1.24163e+06 2.89389e+06 764662 2.42226e+06 1.06668e+06 2.66778e+06 448162 247563 170961 1.15797e+06 1.59403e+06 489567 888285 424922 1.84577e+06 2.13722e+06 1.79788e+06 1.60888e+06 1.13206e+06 2.78428e+06 732021 1.52398e+06 855384
internal_count=54028280 34605648 19422632 11420224 12435616 8002408 22170032 4920652 6499572 7951274 4484342 17539980 4431085 3583075 4419333 3523985 4114869 3353024 4257141 2447227 3492479 4630052 304464 3746104 1818975 81137 2975587 1135848 1668471 227201 4205170 17458843 1750410 1999065 5171019 1602614 1694597 1733956 1220977 2612110 1241631 2893892 764662 2422264 1066681 2667779 448162 247563 170961 1157966 1594034 489567 888285 424922 1845774 2137223 1797882 1608881 1132065 2784278 732021 1523979 855384
is_linear=0
shrinkage=0.03


Tree=12
num_leaves=64
num_cat=0
split_feature=5 4 4 26 15 29 5 4 5 5 4 43 5 5 0 46 5 29 26 0 5 5 46 5 46 15 5 15 5 4 15 13 5 5 7 5 4 26 44 27 29 13 26 5 13 29 46 6 46 27 5 17 15 6 17 27 5 29 5 5 0 5 36
split_gain=3.57878e+06 440057 419929 77117.8 58475.1 48844.9 43651.8 38965.2 28052.9 26766.7 21942.8 18401.1 13978.8 12674.5 11035.4 8162.83 7228.41 6669.33 6506.15 6478.83 6195.06 5001.62 4601.99 4378.17 4201.1 4180.1 3875.69 3819.53 3137.52 3078.17 3041.29 2735.68 2384.98 2329.24 2188.68 1982.63 1876.7 1862.91 1837.21 1788.11 1765.68 1697.63 1658.2 1556.85 1332.17 1302.75 1277.41 1237.09 1123.13 1120.35 1087.21 1056.81 1021.78 1008.19 939.19 934.394 923.468 879.917 878.461 800.279 796.463 765.5 780.99
threshold=-0.1555005460977554 -0.30366761982440943 0.1993784308433533 0.018786964006721977 0.16386100649833682 0.73183414340019237 -0.33151793479919428 -0.30366761982440943 1.0000000180025095e-35 -0.25451032817363733 0.031696426216512925 1.0000000180025095e-35 -0.056490771472454064 0.22953747212886813 -0.15653926227241752 0.048591181635856635 0.72458633780479442 0.60654553771018993 0.08546431735157968 -0.15653926227241752 -0.22150707244873044 -0.28751358389854426 0.10663825646042825 -0.21050597727298734 0.017292832955718044 0.17597278207540515 -0.067491851747035966 0.2536665946245194 0.0535200983285904 0.1993784308433533 0.063202623277902617 -0.96281075477600087 0.13052770495414737 0.46056032180786138 -1.7027273774147031 0.10852554440498353 -0.13598559051752088 0.095216955989599242 0.17087782919406894 1.0000000180025095e-35 0.57570171356201183 -0.74876970052719105 0.16736749559640887 -0.28751358389854426 -0.74876970052719105 0.95762792229652416 0.072392780333757414 1.0660598874092104 0.12953945994377139 1.0000000180025095e-35 -0.1224972829222679 0.039919883012771613 0.40840362012386328 1.5142784714698794 0.038572860881686218 1.0000000180025095e-35 -0.19950488209724423 0.50698679685592662 0.33954834938049322 -0.30951575934886927 -0.15653926227241752 -0.25451032817363733 1.0000000180025095e-35
decision_type=2 2 2 2 2 2 2 2 2 2 2 2 2 2 2 2 2 2 2 2 2 2 2 2 2 2 2 2 2 2 2 2 2 2 2 2 2 2 2 2 2 2 2 2 2 2 2 2 2 2 2 2 2 2 2 2 2 2 2 2 2 2 2
left_child=1 6 3 7 9 13 11 51 26 30 18 25 39 27 22 17 38 35 20 46 36 59 -7 55 28 -1 37 47 49 -12 43 -13 -19 -21 -33 -10 61 -5 58 -9 -28 -18 -20 -3 -35 -43 53 -4 -17 -14 -41 -2 -29 -15 -23 -11 -22 -25 -16 -8 -37 62 -6
right_child=2 4 5 8 10 14 21 12 15 23 29 31 24 19 16 48 41 32 42 33 56 54 -24 57 -26 -27 40 52 -30 -31 -32 34 -34 44 -36 60 -38 -39 -40 50 -42 45 -44 -45 -46 -47 -48 -49 -50 -51 -52 -53 -54 -55 -56 -57 -58 -59 -60 -61 -62 -63 -64
leaf_value=0 0 0 0 0 0 0.014428046327957203 0 0 0 0 0 0 0 0 0.014428046327957203 0 0.022867912738494391 0 0 0.014428046327957203 0 0 0 0 0 0 0 0 0 0.014428046327957203 0 0 0.014428046327957203 0 0 0 0 0 0 0 0 0.022867912738494391 0 0 0.014428046327957203 0.040504645662312731 0 0 0 0 0 0 0 0 0 0 0 0 0.014428046327957203 0 0 0 0
leaf_weight=33536 269134 1355345 180796 1111756 202336 265831 1646123 1018076 870593 801221 128592 12287824 600787 306968 352108 125937 226113 876978 643245 932384 594151 1587911 38633 1063011 150504 47601 569371 515004 510505 98609 1782906 17956 873432 129707 5153063 243940 170618 622200 88912 706415 672260 1230245 121417 1066919 936974 1437534 23240 66767 45024 557179 887619 220433 373281 117954 257863 1336002 1203731 545870 779957 1138155 488081 668595 653048
leaf_count=33536 269134 1355345 180796 1111756 202336 265831 1646123 1018076 870593 801221 128592 12287824 600787 306968 352108 125937 226113 876978 643245 932384 594151 1587911 38633 1063011 150504 47601 569371 515004 510505 98609 1782906 17956 873432 129707 5153063 243940 170618 622200 88912 706415 672260 1230245 121417 1066919 936974 1437534 23240 66767 45024 557179 887619 220433 373281 117954 257863 1336002 1203731 545870 779957 1138155 488081 668595 653048
internal_value=-0.0131804 -0.0189648 -0.0028742 -0.00656677 -0.0144478 0.00239545 -0.0214985 -0.00940007 -0.00442175 -0.0159927 -0.0117084 -0.0221824 -0.00851271 -0.000207528 0.00450588 -0.00261067 0.00491366 -0.00228465 -0.0121932 0.00100805 -0.012742 -0.0189075 -0.00100534 -0.0141485 -0.00649349 -0.00792872 -0.00656661 -0.00282653 -0.00606047 -0.00262456 -0.0176355 -0.0222486 -0.00100441 0.00173891 -0.0216698 -0.00368294 -0.0140435 -0.0074828 0.0029779 -0.00991881 -0.00528713 0.00573039 -0.00968681 -0.0183277 0.00269631 0.00594193 -0.00225203 -0.00612187 -0.00900499 -0.00692426 -0.00929153 -0.0174316 -0.00190813 -0.00187746 -0.0176965 -0.0150383 -0.0115153 -0.0129664 0.00330403 -0.0197103 -0.00253221 -0.0143775 -0.0149719
internal_weight=5.40283e+07 3.46056e+07 1.94226e+07 1.14202e+07 1.24356e+07 8.00241e+06 2.217e+07 4.92065e+06 6.49957e+06 7.95127e+06 4.48434e+06 1.754e+07 4.43108e+06 3.58308e+06 4.41933e+06 3.52398e+06 4.11487e+06 3.35302e+06 4.25714e+06 2.44723e+06 3.49248e+06 4.63005e+06 304464 3.7461e+06 1.81898e+06 81137 2.97559e+06 1.13585e+06 1.66847e+06 227201 4.20517e+06 1.74588e+07 1.75041e+06 1.99906e+06 5.17102e+06 1.60261e+06 1.6946e+06 1.73396e+06 1.22098e+06 2.61211e+06 1.24163e+06 2.89389e+06 764662 2.42226e+06 1.06668e+06 2.66778e+06 448162 247563 170961 1.15797e+06 1.59403e+06 489567 888285 424922 1.84577e+06 2.13722e+06 1.79788e+06 1.60888e+06 1.13206e+06 2.78428e+06 732021 1.52398e+06 855384
internal_count=54028280 34605648 19422632 11420224 12435616 8002408 22170032 4920652 6499572 7951274 4484342 17539980 4431085 3583075 4419333 3523985 4114869 3353024 4257141 2447227 3492479 4630052 304464 3746104 1818975 81137 2975587 1135848 1668471 227201 4205170 17458843 1750410 1999065 5171019 1602614 1694597 1733956 1220977 2612110 1241631 2893892 764662 2422264 1066681 2667779 448162 247563 170961 1157966 1594034 489567 888285 424922 1845774 2137223 1797882 1608881 1132065 2784278 732021 1523979 855384
is_linear=0
shrinkage=0.03


Tree=13
num_leaves=64
num_cat=0
split_feature=5 4 4 26 15 29 5 4 5 5 4 43 5 5 0 46 5 29 26 0 5 5 46 5 46 15 5 15 5 4 15 13 5 5 7 5 4 26 44 27 29 13 26 5 13 29 46 6 46 27 5 17 15 6 17 27 5 29 5 5 0 5 36
split_gain=3.57878e+06 440057 419929 77117.8 58475.1 48844.9 43651.8 38965.2 28052.9 26766.7 21942.8 18401.1 13978.8 12674.5 11035.4 8162.83 7228.41 6669.33 6506.15 6478.83 6195.06 5001.62 4601.99 4378.17 4201.1 4180.1 3875.69 3819.53 3137.52 3078.17 3041.29 2735.68 2384.98 2329.24 2188.68 1982.63 1876.7 1862.91 1837.21 1788.11 1765.68 1697.63 1658.2 1556.85 1332.17 1302.75 1277.41 1237.09 1123.13 1120.35 1087.21 1056.81 1021.78 1008.19 939.19 934.394 923.468 879.917 878.461 800.279 796.463 765.5 780.99
threshold=-0.1555005460977554 -0.30366761982440943 0.1993784308433533 0.018786964006721977 0.16386100649833682 0.73183414340019237 -0.33151793479919428 -0.30366761982440943 1.0000000180025095e-35 -0.25451032817363733 0.031696426216512925 1.0000000180025095e-35 -0.056490771472454064 0.22953747212886813 -0.15653926227241752 0.048591181635856635 0.72458633780479442 0.60654553771018993 0.08546431735157968 -0.15653926227241752 -0.22150707244873044 -0.28751358389854426 0.10663825646042825 -0.21050597727298734 0.017292832955718044 0.17597278207540515 -0.067491851747035966 0.2536665946245194 0.0535200983285904 0.1993784308433533 0.063202623277902617 -0.96281075477600087 0.13052770495414737 0.46056032180786138 -1.7027273774147031 0.10852554440498353 -0.13598559051752088 0.095216955989599242 0.17087782919406894 1.0000000180025095e-35 0.57570171356201183 -0.74876970052719105 0.16736749559640887 -0.28751358389854426 -0.74876970052719105 0.95762792229652416 0.072392780333757414 1.0660598874092104 0.12953945994377139 1.0000000180025095e-35 -0.1224972829222679 0.039919883012771613 0.40840362012386328 1.5142784714698794 0.038572860881686218 1.0000000180025095e-35 -0.19950488209724423 0.50698679685592662 0.33954834938049322 -0.30951575934886927 -0.15653926227241752 -0.25451032817363733 1.0000000180025095e-35
decision_type=2 2 2 2 2 2 2 2 2 2 2 2 2 2 2 2 2 2 2 2 2 2 2 2 2 2 2 2 2 2 2 2 2 2 2 2 2 2 2 2 2 2 2 2 2 2 2 2 2 2 2 2 2 2 2 2 2 2 2 2 2 2 2
left_child=1 6 3 7 9 13 11 51 26 30 18 25 39 27 22 17 38 35 20 46 36 59 -7 55 28 -1 37 47 49 -12 43 -13 -19 -21 -33 -10 61 -5 58 -9 -28 -18 -20 -3 -35 -43 53 -4 -17 -14 -41 -2 -29 -15 -23 -11 -22 -25 -16 -8 -37 62 -6
right_child=2 4 5 8 10 14 21 12 15 23 29 31 24 19 16 48 41 32 42 33 56 54 -24 57 -26 -27 40 52 -30 -31 -32 34 -34 44 -36 60 -38 -39 -40 50 -42 45 -44 -45 -46 -47 -48 -49 -50 -51 -52 -53 -54 -55 -56 -57 -58 -59 -60 -61 -62 -63 -64
leaf_value=0 0 0 0 0 0 0.013995204938118488 0 0 0 0 0 0 0 0 0.013995204938118488 0 0.022181875356339562 0 0 0.013995204938118488 0 0 0 0 0 0 0 0 0 0.013995204938118488 0 0 0.013995204938118488 0 0 0 0 0 0 0 0 0.022181875356339562 0 0 0.013995204938118488 0.039289506292443349 0 0 0 0 0 0 0 0 0 0 0 0 0.013995204938118488 0 0 0 0
leaf_weight=33536 269134 1355345 180796 1111756 202336 265831 1646123 1018076 870593 801221 128592 12287824 600787 306968 352108 125937 226113 876978 643245 932384 594151 1587911 38633 1063011 150504 47601 569371 515004 510505 98609 1782906 17956 873432 129707 5153063 243940 170618 622200 88912 706415 672260 1230245 121417 1066919 936974 1437534 23240 66767 45024 557179 887619 220433 373281 117954 257863 1336002 1203731 545870 779957 1138155 488081 668595 653048
leaf_count=33536 269134 1355345 180796 1111756 202336 265831 1646123 1018076 870593 801221 128592 12287824 600787 306968 352108 125937 226113 876978 643245 932384 594151 1587911 38633 1063011 150504 47601 569371 515004 510505 98609 1782906 17956 873432 129707 5153063 243940 170618 622200 88912 706415 672260 1230245 121417 1066919 936974 1437534 23240 66767 45024 557179 887619 220433 373281 117954 257863 1336002 1203731 545870 779957 1138155 488081 668595 653048
internal_value=-0.0131804 -0.0189648 -0.0028742 -0.00656677 -0.0144478 0.00239545 -0.0214985 -0.00940007 -0.00442175 -0.0159927 -0.0117084 -0.0221824 -0.00851271 -0.000207528 0.00450588 -0.00261067 0.00491366 -0.00228465 -0.0121932 0.00100805 -0.012742 -0.0189075 -0.00100534 -0.0141485 -0.00649349 -0.00792872 -0.00656661 -0.00282653 -0.00606047 -0.00262456 -0.0176355 -0.0222486 -0.00100441 0.00173891 -0.0216698 -0.00368294 -0.0140435 -0.0074828 0.0029779 -0.00991881 -0.00528713 0.00573039 -0.00968681 -0.0183277 0.00269631 0.00594193 -0.00225203 -0.00612187 -0.00900499 -0.00692426 -0.00929153 -0.0174316 -0.00190813 -0.00187746 -0.0176965 -0.0150383 -0.0115153 -0.0129664 0.00330403 -0.0197103 -0.00253221 -0.0143775 -0.0149719
internal_weight=5.40283e+07 3.46056e+07 1.94226e+07 1.14202e+07 1.24356e+07 8.00241e+06 2.217e+07 4.92065e+06 6.49957e+06 7.95127e+06 4.48434e+06 1.754e+07 4.43108e+06 3.58308e+06 4.41933e+06 3.52398e+06 4.11487e+06 3.35302e+06 4.25714e+06 2.44723e+06 3.49248e+06 4.63005e+06 304464 3.7461e+06 1.81898e+06 81137 2.97559e+06 1.13585e+06 1.66847e+06 227201 4.20517e+06 1.74588e+07 1.75041e+06 1.99906e+06 5.17102e+06 1.60261e+06 1.6946e+06 1.73396e+06 1.22098e+06 2.61211e+06 1.24163e+06 2.89389e+06 764662 2.42226e+06 1.06668e+06 2.66778e+06 448162 247563 170961 1.15797e+06 1.59403e+06 489567 888285 424922 1.84577e+06 2.13722e+06 1.79788e+06 1.60888e+06 1.13206e+06 2.78428e+06 732021 1.52398e+06 855384
internal_count=54028280 34605648 19422632 11420224 12435616 8002408 22170032 4920652 6499572 7951274 4484342 17539980 4431085 3583075 4419333 3523985 4114869 3353024 4257141 2447227 3492479 4630052 304464 3746104 1818975 81137 2975587 1135848 1668471 227201 4205170 17458843 1750410 1999065 5171019 1602614 1694597 1733956 1220977 2612110 1241631 2893892 764662 2422264 1066681 2667779 448162 247563 170961 1157966 1594034 489567 888285 424922 1845774 2137223 1797882 1608881 1132065 2784278 732021 1523979 855384
is_linear=0
shrinkage=0.03


Tree=14
num_leaves=64
num_cat=0
split_feature=5 4 4 26 15 29 5 4 5 5 4 43 5 5 0 46 5 29 26 0 5 5 46 5 46 15 5 15 5 4 15 13 5 5 7 5 4 26 44 27 29 13 26 5 13 29 46 6 46 27 5 17 15 6 17 27 5 29 5 5 0 5 36
split_gain=3.57878e+06 440057 419929 77117.8 58475.1 48844.9 43651.8 38965.2 28052.9 26766.7 21942.8 18401.1 13978.8 12674.5 11035.4 8162.83 7228.41 6669.33 6506.15 6478.83 6195.06 5001.62 4601.99 4378.17 4201.1 4180.1 3875.69 3819.53 3137.52 3078.17 3041.29 2735.68 2384.98 2329.24 2188.68 1982.63 1876.7 1862.91 1837.21 1788.11 1765.68 1697.63 1658.2 1556.85 1332.17 1302.75 1277.41 1237.09 1123.13 1120.35 1087.21 1056.81 1021.78 1008.19 939.19 934.394 923.468 879.917 878.461 800.279 796.463 765.5 780.99
threshold=-0.1555005460977554 -0.30366761982440943 0.1993784308433533 0.018786964006721977 0.16386100649833682 0.73183414340019237 -0.33151793479919428 -0.30366761982440943 1.0000000180025095e-35 -0.25451032817363733 0.031696426216512925 1.0000000180025095e-35 -0.056490771472454064 0.22953747212886813 -0.15653926227241752 0.048591181635856635 0.72458633780479442 0.60654553771018993 0.08546431735157968 -0.15653926227241752 -0.22150707244873044 -0.28751358389854426 0.10663825646042825 -0.21050597727298734 0.017292832955718044 0.17597278207540515 -0.067491851747035966 0.2536665946245194 0.0535200983285904 0.1993784308433533 0.063202623277902617 -0.96281075477600087 0.13052770495414737 0.46056032180786138 -1.7027273774147031 0.10852554440498353 -0.13598559051752088 0.095216955989599242 0.17087782919406894 1.0000000180025095e-35 0.57570171356201183 -0.74876970052719105 0.16736749559640887 -0.28751358389854426 -0.74876970052719105 0.95762792229652416 0.072392780333757414 1.0660598874092104 0.12953945994377139 1.0000000180025095e-35 -0.1224972829222679 0.039919883012771613 0.40840362012386328 1.5142784714698794 0.038572860881686218 1.0000000180025095e-35 -0.19950488209724423 0.50698679685592662 0.33954834938049322 -0.30951575934886927 -0.15653926227241752 -0.25451032817363733 1.0000000180025095e-35
decision_type=2 2 2 2 2 2 2 2 2 2 2 2 2 2 2 2 2 2 2 2 2 2 2 2 2 2 2 2 2 2 2 2 2 2 2 2 2 2 2 2 2 2 2 2 2 2 2 2 2 2 2 2 2 2 2 2 2 2 2 2 2 2 2
left_child=1 6 3 7 9 13 11 51 26 30 18 25 39 27 22 17 38 35 20 46 36 59 -7 55 28 -1 37 47 49 -12 43 -13 -19 -21 -33 -10 61 -5 58 -9 -28 -18 -20 -3 -35 -43 53 -4 -17 -14 -41 -2 -29 -15 -23 -11 -22 -25 -16 -8 -37 62 -6
right_child=2 4 5 8 10 14 21 12 15 23 29 31 24 19 16 48 41 32 42 33 56 54 -24 57 -26 -27 40 52 -30 -31 -32 34 -34 44 -36 60 -38 -39 -40 50 -42 45 -44 -45 -46 -47 -48 -49 -50 -51 -52 -53 -54 -55 -56 -57 -58 -59 -60 -61 -62 -63 -64
leaf_value=0 0 0 0 0 0 0.013575348789974932 0 0 0 0 0 0 0 0 0.013575348789974932 0 0.021516419095649372 0 0 0.013575348789974932 0 0 0 0 0 0 0 0 0 0.013575348789974932 0 0 0.013575348789974932 0 0 0 0 0 0 0 0 0.021516419095649372 0 0 0.013575348789974932 0.038110821103670048 0 0 0 0 0 0 0 0 0 0 0 0 0.013575348789974932 0 0 0 0
leaf_weight=33536 269134 1355345 180796 1111756 202336 265831 1646123 1018076 870593 801221 128592 12287824 600787 306968 352108 125937 226113 876978 643245 932384 594151 1587911 38633 1063011 150504 47601 569371 515004 510505 98609 1782906 17956 873432 129707 5153063 243940 170618 622200 88912 706415 672260 1230245 121417 1066919 936974 1437534 23240 66767 45024 557179 887619 220433 373281 117954 257863 1336002 1203731 545870 779957 1138155 488081 668595 653048
leaf_count=33536 269134 1355345 180796 1111756 202336 265831 1646123 1018076 870593 801221 128592 12287824 600787 306968 352108 125937 226113 876978 643245 932384 594151 1587911 38633 1063011 150504 47601 569371 515004 510505 98609 1782906 17956 873432 129707 5153063 243940 170618 622200 88912 706415 672260 1230245 121417 1066919 936974 1437534 23240 66767 45024 557179 887619 220433 373281 117954 257863 1336002 1203731 545870 779957 1138155 488081 668595 653048
internal_value=-0.0131804 -0.0189648 -0.0028742 -0.00656677 -0.0144478 0.00239545 -0.0214985 -0.00940007 -0.00442175 -0.0159927 -0.0117084 -0.0221824 -0.00851271 -0.000207528 0.00450588 -0.00261067 0.00491366 -0.00228465 -0.0121932 0.00100805 -0.012742 -0.0189075 -0.00100534 -0.0141485 -0.00649349 -0.00792872 -0.00656661 -0.00282653 -0.00606047 -0.00262456 -0.0176355 -0.0222486 -0.00100441 0.00173891 -0.0216698 -0.00368294 -0.0140435 -0.0074828 0.0029779 -0.00991881 -0.00528713 0.00573039 -0.00968681 -0.0183277 0.00269631 0.00594193 -0.00225203 -0.00612187 -0.00900499 -0.00692426 -0.00929153 -0.0174316 -0.00190813 -0.00187746 -0.0176965 -0.0150383 -0.0115153 -0.0129664 0.00330403 -0.0197103 -0.00253221 -0.0143775 -0.0149719
internal_weight=5.40283e+07 3.46056e+07 1.94226e+07 1.14202e+07 1.24356e+07 8.00241e+06 2.217e+07 4.92065e+06 6.49957e+06 7.95127e+06 4.48434e+06 1.754e+07 4.43108e+06 3.58308e+06 4.41933e+06 3.52398e+06 4.11487e+06 3.35302e+06 4.25714e+06 2.44723e+06 3.49248e+06 4.63005e+06 304464 3.7461e+06 1.81898e+06 81137 2.97559e+06 1.13585e+06 1.66847e+06 227201 4.20517e+06 1.74588e+07 1.75041e+06 1.99906e+06 5.17102e+06 1.60261e+06 1.6946e+06 1.73396e+06 1.22098e+06 2.61211e+06 1.24163e+06 2.89389e+06 764662 2.42226e+06 1.06668e+06 2.66778e+06 448162 247563 170961 1.15797e+06 1.59403e+06 489567 888285 424922 1.84577e+06 2.13722e+06 1.79788e+06 1.60888e+06 1.13206e+06 2.78428e+06 732021 1.52398e+06 855384
internal_count=54028280 34605648 19422632 11420224 12435616 8002408 22170032 4920652 6499572 7951274 4484342 17539980 4431085 3583075 4419333 3523985 4114869 3353024 4257141 2447227 3492479 4630052 304464 3746104 1818975 81137 2975587 1135848 1668471 227201 4205170 17458843 1750410 1999065 5171019 1602614 1694597 1733956 1220977 2612110 1241631 2893892 764662 2422264 1066681 2667779 448162 247563 170961 1157966 1594034 489567 888285 424922 1845774 2137223 1797882 1608881 1132065 2784278 732021 1523979 855384
is_linear=0
shrinkage=0.03


Tree=15
num_leaves=64
num_cat=0
split_feature=5 4 4 26 15 29 5 4 5 5 4 43 5 5 0 46 44 29 26 5 0 5 46 5 46 15 5 15 5 4 15 4 13 5 7 5 5 44 4 26 27 29 26 5 13 6 46 27 5 6 17 15 17 27 5 5 29 5 0 5 36 26 29
split_gain=3.55737e+06 440057 409036 77117.8 58475.1 44729.5 43651.8 38965.2 28052.9 26766.7 21942.8 18401.1 13978.8 11370.6 11188.9 8162.83 7261.54 6669.33 6506.15 6195.06 5758.88 5001.62 4823.65 4378.17 4201.1 4180.1 3875.69 3475.97 3137.52 3078.17 3041.29 2857.13 2735.68 2384.98 2188.68 2113.7 1982.63 1934.93 1876.7 1862.91 1788.11 1765.68 1658.2 1556.85 1162.26 1129.18 1123.13 1120.35 1087.21 1065.63 1056.81 980.27 939.19 934.394 923.468 914.584 879.917 800.279 796.463 765.5 780.99 744.059 743.094
threshold=-0.1555005460977554 -0.30366761982440943 0.1993784308433533 0.018786964006721977 0.16386100649833682 0.71194815635681163 -0.33151793479919428 -0.30366761982440943 1.0000000180025095e-35 -0.25451032817363733 0.031696426216512925 1.0000000180025095e-35 -0.056490771472454064 0.21853639185428622 -0.15653926227241752 0.048591181635856635 0.017405780963599685 0.60654553771018993 0.08546431735157968 -0.22150707244873044 -0.15653926227241752 -0.28751358389854426 0.10663825646042825 -0.21050597727298734 0.017292832955718044 0.17597278207540515 -0.067491851747035966 0.24041776359081271 0.0535200983285904 0.1993784308433533 0.063202623277902617 1.0377885699272158 -0.96281075477600087 0.13052770495414737 -1.7027273774147031 0.46056032180786138 0.10852554440498353 0.20244044065475467 -0.13598559051752088 0.095216955989599242 1.0000000180025095e-35 0.57570171356201183 0.16736749559640887 -0.28751358389854426 -0.74876970052719105 1.1904882788658144 0.12953945994377139 1.0000000180025095e-35 -0.1224972829222679 1.0660598874092104 0.039919883012771613 0.39519146084785467 0.038572860881686218 1.0000000180025095e-35 -0.19950488209724423 0.29554402828216558 0.50698679685592662 -0.30951575934886927 -0.15653926227241752 -0.25451032817363733 1.0000000180025095e-35 0.24703784286975863 0.58760514855384838
decision_type=2 2 2 2 2 2 2 2 2 2 2 2 2 2 2 2 2 2 2 2 2 2 2 2 2 2 2 2 2 2 2 2 2 2 2 2 2 2 2 2 2 2 2 2 2 2 2 2 2 2 2 2 2 2 2 2 2 2 2 2 2 2 2
left_child=1 6 3 7 9 13 11 50 26 30 18 25 40 27 22 17 31 36 19 38 45 57 -7 53 28 -1 39 49 47 -12 43 -16 -13 -19 -34 -22 -10 55 59 -5 -9 -28 -20 -3 -37 -15 -17 -14 -42 -4 -2 -29 -23 -11 -21 -18 -25 -8 -38 60 -6 -27 -30
right_child=2 4 5 8 10 14 21 12 15 23 29 32 24 20 16 46 37 33 42 54 35 52 -24 56 -26 61 41 51 62 -31 -32 -33 34 -35 -36 44 58 -39 -40 -41 48 -43 -44 -45 -46 -47 -48 -49 -50 -51 -52 -53 -54 -55 -56 -57 -58 -59 -60 -61 -62 -63 -64
leaf_value=0 0 0 0 0 0 0.013168088326275685 0 0 0 0 0 0 0 0 0.020179024533380382 0 0.013168088326275685 0 0 0 0.013168088326275685 0 0 0 0 0 0 0 0 0.013168088326275685 0 0.033962503800213671 0 0.013168088326275685 0 0 0 0 0 0 0 0 0 0 0.013168088326275685 0 0 0 0 0 0 0 0 0 0 0.013168088326275685 0 0 0 0 0 0.020794415473937986 0
leaf_weight=33536 269134 1355345 144681 1111756 202336 311624 1646123 1018076 870593 801221 128592 12287824 600787 253359 1307119 125937 270840 876978 643245 594151 900343 1587911 40497 1063011 150504 26492 569371 459835 270326 98609 1782906 2137675 17956 873432 5153063 114503 243940 91300 170618 622200 706415 672260 121417 1066919 782084 168228 45024 557179 887619 59011 220433 355745 257863 1336002 1203731 605564 545870 1138155 488081 668595 653048 21109 240179
leaf_count=33536 269134 1355345 144681 1111756 202336 311624 1646123 1018076 870593 801221 128592 12287824 600787 253359 1307119 125937 270840 876978 643245 594151 900343 1587911 40497 1063011 150504 26492 569371 459835 270326 98609 1782906 2137675 17956 873432 5153063 114503 243940 91300 170618 622200 706415 672260 121417 1066919 782084 168228 45024 557179 887619 59011 220433 355745 257863 1336002 1203731 605564 545870 1138155 488081 668595 653048 21109 240179
internal_value=-0.0131977 -0.0189648 -0.00292241 -0.00656677 -0.0144478 0.00227845 -0.0214985 -0.00940007 -0.00442175 -0.0159927 -0.0117084 -0.0221824 -0.00851271 -0.000442355 0.00412737 -0.00261067 0.00453805 -0.00228465 -0.0121932 -0.012742 0.000762689 -0.0189075 -0.00101895 -0.0141485 -0.00649349 -0.00792872 -0.00656661 -0.00306522 -0.00606047 -0.00262456 -0.0176355 0.00518309 -0.0222486 -0.00100441 -0.0216698 0.00150304 -0.00368294 0.00224188 -0.0140435 -0.0074828 -0.00991881 -0.00528713 -0.00968681 -0.0183277 0.0025341 -0.0023929 -0.00900499 -0.00692426 -0.00929153 -0.0065708 -0.0174316 -0.00218969 -0.0176965 -0.0150383 -0.0115153 0.00267486 -0.0129664 -0.0197103 -0.00253221 -0.0143775 -0.0149719 -0.00221324 -0.00410116
internal_weight=5.40283e+07 3.46056e+07 1.94226e+07 1.14202e+07 1.24356e+07 8.00241e+06 2.217e+07 4.92065e+06 6.49957e+06 7.95127e+06 4.48434e+06 1.754e+07 4.43108e+06 3.23779e+06 4.76462e+06 3.52398e+06 4.4125e+06 3.35302e+06 4.25714e+06 3.49248e+06 2.21852e+06 4.63005e+06 352121 3.7461e+06 1.81898e+06 81137 2.97559e+06 1.01927e+06 1.66847e+06 227201 4.20517e+06 3.44479e+06 1.74588e+07 1.75041e+06 5.17102e+06 1.79693e+06 1.60261e+06 967704 1.6946e+06 1.73396e+06 2.61211e+06 1.24163e+06 764662 2.42226e+06 896587 421587 170961 1.15797e+06 1.59403e+06 203692 489567 815580 1.84577e+06 2.13722e+06 1.79788e+06 876404 1.60888e+06 2.78428e+06 732021 1.52398e+06 855384 47601 510505
internal_count=54028280 34605648 19422632 11420224 12435616 8002408 22170032 4920652 6499572 7951274 4484342 17539980 4431085 3237789 4764619 3523985 4412498 3353024 4257141 3492479 2218517 4630052 352121 3746104 1818975 81137 2975587 1019272 1668471 227201 4205170 3444794 17458843 1750410 5171019 1796930 1602614 967704 1694597 1733956 2612110 1241631 764662 2422264 896587 421587 170961 1157966 1594034 203692 489567 815580 1845774 2137223 1797882 876404 1608881 2784278 732021 1523979 855384 47601 510505
is_linear=0
shrinkage=0.03


Tree=16
num_leaves=64
num_cat=0
split_feature=5 4 4 26 15 29 5 4 5 5 4 43 5 5 0 46 44 29 26 5 0 5 46 5 46 15 5 15 5 4 15 4 13 5 7 5 5 44 4 26 27 29 26 5 13 6 46 27 5 6 17 15 17 27 5 5 29 5 0 5 36 26 29
split_gain=3.55737e+06 440057 409036 77117.8 58475.1 44729.5 43651.8 38965.2 28052.9 26766.7 21942.8 18401.1 13978.8 11370.6 11188.9 8162.83 7261.54 6669.33 6506.15 6195.06 5758.88 5001.62 4823.65 4378.17 4201.1 4180.1 3875.69 3475.97 3137.52 3078.17 3041.29 2857.13 2735.68 2384.98 2188.68 2113.7 1982.63 1934.93 1876.7 1862.91 1788.11 1765.68 1658.2 1556.85 1162.26 1129.18 1123.13 1120.35 1087.21 1065.63 1056.81 980.27 939.19 934.394 923.468 914.584 879.917 800.279 796.463 765.5 780.99 744.059 743.094
threshold=-0.1555005460977554 -0.30366761982440943 0.1993784308433533 0.018786964006721977 0.16386100649833682 0.71194815635681163 -0.33151793479919428 -0.30366761982440943 1.0000000180025095e-35 -0.25451032817363733 0.031696426216512925 1.0000000180025095e-35 -0.056490771472454064 0.21853639185428622 -0.15653926227241752 0.048591181635856635 0.017405780963599685 0.60654553771018993 0.08546431735157968 -0.22150707244873044 -0.15653926227241752 -0.28751358389854426 0.10663825646042825 -0.21050597727298734 0.017292832955718044 0.17597278207540515 -0.067491851747035966 0.24041776359081271 0.0535200983285904 0.1993784308433533 0.063202623277902617 1.0377885699272158 -0.96281075477600087 0.13052770495414737 -1.7027273774147031 0.46056032180786138 0.10852554440498353 0.20244044065475467 -0.13598559051752088 0.095216955989599242 1.0000000180025095e-35 0.57570171356201183 0.16736749559640887 -0.28751358389854426 -0.74876970052719105 1.1904882788658144 0.12953945994377139 1.0000000180025095e-35 -0.1224972829222679 1.0660598874092104 0.039919883012771613 0.39519146084785467 0.038572860881686218 1.0000000180025095e-35 -0.19950488209724423 0.29554402828216558 0.50698679685592662 -0.30951575934886927 -0.15653926227241752 -0.25451032817363733 1.0000000180025095e-35 0.24703784286975863 0.58760514855384838
decision_type=2 2 2 2 2 2 2 2 2 2 2 2 2 2 2 2 2 2 2 2 2 2 2 2 2 2 2 2 2 2 2 2 2 2 2 2 2 2 2 2 2 2 2 2 2 2 2 2 2 2 2 2 2 2 2 2 2 2 2 2 2 2 2
left_child=1 6 3 7 9 13 11 50 26 30 18 25 40 27 22 17 31 36 19 38 45 57 -7 53 28 -1 39 49 47 -12 43 -16 -13 -19 -34 -22 -10 55 59 -5 -9 -28 -20 -3 -37 -15 -17 -14 -42 -4 -2 -29 -23 -11 -21 -18 -25 -8 -38 60 -6 -27 -30
right_child=2 4 5 8 10 14 21 12 15 23 29 32 24 20 16 46 37 33 42 54 35 52 -24 56 -26 61 41 51 62 -31 -32 -33 34 -35 -36 44 58 -39 -40 -41 48 -43 -44 -45 -46 -47 -48 -49 -50 -51 -52 -53 -54 -55 -56 -57 -58 -59 -60 -61 -62 -63 -64
leaf_value=0 0 0 0 0 0 0.012773045676487413 0 0 0 0 0 0 0 0 0.019573653797378972 0 0.012773045676487413 0 0 0 0.012773045676487413 0 0 0 0 0 0 0 0 0.012773045676487413 0 0.03294362868620726 0 0.012773045676487413 0 0 0 0 0 0 0 0 0 0 0.012773045676487413 0 0 0 0 0 0 0 0 0 0 0.012773045676487413 0 0 0 0 0 0.020170583009719849 0
