tree
version=v4
num_class=1
num_tree_per_iteration=1
label_index=0
max_feature_idx=46
objective=quantile
feature_names=Column_0 Column_1 Column_2 Column_3 Column_4 Column_5 Column_6 Column_7 Column_8 Column_9 Column_10 Column_11 Column_12 Column_13 Column_14 Column_15 Column_16 Column_17 Column_18 Column_19 Column_20 Column_21 Column_22 Column_23 Column_24 Column_25 Column_26 Column_27 Column_28 Column_29 Column_30 Column_31 Column_32 Column_33 Column_34 Column_35 Column_36 Column_37 Column_38 Column_39 Column_40 Column_41 Column_42 Column_43 Column_44 Column_45 Column_46
feature_infos=[-0.28488168120384216:158.85971069335938] [-0.28412732481956482:76.793212890625] [-0.28346124291419983:125.563232421875] [-0.28169348835945129:48.230735778808594] [-0.32462787628173828:119.44225311279297] [-0.33701848983764648:104.2943115234375] [-0.48244228959083557:63.33642578125] [-1.7310736179351807:1.7310736179351807] [-1.5784550905227661:1.6259156465530396] [-1.3792937994003296:1.3780460357666016] [-1.2747400999069214:1.4138048887252808] [-1.498625636100769:1.5003180503845215] [-1.642849326133728:1.6247442960739136] [-0.96994543075561523:11.584277153015137] [-1.8420482873916626:0.54287391901016235] [0:10.137248039245605] [0:0.79111999273300171] [0:1.0985912084579468] [0.032591145485639572:7.5186514854431152] [0:10.707796096801758] [0:0.67488765716552734] [0:1.7548061609268188] [0:7.5433182716369629] [0.043757162988185883:10.694111824035645] [0:1.7021725177764893] [0:1.5827033519744873] [0:4.5458593368530273] [0:0.44384366273880005] [0:10.429836273193359] [0.099834322929382324:14.972973823547363] [0:29.846057891845703] [0:17.071277618408203] [0:0.55029547214508057] [0:0.7358819842338562] [0:10.144794464111328] [0:11.567427635192871] [0:2.5159878730773926] [0:10.650430679321289] [0.03847050666809082:8.6599617004394531] [0:0.7667662501335144] [0:14.751423835754395] [0:1.1050832271575928] [0.13912069797515869:9.2417535781860352] [0:0.3819122314453125] [0:0.7875218391418457] [0:0.91445553302764893] [0:0.90082848072052002]
tree_sizes=6192 6493 6524 6531 6565 6537 6588 6555 6570 6566 6577 6552 6560 6538 6581 6570 6569 6591 6598 6553 6589 6607 6577 6581 6610 6583 6585 6594 6597 6620 6613 6625 6614 6650 6630 6632 6674 6656 6642 6614 6672 6671 6701 6659 6647 6712 6734 6693 6747 6716 6735 6716 6719 6765 6737 6756 6789 6793 6851 6787 6851 6862 6834 6829 6864 6874 6889 6877 6883 6886 6920 6904 6910 6875 6929 6885 6877 6960 6931 6981 6960 6933 6971 6997 6963 6961 6941 6959 6970 6973 6989 6966 6957 6949 6980 6968 6995 6950 6990 7012 7022 6973 6999 7001 6999 7012 6982 7018 6985 7001 7001 7020 6974 7031 7026 6990 6984 7027 6974 7007 6981 6990 7001 6938 6937 6923 6967 6942 6954 6940 6918 6898 6897 6890 6873 6894 6858 6899 6844 6790 6771 6789 6766 6709 6635 6658 6695 6716 6648 6922 6754 6710 6617 6625 6731 6610 6448 6492 6518 6497 6535 6496 6478 6486 6496 6483 6665 6540 6590 6594 6687 6626 6667 6646 6684 6840 6567 6598 6567 6554 6441 6489 6584 6413 6425 6417 6402 6393 6467 6467 6479 6472 6426 6470 6450 6460 6448 6477 6611 6486

Tree=0
num_leaves=64
num_cat=0
split_feature=4 5 29 4 5 4 4 29 26 28 26 29 26 26 5 4 29 4 5 46 5 29 5 0 46 5 4 28 5 13 26 26 29 42 5 26 26 13 13 26 28 29 10 26 13 28 10 5 29 5 5 13 10 10 10 5 46 6 46 0 28 5 5
split_gain=864359 88775.9 85622.7 11895.2 11460 11153.5 8981.19 4172.96 4029.67 3235.45 3158.91 2614.27 2362.51 2322.09 1901.54 1583.4 1412.31 1332.23 1325.16 1140.63 1277.86 889.781 884.449 871.519 857.316 745.633 680.665 629.823 607.504 594.438 558.523 545.308 494.048 472.962 472.178 455.924 429.627 399.783 396.43 393.384 371.757 368.822 365.987 364.046 363.948 359.5 343.77 333.688 327.614 325.002 322.769 290.17 273.565 267.788 260.797 247.857 228.551 225.593 222.407 219.022 218.824 217.904 212.683
threshold=1.079709053039551 0.46056032180786138 1.0259131789207461 2.5050061941146855 0.84559834003448497 1.708516597747803 0.1574579328298569 0.85049504041671764 0.22698451578617099 0.79606539011001598 0.214484378695488 1.3216426968574526 0.43255642056465154 0.1969249024987221 0.086523357778787627 1.7504370808601382 0.81835255026817333 0.57666298747062694 1.2526385188102724 0.18896075338125232 1.1646298766136172 0.93314391374588024 1.3736505508422854 -0.15653926227241752 0.048012103885412223 0.63657769560813915 0.49282197654247289 0.92818346619606029 0.65857985615730297 -0.76731988787651051 0.31194664537906652 0.2717061340808869 1.1317933797836306 0.99902650713920604 1.417654871940613 0.46965649724006658 0.83059516549110424 -0.80584731698036183 -0.52045917510986317 0.28336951136589056 0.56891846656799328 0.91091233491897594 1.0000000180025095e-35 0.32318715751171118 -0.63176056742668141 0.92818346619606029 1.0000000180025095e-35 1.1976331472396853 0.91091233491897594 -0.08949402347207068 1.8797004818916323 -0.64174920320510853 1.0000000180025095e-35 1.0000000180025095e-35 1.0000000180025095e-35 0.28454293310642248 0.18896075338125232 0.92564338445663463 0.10497179627418519 -0.15653926227241752 0.72746825218200695 1.0106146931648257 0.30654510855674749
decision_type=2 2 2 2 2 2 2 2 2 2 2 2 2 2 2 2 2 2 2 2 2 2 2 2 2 2 2 2 2 2 2 2 2 2 2 2 2 2 2 2 2 2 2 2 2 2 2 2 2 2 2 2 2 2 2 2 2 2 2 2 2 2 2
left_child=1 6 5 15 10 7 12 18 19 16 25 23 14 26 39 34 40 35 31 20 42 53 30 -5 37 51 38 48 -12 -25 -9 61 60 -19 -4 57 -14 -13 -8 49 -7 -22 -6 -24 -16 -31 -30 -23 -11 -1 -18 -3 -36 -10 -27 -40 -34 62 -52 -29 -17 -2 -15
right_child=2 4 3 11 8 9 13 22 21 27 28 24 36 17 44 32 50 33 -20 -21 41 47 43 29 -26 54 -28 59 46 45 -32 -33 56 -35 52 -37 -38 -39 55 -41 -42 -43 -44 -45 -46 -47 -48 -49 -50 -51 58 -53 -54 -55 -56 -57 -58 -59 -60 -61 -62 -63 -64
leaf_value=1.758801121711731 1.8099435663223267 1.8070842599868775 1.8192482137680053 1.8508427119255066 1.8070842599868775 1.8278786754608154 1.7963840091228485 1.8125539064407348 1.8099435663223267 1.8247178602218628 1.8039234447479249 1.8675313520431518 1.8211843681335449 1.7963840091228485 1.7963840091228485 1.826339874267578 1.8230031061172485 1.8070842599868775 1.8171784281730652 1.8171784281730652 1.8149551844596863 1.8125539064407348 1.8192482137680053 1.8515323972702027 1.8620607204815423 1.8039234447479249 1.7963840091228485 1.8463342404365539 1.8039234447479249 1.8333483219146729 1.8171784281730652 1.8149551844596863 1.8307379817962646 1.826339874267578 1.8247178602218628 1.8307379817962646 1.8643030334684219 1.8641474914550782 1.7917594909667969 1.8039234447479249 1.8247178602218628 1.8192482137680053 1.8099435663223267 1.8230031061172485 1.7917594909667969 1.8379728436470031 1.8099435663223267 1.8230031061172485 1.826339874267578 1.7795955371856689 1.8293423819541932 1.800389952659607 1.8247178602218628 1.8149551844596863 1.8070842599868775 1.7917594909667969 1.8368818026654743 1.8039234447479249 1.832071533203125 1.8357495999336242 1.826339874267578 1.8125539064407348 1.800389952659607
leaf_weight=37822859 152782 166241 49689 7151 277458 31588 405998 129714 69594 68431 287122 17989 10490 337441 265884 37882 90250 126467 159420 59412 160772 59995 153140 29984 3411 392267 430053 1479 52517 143033 70460 62180 117697 10152 26847 4503 2634 387244 1578913 43863 71598 43976 112713 36498 1757985 167413 155801 52350 78239 5039168 95069 640030 95596 105514 160926 596009 841 80562 2539 76842 78779 94760 180066
leaf_count=37822859 152782 166241 49689 7151 277458 31588 405998 129714 69594 68431 287122 17989 10490 337441 265884 37882 90250 126467 159420 59412 160772 59995 153140 29984 3411 392267 430053 1479 52517 143033 70460 62180 117697 10152 26847 4503 2634 387244 1578913 43863 71598 43976 112713 36498 1757985 167413 155801 52350 78239 5039168 95069 640030 95596 105514 160926 596009 841 80562 2539 76842 78779 94760 180066
internal_value=1.79164 1.7908 1.80873 1.81472 1.79599 1.80366 1.7905 1.80157 1.79869 1.80715 1.79463 1.81694 1.79038 1.79191 1.79038 1.81058 1.80506 1.79341 1.79966 1.79739 1.79778 1.80165 1.80386 1.81503 1.81857 1.79388 1.79154 1.80985 1.79668 1.81525 1.80247 1.79852 1.81218 1.79609 1.8084 1.79281 1.80311 1.8187 1.79135 1.79033 1.80224 1.7997 1.79678 1.80533 1.79127 1.81564 1.79791 1.80373 1.80869 1.79033 1.80661 1.7933 1.8094 1.80031 1.79473 1.79119 1.81355 1.79274 1.8078 1.81202 1.8108 1.79788 1.79251
internal_weight=5.40283e+07 5.14897e+07 2.53854e+06 1.16356e+06 2.79669e+06 1.37499e+06 4.8693e+07 858954 941784 516035 1.8549e+06 756225 4.49429e+07 3.75016e+06 4.49298e+07 407331 291044 739191 469142 654331 594919 287453 389812 347581 408644 1.35946e+06 3.01097e+06 224991 495440 340430 200174 309722 235199 136619 172132 602572 13124 405233 2.58092e+06 4.29059e+07 103186 204748 390171 189638 2.02387e+06 310446 208318 112345 146670 4.2862e+07 187858 806271 122443 175108 553193 2.17492e+06 118538 598069 97608 78321 116661 247542 517507
internal_count=54028280 51489735 2538545 1163556 2796688 1374989 48693047 858954 941784 516035 1854904 756225 44942883 3750164 44929759 407331 291044 739191 469142 654331 594919 287453 389812 347581 408644 1359464 3010973 224991 495440 340430 200174 309722 235199 136619 172132 602572 13124 405233 2580920 42905890 103186 204748 390171 189638 2023869 310446 208318 112345 146670 42862027 187858 806271 122443 175108 553193 2174922 118538 598069 97608 78321 116661 247542 517507
is_linear=0
shrinkage=1


Tree=1
num_leaves=64
num_cat=0
split_feature=4 5 29 4 4 5 26 29 26 26 28 26 5 29 4 4 29 5 46 5 26 5 5 0 29 46 5 13 4 28 13 26 5 26 29 5 13 5 13 28 10 26 28 29 10 29 26 5 5 18 13 5 10 10 10 46 46 0 28 5 26 10 26
split_gain=858885 86891.9 85622.7 11895.2 11153.5 10453.5 9572.82 4172.96 3928.44 3662.54 3235.45 3096.29 2908.21 2614.27 2383.51 1583.4 1412.31 1325.16 1156.2 1203.47 1059.82 937.635 884.449 871.519 864.215 857.316 682.076 677.837 641.619 629.823 594.438 558.523 549.48 545.308 494.048 472.178 413.333 406.086 399.783 371.757 370.899 364.046 359.5 358.491 350.006 327.614 326.16 322.769 316.964 311.895 288.361 276.567 273.565 258.631 236.313 228.551 222.407 219.022 218.824 217.904 212.707 210.598 202.452
threshold=1.079709053039551 0.4825624823570252 1.0259131789207461 2.5050061941146855 1.708516597747803 0.85659947991371166 0.10525208711624147 0.85049504041671764 0.22698451578617099 0.37645629048347479 0.79606539011001598 0.214484378695488 -0.045489681884646409 1.3216426968574526 0.3670604825019837 1.7504370808601382 0.81835255026817333 1.2526385188102724 0.18896075338125232 1.1756309270858767 0.60907787084579479 0.24053857475519183 1.3736505508422854 -0.15653926227241752 0.93314391374588024 0.048012103885412223 0.66958096623420726 -0.63176056742668141 0.70242449641227733 0.92818346619606029 -0.76731988787651051 0.31194664537906652 0.65857985615730297 0.2717061340808869 1.1317933797836306 1.417654871940613 -0.52045917510986317 0.27354182302951818 -0.80584731698036183 0.56891846656799328 1.0000000180025095e-35 0.32318715751171118 0.92818346619606029 0.91091233491897594 1.0000000180025095e-35 0.91091233491897594 0.19904328882694247 1.8797004818916323 1.1976331472396853 0.575207680463791 -0.63176056742668141 -0.16650163382291791 1.0000000180025095e-35 1.0000000180025095e-35 1.0000000180025095e-35 0.18896075338125232 0.10497179627418519 -0.15653926227241752 0.72746825218200695 1.0106146931648257 0.23238495737314227 1.0000000180025095e-35 0.1969249024987221
decision_type=2 2 2 2 2 2 2 2 2 2 2 2 2 2 2 2 2 2 2 2 2 2 2 2 2 2 2 2 2 2 2 2 2 2 2 2 2 2 2 2 2 2 2 2 2 2 2 2 2 2 2 2 2 2 2 2 2 2 2 2 2 2 2
left_child=1 6 4 15 7 11 12 17 18 14 16 26 51 23 21 35 39 33 19 44 49 36 31 -5 53 38 50 -14 46 45 -25 -9 -13 59 58 -4 -8 -29 -15 -6 -34 -24 -32 -21 -7 -12 -16 -18 -26 -11 -3 -1 -37 -10 -28 -36 -49 -31 -17 -2 -30 -23 -38
right_child=2 5 3 13 10 8 9 22 24 20 29 32 27 25 28 34 47 -19 -20 43 -22 61 41 30 48 -27 54 37 60 57 42 -33 40 -35 55 52 62 -39 -40 -41 -42 -43 -44 -45 -46 -47 -48 56 -50 -51 -52 -53 -54 -55 -56 -57 -58 -59 -60 -61 -62 -63 -64
leaf_value=-0.031969618177413943 0.017638553094863892 0.014865025949478148 0.026664061117172243 0.057310724329948423 0.035035608959197995 0.014865025949478148 0.004485782611370088 0.020170583009719852 0.017638553094863892 0.014959850406646725 0.031969618177413943 0.011799035167694089 0.004485782611370088 0.073498705244064336 0.0046245181560516354 0.033542971801757811 0.030306306695938111 0.02465636909008026 0.02465636909008026 0.02249982268810272 0.055803606590997999 0.0043656043052673317 0.026664061117172243 0.057979719114303586 0.020170583009719852 0.068192192629303011 0.011799035167694089 -0.005469646453857422 0.011905039930343626 0.052937506985664365 0.040341166019439698 0.02465636909008026 0.011799035167694089 0.02249982268810272 0.037809136104583745 0.031969618177413943 -0.0051047278404235813 0 0.070216360473632805 0.031969618177413943 0.017638553094863892 0.030306306695938111 0.044826952099800109 0.026664061117172243 0.017638553094863892 0.033542971801757811 0.0083715478420257547 0.036455404257774347 0.030306306695938111 0.030206203651428225 0.0083715478420257547 -0.011799035167694089 0.031969618177413943 0.02249982268810272 0.014865025949478148 0.043768642347716998 0.039102680969238281 0.042670405697822572 0.033542971801757811 0.020170583009719852 0.014959850406646725 0.0046245181560516354 0
leaf_weight=33268007 152782 174197 49689 7151 31588 266830 344137 129714 67566 44645 68431 252543 536528 17989 470895 37882 90250 159420 58726 154387 8332 306000 153140 29984 57840 3411 329990 4489548 89222 1479 143033 70460 55420 62180 117697 26847 2058734 681074 387244 71598 163236 36498 167413 43156 108544 78239 273162 95069 52350 15869 618194 5193319 95596 100600 134953 841 2539 76842 78779 94760 43561 395391 632779
leaf_count=33268007 152782 174197 49689 7151 31588 266830 344137 129714 67566 44645 68431 252543 536528 17989 470895 37882 90250 159420 58726 154387 8332 306000 153140 29984 57840 3411 329990 4489548 89222 1479 143033 70460 55420 62180 117697 26847 2058734 681074 387244 71598 163236 36498 167413 43156 108544 78239 273162 95069 52350 15869 618194 5193319 95596 100600 134953 841 2539 76842 78779 94760 43561 395391 632779
internal_value=-6.6927e-05 -0.000906794 0.0169682 0.0229576 0.0118999 0.00439603 -0.00119321 0.00980561 0.00699851 9.65565e-05 0.0153858 0.00302593 -0.00132995 0.0251838 -5.93061e-06 0.0188246 0.0132972 0.00789956 0.00569001 0.00610094 0.00696498 -0.000336219 0.0120996 0.0232712 0.00996776 0.0268105 0.00224865 -0.000698001 0.00140174 0.0180876 0.0234889 0.0107087 0.00510001 0.00675566 0.0204247 0.0166382 -0.000564636 -0.000803318 0.0269366 0.0104775 0.006201 0.0135677 0.0238785 0.00799631 0.00510349 0.0169277 0.00105892 0.0148461 0.0120328 0.00558381 0.00171341 -0.00142372 0.0176391 0.00861465 0.00316083 0.0217887 0.0160418 0.0202597 0.0190387 0.00612477 0.00332276 0.00065238 -0.000689809
internal_weight=5.40283e+07 5.14897e+07 2.53854e+06 1.16356e+06 1.37499e+06 2.63853e+06 4.88512e+07 858954 909999 4.68273e+06 516035 1.72853e+06 4.41685e+07 756225 4.61388e+06 407331 291044 469142 631643 572917 68846 3.73704e+06 389812 347581 278356 408644 1.25733e+06 5.70715e+06 876840 224991 340430 200174 471199 309722 235199 172132 3.03565e+06 5.17062e+06 405233 103186 218656 189638 310446 197543 375374 146670 744057 187858 110190 60514 792391 3.84613e+07 122443 168166 464943 118538 97608 78321 116661 247542 132783 701391 2.69151e+06
internal_count=54028280 51489735 2538545 1163556 1374989 2638532 48851203 858954 909999 4682727 516035 1728533 44168476 756225 4613881 407331 291044 469142 631643 572917 68846 3737041 389812 347581 278356 408644 1257334 5707150 876840 224991 340430 200174 471199 309722 235199 172132 3035650 5170622 405233 103186 218656 189638 310446 197543 375374 146670 744057 187858 110190 60514 792391 38461326 122443 168166 464943 118538 97608 78321 116661 247542 132783 701391 2691513
is_linear=0
shrinkage=0.03


Tree=2
num_leaves=64
num_cat=0
split_feature=4 5 29 5 4 4 5 26 29 26 28 26 29 4 4 29 5 6 46 5 29 5 0 5 29 46 4 5 28 26 13 5 10 26 5 26 29 5 13 28 10 26 28 29 10 36 29 5 5 13 10 10 5 18 10 46 15 8 46 0 28 5 4
split_gain=855269 85661.6 85622.7 13775.7 11895.2 11153.5 10453.5 4657.98 4172.96 3928.44 3235.45 3096.29 2614.27 1713.72 1583.4 1412.31 1325.16 1323.22 1156.2 1203.47 1037.71 884.449 871.519 870.76 864.215 857.316 752.027 682.076 629.823 601.44 594.438 588.979 577.557 558.523 549.48 545.308 494.048 472.178 399.783 371.757 370.899 364.046 359.5 358.491 350.006 342.089 327.614 322.769 316.964 288.361 273.565 258.631 251.562 246.184 236.313 228.551 227.446 316.879 222.407 219.022 218.824 217.904 203.766
threshold=1.079709053039551 0.4825624823570252 1.0259131789207461 0.031517934054136283 2.5050061941146855 1.708516597747803 0.85659947991371166 0.34209236502647405 0.85049504041671764 0.22698451578617099 0.79606539011001598 0.214484378695488 1.3216426968574526 0.53474250435829174 1.7504370808601382 0.81835255026817333 1.2526385188102724 0.21005047112703326 0.18896075338125232 1.1756309270858767 0.95762792229652416 1.3736505508422854 -0.15653926227241752 0.17453207075595858 0.93314391374588024 0.048012103885412223 0.4089809656143189 0.66958096623420726 0.92818346619606029 0.20771346241235736 -0.76731988787651051 -0.11149619519710539 1.0000000180025095e-35 0.31194664537906652 0.65857985615730297 0.2717061340808869 1.1317933797836306 1.417654871940613 -0.80584731698036183 0.56891846656799328 1.0000000180025095e-35 0.32318715751171118 0.92818346619606029 0.91091233491897594 1.0000000180025095e-35 1.0000000180025095e-35 0.91091233491897594 1.8797004818916323 1.1976331472396853 -0.63176056742668141 1.0000000180025095e-35 1.0000000180025095e-35 0.37255162000656133 0.54214677214622509 1.0000000180025095e-35 0.18896075338125232 0.2794876247644425 -1.574846565723419 0.10497179627418519 -0.15653926227241752 0.72746825218200695 1.0106146931648257 0.78626549243927013
decision_type=2 2 2 2 2 2 2 2 2 2 2 2 2 2 2 2 2 2 2 2 2 2 2 2 2 2 2 2 2 2 2 2 2 2 2 2 2 2 2 2 2 2 2 2 2 2 2 2 2 2 2 2 2 2 2 2 2 2 2 2 2 2 2
left_child=1 3 5 7 14 8 11 17 16 18 15 27 22 23 37 39 35 31 19 44 53 33 -6 -5 51 38 45 49 46 -15 -24 56 -25 -10 -13 61 60 -4 -14 -7 -36 -23 -32 -21 -8 -19 -12 -17 -26 -3 -39 -11 -34 -9 -29 -38 -1 -58 -49 -30 -16 -2 -31
right_child=2 6 4 13 12 10 9 20 21 24 28 34 25 29 36 47 -18 26 -20 43 -22 41 30 32 48 -27 -28 54 59 62 42 -33 52 -35 40 -37 55 50 -40 -41 -42 -43 -44 -45 -46 -47 -48 58 -50 -51 -52 -53 -54 -55 -56 -57 57 -59 -60 -61 -62 -63 -64
leaf_value=-0.031010529632091523 0.017109396502017971 0.014419075170993799 0.025864139283657075 -0.004940638446807857 0.055591402600049966 0.03398454069042206 0.014419075170993799 0.016697868344306945 0.019565465519428255 0.017109396502017971 0.031010529632091523 0.011445064112663269 0.071293744086742397 0.0081345749502182048 0.032536682647705074 0.029397117495059966 0.023916678017377853 0.0011418929128646815 0.023916678017377853 0.021824828007459638 0.057901225370208372 0.025864139283657075 0.056240327540874477 0 0.019565465519428255 0.066146426850423934 0.01154788873243332 0.011445064112663269 0.051349381776094438 0.011441883969783783 0.039130931038856502 -0.011445064112663269 0.004351209133028988 0.023916678017377853 0.011445064112663269 0.021824828007459638 0.036674862021446229 0.031010529632091523 0.068109869659423825 0.031010529632091523 0.017109396502017971 0.029397117495059966 0.043482143536806107 0.025864139283657075 0.017109396502017971 -0.010821231648445133 0.032536682647705074 0.035361742130041118 0.029397117495059966 0.0081204014067649856 0.031010529632091523 0.021824828007459638 0.0082328122973442074 0.025870572564125061 0.014419075170993799 0.042455583077285489 0.013152704858779906 -0.018846575850963596 0.037929600540161132 0.041390293526887889 0.032536682647705074 0.019565465519428255 0.017275536772727963
leaf_weight=33621861 152782 174197 49689 3045004 7151 31588 266830 29002 129714 67566 68431 252543 17989 356139 37882 90250 159420 208461 58726 154387 7225 153140 29984 1681523 57840 3411 69251 329990 1479 98950 143033 3936473 976711 70460 55420 62180 117697 26847 387244 71598 163236 36498 167413 43156 108544 1978498 78239 95069 52350 618194 95596 100600 286326 17340 134953 841 19720 2484846 2539 76842 78779 94760 33873
leaf_count=33621861 152782 174197 49689 3045004 7151 31588 266830 29002 129714 67566 68431 252543 17989 356139 37882 90250 159420 208461 58726 154387 7225 153140 29984 1681523 57840 3411 69251 329990 1479 98950 143033 3936473 976711 70460 55420 62180 117697 26847 387244 71598 163236 36498 167413 43156 108544 1978498 78239 95069 52350 618194 95596 100600 286326 17340 134953 841 19720 2484846 2539 76842 78779 94760 33873
internal_value=-3.10219e-05 -0.000869118 0.0169682 -0.0011535 0.0229576 0.0118999 0.00439603 -0.00135048 0.00980561 0.00699851 0.0153858 0.00302593 0.0251838 0.000134885 0.0188246 0.0132972 0.00789956 -0.00136167 0.00569001 0.00610094 0.00749042 0.0120996 0.0232712 -4.52423e-06 0.00996776 0.0268105 -0.000654786 0.00224865 0.0180876 0.00184259 0.0234889 -0.00140148 0.000363314 0.0107087 0.00510001 0.00675566 0.0204247 0.0166382 0.0269366 0.0104775 0.006201 0.0135677 0.0238785 0.00799631 0.00510349 -0.00075225 0.0169277 0.0148461 0.0120328 0.00171341 0.0176391 0.00861465 0.000848102 0.00584172 0.00316083 0.0217887 -0.00143945 -0.00116365 0.0160418 0.0202597 0.0190387 0.00612477 0.00356546
internal_weight=5.40283e+07 5.14897e+07 2.53854e+06 4.88512e+07 1.16356e+06 1.37499e+06 2.63853e+06 4.23727e+07 858954 909999 516035 1.72853e+06 756225 6.47853e+06 407331 291044 469142 4.23191e+07 631643 572917 53567 389812 347581 5.98956e+06 278356 408644 2.25621e+06 1.25733e+06 224991 488962 340430 4.00629e+07 2.94456e+06 200174 471199 309722 235199 172132 405233 103186 218656 189638 310446 197543 375374 2.18696e+06 146670 187858 110190 792391 122443 168166 1.26304e+06 46342 464943 118538 3.61264e+07 2.50457e+06 97608 78321 116661 247542 132823
internal_count=54028280 51489735 2538545 48851203 1163556 1374989 2638532 42372677 858954 909999 516035 1728533 756225 6478526 407331 291044 469142 42319110 631643 572917 53567 389812 347581 5989564 278356 408644 2256210 1257334 224991 488962 340430 40062900 2944560 200174 471199 309722 235199 172132 405233 103186 218656 189638 310446 197543 375374 2186959 146670 187858 110190 792391 122443 168166 1263037 46342 464943 118538 36126427 2504566 97608 78321 116661 247542 132823
is_linear=0
shrinkage=0.03


Tree=3
num_leaves=64
num_cat=0
split_feature=4 5 29 5 4 4 5 26 29 26 28 26 4 25 26 4 29 0 5 46 5 13 29 4 5 29 5 5 28 29 26 5 26 5 26 5 42 29 13 28 10 26 29 5 10 29 5 5 13 13 46 10 10 28 18 0 46 10 29 15 46 5 46
split_gain=847058 85507.6 82928.6 14307.7 11145.8 10944.4 10453.5 4593.77 4172.96 3928.44 3229.5 3096.29 1945.5 1917.05 1867.14 1450.41 1412.31 1331.13 1325.16 1156.2 1203.47 1060.92 966.005 956.377 884.449 864.215 861.322 682.076 625.053 605.586 558.523 549.48 545.308 513.018 482.509 472.178 430.164 423.632 378.725 371.757 370.899 364.046 358.491 356.259 350.006 327.614 322.769 316.964 288.361 286.027 278.226 273.565 258.631 256.949 245.619 244.902 243.321 236.313 226.142 225.455 222.407 217.904 217.535
threshold=1.079709053039551 0.4825624823570252 1.0259131789207461 0.031517934054136283 1.708516597747803 2.6726881265640263 0.85659947991371166 0.34209236502647405 0.85049504041671764 0.22698451578617099 0.79606539011001598 0.214484378695488 1.7504370808601382 0.34628124535083776 0.15248543769121173 0.1574579328298569 0.81835255026817333 1.0000000180025095e-35 1.2526385188102724 0.18896075338125232 1.1756309270858767 -0.76731988787651051 0.95762792229652416 0.61858350038528453 1.3736505508422854 0.93314391374588024 -0.11149619519710539 0.66958096623420726 0.92818346619606029 1.1317933797836306 0.31194664537906652 0.65857985615730297 0.2717061340808869 0.15252986550331118 0.19511897861957553 1.417654871940613 0.79383835196495067 1.2114295363426211 -0.80584731698036183 0.56891846656799328 1.0000000180025095e-35 0.32318715751171118 0.91091233491897594 0.33954834938049322 1.0000000180025095e-35 0.91091233491897594 1.8797004818916323 1.1976331472396853 -0.63176056742668141 -0.76161211729049672 0.18896075338125232 1.0000000180025095e-35 1.0000000180025095e-35 0.72746825218200695 0.54214677214622509 -0.15653926227241752 0.042528783902525909 1.0000000180025095e-35 1.5450725555419924 0.26933158934116369 0.10497179627418519 1.0106146931648257 0.23524208366870883
decision_type=2 2 2 2 2 2 2 2 2 2 2 2 2 2 2 2 2 2 2 2 2 2 2 2 2 2 2 2 2 2 2 2 2 2 2 2 2 2 2 2 2 2 2 2 2 2 2 2 2 2 2 2 2 2 2 2 2 2 2 2 2 2 2
left_child=1 3 4 7 8 12 11 15 18 19 16 27 35 38 33 26 39 62 32 20 44 -19 54 43 30 52 34 48 45 53 -10 -13 61 -5 59 -4 -17 -23 -7 -6 -33 -26 -22 -16 -8 -12 -18 -27 -3 -35 -31 -37 -11 -14 -9 -30 58 -29 -40 -1 -48 -2 -15
right_child=2 6 5 14 10 13 9 22 24 25 28 31 29 17 23 36 46 21 -20 -21 42 37 -24 -25 41 47 -28 57 55 50 -32 40 -34 49 -36 51 -38 -39 56 -41 -42 -43 -44 -45 -46 -47 60 -49 -50 -51 -52 -53 -54 -55 -56 -57 -58 -59 -60 -61 -62 -63 -64
leaf_value=-0.030080213743128779 0.016596114606957434 0.013986502915863985 0.02508821510514736 -0.0050910821653604478 0.032965004469709402 0.067510687570109362 0.013986502915863985 0.016196932293977739 0.018978501553845409 0.016596114606957434 0.030080213743128779 0.01110171218928337 0.031560582168273919 0.060196410422866338 0.0039839215960156956 -0.00031172787674903278 0.028515203970208167 0.057782032452349655 0.023199177676856517 0.023199177676856517 0.021170083167235849 0.038777818371784692 0.05616418860910212 0.01142402979002953 0.02508821510514736 0.018978501553845409 -0.01110171218928337 0.01110171218928337 0.049808900322811607 0.03557461616080284 0.023199177676856517 0.01110171218928337 0.021170083167235849 0.01480447562813759 0.0015541483531808819 0.030080213743128779 0.011540046029791832 0.046586233088836672 0.045716603705749509 0.030080213743128779 0.016596114606957434 0.028515203970208167 0.02508821510514736 0.0079858279284238786 0.016596114606957434 0.031560582168273919 0.034300889866139883 0.028515203970208167 0.0078767893645620337 3.3553119624858408e-05 0.040802760366531167 0.030080213743128779 0.021170083167235849 0.031560582168273919 0.025094455387201307 0.040148584721081251 0.065070761496730606 0.013986502915863985 0.07355620236145019 -0.017916259962000851 0.036791712523956299 0.018978501553845409 0.054307896586440245
leaf_weight=33774904 152782 174197 49689 2236160 31588 15613 266830 29002 129714 67566 68431 252543 41912 8444 1094520 445813 90250 30318 159420 58726 154387 130545 7225 149813 153140 57840 4988602 329990 1479 147172 70460 55420 62180 101229 114104 26847 53185 201617 138402 71598 163236 36498 43156 374764 108544 78239 95069 52350 618194 2522040 1006 95596 100600 93235 17340 76842 1256 134953 179080 2942502 2539 94760 2824
leaf_count=33774904 152782 174197 49689 2236160 31588 15613 266830 29002 129714 67566 68431 252543 41912 8444 1094520 445813 90250 30318 159420 58726 154387 130545 7225 149813 153140 57840 4988602 329990 1479 147172 70460 55420 62180 101229 114104 26847 53185 201617 138402 71598 163236 36498 43156 374764 108544 78239 95069 52350 618194 2522040 1006 95596 100600 93235 17340 76842 1256 134953 179080 2942502 2539 94760 2824
internal_value=-3.03195e-05 -0.000864383 0.0168871 -0.00114851 0.0118992 0.0227815 0.00439603 -0.00134926 0.00980561 0.00699851 0.0153839 0.00302593 0.0191537 0.025115 0.000164522 -0.00136037 0.0132972 0.0236386 0.00789956 0.00569001 0.00610094 0.0239542 0.0074305 0.00104685 0.0120996 0.00996776 -0.00137956 0.00224865 0.0180832 0.0206819 0.0107087 0.00510001 0.00675566 -0.000129457 -0.00142966 0.0166382 0.000247462 0.0244446 0.0267653 0.0104775 0.006201 0.0135677 0.00799631 0.000814025 0.00510349 0.0169277 0.0148461 0.0120328 0.00171341 0.000155137 0.0220065 0.0176391 0.00861465 0.0192296 0.00583978 0.020247 0.0269888 0.00316083 0.0270409 -0.00143572 0.0160418 0.00612477 0.013484
internal_weight=5.40283e+07 5.14897e+07 2.53854e+06 4.88512e+07 1.37499e+06 1.16356e+06 2.63853e+06 4.23727e+07 858954 909999 516035 1.72853e+06 455457 708099 6.47853e+06 4.23191e+07 291044 373748 469142 631643 572917 362480 53567 1.6191e+06 389812 278356 4.18201e+07 1.25733e+06 224991 283325 200174 471199 309722 4.85943e+06 3.68315e+07 172132 498998 332162 334351 103186 218656 189638 197543 1.46928e+06 375374 146670 187858 110190 792391 2.62327e+06 148178 122443 168166 135147 46342 78321 318738 464943 317482 3.67174e+07 97608 247542 11268
internal_count=54028280 51489735 2538545 48851203 1374989 1163556 2638532 42372677 858954 909999 516035 1728533 455457 708099 6478526 42319110 291044 373748 469142 631643 572917 362480 53567 1619097 389812 278356 41820112 1257334 224991 283325 200174 471199 309722 4859429 36831510 172132 498998 332162 334351 103186 218656 189638 197543 1469284 375374 146670 187858 110190 792391 2623269 148178 122443 168166 135147 46342 78321 318738 464943 317482 36717406 97608 247542 11268
is_linear=0
shrinkage=0.03


Tree=4
num_leaves=64
num_cat=0
split_feature=4 29 5 5 29 5 5 26 26 26 26 28 28 28 5 4 4 15 46 5 29 15 5 29 26 46 5 5 4 46 5 29 29 4 26 4 29 26 13 29 46 37 10 18 29 10 5 5 46 13 4 17 10 29 10 18 10 40 44 5 28 26 15
split_gain=823663 85104.4 78733.4 13091.5 12042.4 11434 10158.7 4918.08 4309.96 3745.2 2942.33 2230.38 2130.51 1881.94 1529.24 1347.92 1282.63 1063.18 1058.53 1184.66 923.548 911.216 799.01 789.519 769.363 691.081 674.325 659.412 634.57 614.191 553.837 531.665 510.199 509.168 471.775 441.207 425.358 419.885 415.5 408.923 398.638 385.986 364.427 339.712 329.309 324.041 323.46 310.926 294.629 289.617 288.444 276.653 251.979 242.256 238.798 237.461 236.632 235.08 230.138 229.242 228.591 217.371 212.472
threshold=1.0377885699272158 1.0259131789207461 0.46056032180786138 0.031517934054136283 1.2114295363426211 1.4726603031158449 0.83459720015525829 0.30113084614276892 0.33505631983280187 0.22698451578617099 0.21215328574180606 0.79606539011001598 0.77479279041290294 0.92818346619606029 1.1096244454383852 0.11553743109107019 0.57666298747062694 0.87994167208671581 0.18896075338125232 1.1646298766136172 0.87650212645530712 0.80572634935379039 -0.11149619519710539 0.93314391374588024 0.12488494068384172 0.15368687361478808 1.6266755461692812 0.63657769560813915 2.1696420907974248 0.12953945994377139 0.65857985615730297 0.80911555886268627 1.5450725555419924 1.8761986494064333 0.20771346241235736 0.3670604825019837 0.86265528202056896 0.19511897861957553 -0.46338158845901484 1.3216426968574526 0.06230332329869271 0.81548669934272777 1.0000000180025095e-35 0.76091882586479198 0.91091233491897594 1.0000000180025095e-35 0.3175461888313294 1.1976331472396853 0.10497179627418519 -0.64174920320510853 1.7504370808601382 0.14896316826343539 1.0000000180025095e-35 0.93314391374588024 1.0000000180025095e-35 0.53740283846855175 1.0000000180025095e-35 0.26842521131038671 0.25829589366912847 0.14152878522872928 0.987317055463791 0.19511897861957553 0.26534681022167211
decision_type=2 2 2 2 2 2 2 2 2 2 2 2 2 2 2 2 2 2 2 2 2 2 2 2 2 2 2 2 2 2 2 2 2 2 2 2 2 2 2 2 2 2 2 2 2 2 2 2 2 2 2 2 2 2 2 2 2 2 2 2 2 2 2
left_child=2 5 3 8 11 7 10 14 15 18 27 26 20 25 31 22 24 41 19 42 57 55 37 52 38 39 -3 49 53 32 -12 61 -15 -13 -18 -17 -16 62 -5 -6 -28 -9 -8 -19 -21 -32 -26 -25 60 -4 -22 -30 -11 -14 -48 -10 -29 -7 -41 -40 -35 -2 -1
right_child=1 4 6 16 13 12 9 17 21 23 30 33 28 29 36 35 34 43 -20 44 50 -23 -24 47 46 -27 40 56 51 -31 45 -33 -34 48 -36 -37 -38 -39 59 58 -42 -43 -44 -45 -46 -47 54 -49 -50 -51 -52 -53 -54 -55 -56 -57 -58 -59 -60 -61 -62 -63 -64
leaf_value=-0.029177807330834915 0.016098231168748707 0.025644315242517042 0.013566907828388068 0.0041020032245932467 0.037810165869931404 0.030437253142380813 0.013566907828388068 0.020534980672218775 0.014371619145715426 0.016098231168748707 0.010768660823604869 0.027463053226220658 0.023708160876977493 0.045214734977664185 0.020279958633171915 -0.0042938976900790248 0.0077662324612395349 0.027912387467687344 0.022503202346550819 0.020534980672218775 0.02627172301753249 0.052949738842577018 -0.010768660823604869 0.018409146507230044 0.00039362011895760051 0.048257468700158644 0.032338622569787548 0.010768660823604869 0.035266060448949553 0.065933635961430037 0.010768660823604869 0.018409146507230044 0.070998640436114493 0.035113034235670214 0.012846231014614351 0.0085745684986235637 0.02081042452618146 0.0015075239025854547 -0.0050046054418766478 0.046033770817698667 0.040023490369271851 0.025644315242517042 0.016098231168748707 0.050328816987340666 0.024335568651992937 0.016098231168748707 0.0042539751890408968 0.029374501955716181 0.044377726878495671 0.0076404856836251754 0.031808156676778006 0.045346717575793914 0.020534980672218775 0.025841009867398308 0.0077462530905711598 0.024593842782523443 0.013566907828388068 0.029177807330834915 0.061223035960857722 -1.0065935887482169e-06 0.041014344679548391 0.018133702653267358 -0.017378772163140824
leaf_weight=33611003 128216 76373 163337 706753 104379 15401 278080 61554 30382 62232 290343 60010 74152 214736 178345 657862 238280 17982 59816 147231 98533 7041 4781690 56444 1390840 2778 172271 366184 118112 2139 49664 113545 194530 150215 92173 90979 101106 106789 1623359 100765 4351 127555 112856 15295 39608 145701 210153 45152 1728 631838 95125 3376 102852 62866 300675 18827 149707 158578 1488 1752555 85045 100942 3066383
leaf_count=33611003 128216 76373 163337 706753 104379 15401 278080 61554 30382 62232 290343 60010 74152 214736 178345 657862 238280 17982 59816 147231 98533 7041 4781690 56444 1390840 2778 172271 366184 118112 2139 49664 113545 194530 150215 92173 90979 101106 106789 1623359 100765 4351 127555 112856 15295 39608 145701 210153 45152 1728 631838 95125 3376 102852 62866 300675 18827 149707 158578 1488 1752555 85045 100942 3066383
internal_value=-4.38013e-05 0.0162937 -0.000883617 -0.00116021 0.0223289 0.0114891 0.0041019 0.0092115 -0.00135013 0.00669531 0.0027967 0.0190964 0.0145612 0.0251926 0.00784278 -0.00136116 0.000114087 0.0130407 0.00544668 0.00583998 0.0130938 0.00694853 -0.00138388 0.00968059 1.36164e-05 0.0228775 0.0170265 0.00205778 0.0166481 0.0263711 0.00479125 0.0064997 0.0264549 0.0208596 0.00193356 -9.96764e-05 0.00948987 -0.00143131 -0.000218537 0.0230773 0.018045 0.0121705 0.00490087 0.0179855 0.00780496 0.00602622 0.000512023 0.0117613 0.0214847 0.00151586 0.014519 0.0182266 0.00840005 0.0152485 0.00115763 0.00550421 0.00289308 0.0115074 0.0244257 -0.000357012 0.0215754 0.00566794 -0.00143678
internal_weight=5.40283e+07 2.64149e+06 5.13868e+07 4.86857e+07 1.17081e+06 1.47068e+06 2.70104e+06 844540 4.2371e+07 904271 1.79677e+06 549993 626143 620815 622154 4.23147e+07 6.31479e+06 222386 637591 577775 367637 56250 4.15659e+07 266680 5.98434e+06 209410 252995 1.31107e+06 258506 411405 485708 342703 409266 296998 330453 748841 279451 3.67842e+07 4.08267e+06 206632 176622 189109 390936 33277 186839 195365 1.90167e+06 101596 236988 795175 193658 121488 165084 137018 510828 49209 515891 173979 102253 3.37591e+06 235260 229158 3.66774e+07
internal_count=54028280 2641491 51386789 48685744 1170808 1470683 2701045 844540 42370956 904271 1796774 549993 626143 620815 622154 42314706 6314788 222386 637591 577775 367637 56250 41565865 266680 5984335 209410 252995 1311066 258506 411405 485708 342703 409266 296998 330453 748841 279451 36784175 4082667 206632 176622 189109 390936 33277 186839 195365 1901668 101596 236988 795175 193658 121488 165084 137018 510828 49209 515891 173979 102253 3375914 235260 229158 36677386
is_linear=0
shrinkage=0.03


Tree=5
num_leaves=64
num_cat=0
split_feature=4 29 5 5 29 4 5 26 26 28 26 28 5 25 4 5 26 15 46 5 0 4 29 4 4 29 43 5 13 5 5 29 26 28 26 5 10 46 15 29 5 29 10 26 5 6 29 13 18 28 10 26 23 10 29 5 13 10 5 28 46 42 29
split_gain=766046 80946.8 78811.3 12792.1 12324.7 10867.2 10158.7 4168.2 3745.2 3383.47 2942.33 2670.91 1843.81 1666.92 1658.08 1349.71 1348.56 1255.83 1058.53 1184.66 981.767 978.211 963.609 945.616 896.645 789.519 770.156 659.412 612.456 553.837 503.271 486.866 483.704 483.008 440.454 383.416 364.427 361.009 351.562 331.784 331.023 329.309 324.041 315.058 310.926 298.916 295.436 289.617 279.956 269.539 251.979 250.206 236.844 236.632 234.735 220.537 218.894 218.432 213.6 198.448 197.957 189.51 188.032
threshold=1.0377885699272158 1.0708141922950747 0.46056032180786138 0.031517934054136283 0.86265528202056896 3.1338135004043584 0.83459720015525829 0.30642768740653997 0.22698451578617099 0.82068645954132091 0.21215328574180606 0.7573981285095216 1.1976331472396853 0.31569460034370428 2.0858012437820439 1.3736505508422854 0.12970838695764544 0.29844820499420172 0.18896075338125232 1.1646298766136172 1.0000000180025095e-35 2.5050061941146855 0.93314391374588024 1.6665961146354678 0.57666298747062694 0.93314391374588024 0.045525731518864639 0.63657769560813915 -0.76731988787651051 0.65857985615730297 -0.1224972829222679 1.2114295363426211 0.26072351634502416 0.7573981285095216 0.31194664537906652 0.15252986550331118 1.0000000180025095e-35 0.13114900887012484 0.94371968507766735 1.5450725555419924 0.3175461888313294 0.91091233491897594 1.0000000180025095e-35 0.27511380612850195 1.1976331472396853 0.34216222167015081 1.2114295363426211 -0.64174920320510853 0.53740283846855175 0.79606539011001598 1.0000000180025095e-35 0.25407500565052038 0.63768088817596447 1.0000000180025095e-35 0.98724260926246654 1.6266755461692812 -0.76161211729049672 1.0000000180025095e-35 0.93360707163810741 0.987317055463791 0.17971385270357135 1.1314971446990969 1.2114295363426211
decision_type=2 2 2 2 2 2 2 2 2 2 2 2 2 2 2 2 2 2 2 2 2 2 2 2 2 2 2 2 2 2 2 2 2 2 2 2 2 2 2 2 2 2 2 2 2 2 2 2 2 2 2 2 2 2 2 2 2 2 2 2 2 2 2
left_child=2 4 3 7 11 14 10 17 18 15 27 12 32 39 33 34 35 30 19 36 -15 54 48 -13 40 50 52 47 -22 -12 -1 49 58 62 -6 -5 -8 43 -25 -7 -18 -21 -31 -17 -27 -28 -30 -4 -9 -16 -10 -26 -19 -29 -11 -14 -37 -42 -2 -23 -33 -24 -3
right_child=1 5 6 16 9 13 8 22 25 21 29 23 55 20 31 37 24 26 -20 41 28 59 61 38 51 44 45 53 46 42 -32 60 -34 -35 -36 56 -38 -39 -40 -41 57 -43 -44 -45 -46 -47 -48 -49 -50 -51 -52 -53 -54 -55 -56 -57 -58 -59 -60 -61 -62 -63 -64
leaf_value=-0.02830247311090987 0.015554220089150689 0.02732113154396059 0.013159900593536429 -0.0048544672786203493 0.019273209886398336 0.04552538239061453 0.013159900593536429 0.01257523459935872 0.015615284233686246 0.023624323825683611 0.010445600998896725 0.017856872112013145 0.021627868126625774 0.058781597625620942 0.031913665985293362 0.025483571327006516 0.00038181151538887233 0.0026121094409652487 0.021828106276154297 0.01991893125205221 0.057001629499527522 0.035287441825304092 0.035638290542980913 0.028466562504525585 0.0076565441342857253 0.017856872112013145 -0.010022597754496702 0.010445600998896725 0.039065606057766086 0.010445600998896725 -0.010445600998896725 0.035890351241382207 0.022142174965431114 0.029643606026132082 0.023956938521324442 0.011327055741706435 0.015615284233686246 0.031052339684586028 0.048818952477720445 0.069566384584542285 0.0041263559333696697 0.023605501592433145 0.015615284233686246 0.030639077461039717 0.028493266897044695 -0.003231980941338941 0.045474722433920887 0.0074112711131164195 0.021881066361276135 0.032058386806837112 0.01991893125205221 0.013344866094045917 0.012065454378763312 0.013159900593536429 0.026639161629434041 0.031100720115693075 2.4377453153090478e-05 0.0075138654978540243 0.017800747748234889 0.042837391149617259 0.041275828879268395 0.064659424765755896 0.037651916772527098
leaf_weight=34317607 143325 82758 163337 2095867 148437 108969 278080 45337 62232 107990 290343 95935 157175 8187 53318 215428 1315816 121599 59816 147231 23742 60236 6244 77356 142515 56444 3718448 366184 68013 49664 3671328 105923 66772 87138 71523 83528 112856 4989 9109 178710 189017 39608 145701 149906 45152 417285 181620 631838 21090 86162 102852 56493 49296 149707 72395 103435 2136683 294869 114898 34920 801 2722 22321
leaf_count=34317607 143325 82758 163337 2095867 148437 108969 278080 45337 62232 107990 290343 95935 157175 8187 53318 215428 1315816 121599 59816 147231 23742 60236 6244 77356 142515 56444 3718448 366184 68013 49664 3671328 105923 66772 87138 71523 83528 112856 4989 9109 178710 189017 39608 145701 149906 45152 417285 181620 631838 21090 86162 102852 56493 49296 149707 72395 103435 2136683 294869 114898 34920 801 2722 22321
internal_value=-7.61721e-05 0.0156796 -0.000886082 -0.00116281 0.0115553 0.0223668 0.0041019 -0.00135054 0.00669531 0.0140093 0.0027967 0.00878872 0.00780135 0.0251009 0.0188168 0.012728 9.68276e-05 -0.00136311 0.00544668 0.00583998 0.0234599 0.0167542 0.00569709 0.0119587 0.000741065 0.00968059 -0.000877595 0.00205778 0.0237665 0.00479125 -0.00141815 0.0204469 0.00629393 0.0167288 0.0108666 -0.000201509 0.00490087 0.0138336 0.014234 0.026707 0.000529769 0.00780496 0.00602622 0.013943 0.0117613 -0.000959146 0.0242044 0.00151586 0.00445104 0.01928 0.00840005 0.00265189 0.00109598 0.00289308 0.0154559 0.00968119 7.3215e-05 0.0012007 0.0057054 0.0192152 0.021972 0.0149287 0.0153593
internal_weight=5.40283e+07 2.64149e+06 5.13868e+07 4.86857e+07 1.63383e+06 1.00766e+06 2.70104e+06 4.2371e+07 904271 865824 1.79677e+06 768005 585605 569241 438421 590283 6.31479e+06 4.22956e+07 637591 577775 281562 275541 75393 182400 1.99871e+06 266680 4.30663e+06 1.31107e+06 273375 485708 3.79889e+07 246204 324995 192217 219960 4.31608e+06 390936 370323 86465 287679 1.7997e+06 186839 195365 365334 101596 4.13573e+06 249633 795175 66427 139480 165084 199008 170895 515891 180385 260610 2.22021e+06 483886 258223 95156 106724 8966 105079
internal_count=54028280 2641491 51386789 48685744 1633829 1007662 2701045 42370956 904271 865824 1796774 768005 585605 569241 438421 590283 6314788 42295563 637591 577775 281562 275541 75393 182400 1998710 266680 4306628 1311066 273375 485708 37988935 246204 324995 192217 219960 4316078 390936 370323 86465 287679 1799702 186839 195365 365334 101596 4135733 249633 795175 66427 139480 165084 199008 170895 515891 180385 260610 2220211 483886 258223 95156 106724 8966 105079
is_linear=0
shrinkage=0.03


Tree=6
num_leaves=64
num_cat=0
split_feature=4 29 5 4 5 28 5 29 26 26 4 26 25 4 5 26 4 26 0 17 5 4 13 4 29 29 26 10 29 13 13 28 29 5 5 29 29 5 5 5 10 28 5 5 5 13 29 5 46 16 5 10 35 10 13 16 29 13 26 0 26 28 4
split_gain=716058 93815.5 70410.4 12537.4 12378.8 11242.9 8434.81 5193.65 3796.58 3033.53 3008.83 2453.13 2127.19 2083.8 1742.52 1315.42 1289.27 1237.71 1043.05 892.213 1028.83 886.143 809.034 806.572 745.71 699.627 572.633 570.841 547.458 536.739 510.416 478.488 463.689 459.794 459.411 430.941 399.969 378.216 365.597 344.609 326.797 322.312 316.473 309.341 306.079 305.225 285.703 280.485 269.657 267.212 266.157 253.826 224.378 216.391 212.244 211.539 207.069 204.021 197.609 195.522 188.391 186.426 180.282
threshold=0.99586799740791332 1.0708141922950747 0.46056032180786138 2.8403700590133671 0.031517934054136283 0.79606539011001598 0.79059287905693065 0.85049504041671764 0.34209236502647405 0.21215328574180606 2.2534831762313847 0.214484378695488 0.33434593677520758 1.8342780470848086 1.1976331472396853 0.049701249226927764 1.9181191921234133 0.15248543769121173 1.0000000180025095e-35 0.038572860881686218 1.1316266059875491 0.2412989288568497 -0.76731988787651051 0.57666298747062694 0.98724260926246654 0.87650212645530712 0.26444718241691595 1.0000000180025095e-35 1.2114295363426211 -0.64174920320510853 -0.64174920320510853 0.987317055463791 0.95762792229652416 1.5826712250709536 -0.22150707244873044 1.2114295363426211 1.5450725555419924 0.62557664513587963 0.30654510855674749 1.3076440691947939 1.0000000180025095e-35 0.79606539011001598 0.61457553505897533 0.99961364269256603 0.14152878522872928 -0.46052771806716913 0.93314391374588024 2.1327254772186284 0.00018728226859821009 0.32754996418952947 0.93360707163810741 1.0000000180025095e-35 0.50661498308181774 1.0000000180025095e-35 -0.80584731698036183 0.33509555459022528 0.89259725809097301 -0.46052771806716913 0.39724165201187139 1.0000000180025095e-35 0.19108577072620395 0.57794913649559032 0.57666298747062694
decision_type=2 2 2 2 2 2 2 2 2 2 2 2 2 2 2 2 2 2 2 2 2 2 2 2 2 2 2 2 2 2 2 2 2 2 2 2 2 2 2 2 2 2 2 2 2 2 2 2 2 2 2 2 2 2 2 2 2 2 2 2 2 2 2
left_child=2 5 4 13 8 7 11 14 15 19 25 30 36 33 26 34 32 29 -14 20 40 45 -20 38 52 -7 50 39 41 -6 -4 46 49 -3 -1 -24 54 -13 -19 -11 -8 -15 -32 -29 -31 -17 -12 -18 56 -9 -2 -39 -10 -35 -5 -34 -22 -36 -27 -33 -47 -16 -23
right_child=1 3 6 12 17 10 9 16 24 27 31 37 18 28 61 21 47 23 22 -21 48 62 35 -25 -26 58 -28 43 -30 44 42 59 55 53 57 -37 -38 51 -40 -41 -42 -43 -44 -45 -46 60 -48 -49 -50 -51 -52 -53 -54 -55 -56 -57 -58 -59 -60 -61 -62 -63 -64
leaf_value=-0.027453398917582573 0.015079330170857285 0.024055351838922719 0.013025304430881601 0.05757143981893801 0.0043746302725120858 0.020015048949626031 0.012765103575730338 0.022782909821656767 0.01505728389682718 0.01329304820788246 0.032291627364997716 0.010132232968929823 0.055929832337335367 0.029720502683877114 0.027070645487940241 -0.0026905426826284847 0.027501084931581647 0.00037035716992720678 0.054276815246821652 0.011450438841681804 0.019321363314490643 0.0043648843421422341 0.036388702444050049 0.0100459988453538 0.053983872640357401 0.022375118426421536 0.021385146598206662 0.015146825706675656 0.034315449234368037 -0.0047088332602617375 0.0039130450077763347 0.047248423329563166 0.025573722225295841 0.029927195841506927 -0.0077427917255430854 0.04298850044607868 0.067132565539986977 0.010132232968929823 0.0071760386423391836 0.025923714785519095 0.015146825706675656 0.030137423265187788 0.006898053066300593 0.02216882243627593 -1.7077193756831476e-06 -0.0092698832650141803 0.032895267163684613 0.034610757821868759 0.027369284972052897 0.017206637474852647 0.015624409911179558 0.01329304820788246 0.026531484613052603 0.029206723378019071 0.042492531456615829 0.019949873500930606 0.021544607027869547 -0.015289445136454645 0.025719989305602851 0.042098354344763902 -0.003706670335714628 0.023326036951821283 0.013479636370513418
leaf_weight=28857970 180578 45740 265884 8843 546518 100894 291171 152532 35808 80575 46061 237282 9064 68071 79558 447756 71752 980744 25232 49254 106916 144077 90035 157767 5641 132459 77428 111580 90731 1895958 571972 1507 85861 18003 846660 195413 182624 41771 404612 20122 115044 84187 377567 107480 2322346 3347179 72728 68928 47088 130204 134724 142473 10161 72250 121095 100361 32876 8346669 52887 49354 300860 203089 26306
leaf_count=28857970 180578 45740 265884 8843 546518 100894 291171 152532 35808 80575 46061 237282 9064 68071 79558 447756 71752 980744 25232 49254 106916 144077 90035 157767 5641 132459 77428 111580 90731 1895958 571972 1507 85861 18003 846660 195413 182624 41771 404612 20122 115044 84187 377567 107480 2322346 3347179 72728 68928 47088 130204 134724 142473 10161 72250 121095 100361 32876 8346669 52887 49354 300860 203089 26306
internal_value=-8.13211e-05 0.0148261 -0.000881462 0.0220933 -0.00113834 0.0106046 0.00392955 0.0091686 -0.00132293 0.00615879 0.0146522 0.00261933 0.0246794 0.0177787 0.00735656 -0.00133285 0.011176 0.000101537 0.022959 0.00497027 0.00529247 -0.000833326 0.0232516 0.000839969 0.00680885 0.0127759 0.00606382 0.00854638 0.0194429 -0.000137609 0.0019354 0.0178179 0.0104204 0.0148052 -0.00138886 0.0237068 0.0264393 0.00459137 0.000608512 0.00667681 0.00444498 0.0183437 0.00161008 0.00940578 -0.000252217 -0.000921512 0.0167754 0.0136949 0.00713463 0.00965482 0.00549615 0.00561117 0.00554562 0.016047 0.025167 0.0115828 0.00779603 -0.00120417 0.0138702 0.0202528 -0.00101224 0.00915279 0.00128655
internal_weight=5.40283e+07 2.75219e+06 5.12761e+07 1.01129e+06 4.8677e+07 1.7409e+06 2.59906e+06 1.28502e+06 4.23691e+07 962106 455890 1.63695e+06 632306 378982 675377 4.23175e+07 609638 6.30794e+06 319744 642349 593095 4.26618e+06 310680 1.54312e+06 51610 286240 392730 319757 242989 4.76482e+06 1.21542e+06 169650 468958 135993 3.80513e+07 285448 312562 421526 1.38536e+06 100697 406215 152258 949539 219060 4.2183e+06 4.0958e+06 118789 140680 186880 282736 315302 184244 45969 90253 129938 186222 139792 9.19333e+06 185346 50861 3.64804e+06 282647 170383
internal_count=54028280 2752193 51276087 1011288 48677032 1740905 2599055 1285015 42369087 962106 455890 1636949 632306 378982 675377 42317477 609638 6307945 319744 642349 593095 4266178 310680 1543123 51610 286240 392730 319757 242989 4764822 1215423 169650 468958 135993 38051299 285448 312562 421526 1385356 100697 406215 152258 949539 219060 4218304 4095795 118789 140680 186880 282736 315302 184244 45969 90253 129938 186222 139792 9193329 185346 50861 3648039 282647 170383
is_linear=0
shrinkage=0.03


Tree=7
num_leaves=64
num_cat=0
split_feature=4 29 5 4 29 5 5 29 4 26 26 28 26 26 4 29 46 15 46 5 28 28 4 4 26 5 5 37 26 5 13 5 26 5 10 46 5 10 5 10 10 5 29 5 13 10 29 18 35 5 37 44 10 44 46 15 28 4 18 10 28 26 10
split_gain=680946 98224.4 69040.7 12782.2 11564.9 11375.2 8211.81 4772.62 4055.59 3524.34 3519.98 2578.67 2343.75 1197.14 1186.96 1093.73 1036.36 963.317 912.817 984.081 908.124 895.355 785.154 718.332 683.716 646.426 645.591 584.627 561.463 547.962 500.643 483.313 398.059 361.327 354.411 344.138 342.06 326.791 325.582 323.025 311.477 362.668 304.32 302.775 302.081 301.044 293.824 288.552 283.717 279.208 263.001 258.239 245.503 237.702 236.293 227.759 222.012 199.055 198.643 198.335 197.507 194.635 192.143
threshold=0.99586799740791332 1.0708141922950747 0.44955924153327947 1.9181191921234133 1.3216426968574526 0.031517934054136283 0.76859074831008922 0.85049504041671764 2.0858012437820439 0.29209585487842565 0.22698451578617099 0.79606539011001598 0.21215328574180606 0.024406457319855693 0.45090144872665411 0.81835255026817333 0.0092880395241081732 0.74963849782943737 0.10155995562672616 1.0216157436370852 0.92818346619606029 0.82068645954132091 1.415073096752167 0.1993784308433533 0.22698451578617099 1.5606689453125002 1.0106146931648257 0.93633657693862926 0.19904328882694247 0.15252986550331118 -0.60322177410125721 0.99961364269256603 0.36731801927089697 -0.23250816017389295 1.0000000180025095e-35 0.10497179627418519 0.60357442498207103 1.0000000180025095e-35 2.1327254772186284 1.0000000180025095e-35 1.0000000180025095e-35 1.1096244454383852 0.93314391374588024 1.8356961607933047 -0.46052771806716913 1.0000000180025095e-35 1.5450725555419924 0.7310595214366914 0.80705776810646068 0.60357442498207103 0.97981995344161998 0.11549031734466554 1.0000000180025095e-35 0.21067908406257632 0.0025110394926741724 1.0320242047309878 0.7573981285095216 0.70242449641227733 0.48314994573593145 1.0000000180025095e-35 0.57794913649559032 0.214484378695488 1.1475552320480349
decision_type=2 2 2 2 2 2 2 2 2 2 2 2 2 2 2 2 2 2 2 2 2 2 2 2 2 2 2 2 2 2 2 2 2 2 2 2 2 2 2 2 2 2 2 2 2 2 2 2 2 2 2 2 2 2 2 2 2 2 2 2 2 2 2
left_child=2 3 5 7 8 9 12 24 25 13 18 15 30 33 29 60 20 58 19 39 53 51 40 44 26 -3 -2 42 -16 -7 -4 37 43 -1 -31 50 -14 -12 -17 -8 -9 -42 -13 62 -15 -27 -22 -19 59 -32 -23 54 -38 -6 -10 -29 -26 -30 -11 -33 -5 -43 -24
right_child=1 4 6 11 16 14 10 22 21 17 31 27 36 23 28 38 -18 47 -20 -21 46 35 32 -25 56 45 -28 55 57 34 49 48 -34 -35 -36 -37 52 -39 -40 -41 41 61 -44 -45 -46 -47 -48 -49 -50 -51 -52 -53 -54 -55 -56 -57 -58 -59 -60 -61 -62 -63 -64
leaf_value=-0.026629796950055098 0.012940495843900519 0.023736391459475523 0.012374344442803888 0.032214885483033293 0.041441267421016781 -0.0044758479090141407 0.0097887198036793691 0.017951311249801361 0.033559880624389159 0.0091032715070891012 0.011888727924989968 0.026900522563637889 0.0098282659798619321 -0.0034570450059875223 0.0042148543049032611 0.026676052383634196 0.055411753478771975 0.025789736415811362 0.018606506209240307 0.01795796902550497 0.042062880234444454 0.03209260690268137 0.019165083333568058 0.0032507739762597577 0.019706031415836402 0.026566791678019133 0.018535402242327581 0.032974151104336713 0.0075172488130132503 -1.65648779441252e-06 0.0037956536575430477 0.01735837437884739 0.025566382643614296 -0.014830761782361004 0.0040626194806889912 0.043636671320128446 0.0098282659798619321 0.014692420935475389 0.034109205668918514 0.014692420935475389 0.017240966700838276 0.019378722992647847 0.027821304196620884 0.024911340380250339 -0.0094438233239113722 0.028133827051797233 0.065001745048730714 0.057641072375687143 0.042908923630307273 0.0066911114743115774 0.038573019935944607 0.037021376693334371 0.012894256761645989 0.057032483764621666 0.043155251850269007 0.051343173394444191 0.018588390653636669 0.012643140145863926 0.01798056535367679 0.021280623007894794 0.030220675960158629 0.022166297247671243 0.023951852520437442
leaf_weight=27596464 185833 49014 290091 22601 99950 2643859 277439 117525 118750 41063 35132 60785 231981 612824 507083 81814 4798 7696 91665 259100 128655 89338 128684 247193 166841 31657 234360 92083 136046 1651764 573283 36747 50174 8688561 1241896 1975 44579 118041 74574 112648 101094 40389 69858 80072 5136333 106022 194246 3421 4047 359797 178151 4191 151399 1636 2905 13816 70623 43114 35532 97289 44383 80339 25057
leaf_count=27596464 185833 49014 290091 22601 99950 2643859 277439 117525 118750 41063 35132 60785 231981 612824 507083 81814 4798 7696 91665 259100 128655 89338 128684 247193 166841 31657 234360 92083 136046 1651764 573283 36747 50174 8688561 1241896 1975 44579 118041 74574 112648 101094 40389 69858 80072 5136333 106022 194246 3421 4047 359797 178151 4191 151399 1636 2905 13816 70623 43114 35532 97289 44383 80339 25057
internal_value=-0.000107543 0.0144298 -0.000887821 0.0101102 0.0218658 -0.0011465 0.00379678 0.00856993 0.0191106 -0.00132242 0.00589591 0.0144004 0.00248463 -0.00133488 5.11033e-05 0.0120887 0.0256013 0.0046849 0.00479741 0.00519311 0.025758 0.0208316 0.0104508 -0.000942201 0.00678719 0.0154665 0.00606003 0.0165833 0.00122798 -9.47429e-05 0.00181607 0.00869011 0.0116147 -0.00139977 0.000190513 0.0218073 0.00439549 0.00752979 0.0134626 0.00424118 0.00947682 0.0101384 0.0152405 0.0110944 -0.00101029 0.0165197 0.0265363 0.0129373 0.00997723 0.00147765 0.0218994 0.0187424 0.00531826 0.0232841 0.0189946 0.0182398 0.00807391 0.00267163 0.00348714 0.00974093 0.00888114 0.0112484 0.0103153
internal_weight=5.40283e+07 2.75219e+06 5.12761e+07 1.7409e+06 1.01129e+06 4.85928e+07 2.68324e+06 1.28099e+06 582003 4.23691e+07 1.03211e+06 459914 1.65113e+06 4.22814e+07 6.22376e+06 223372 429285 87712 740852 649187 424487 395310 623334 5.99635e+06 657657 186693 420193 236542 686243 5.53752e+06 1.22317e+06 291256 283987 3.6285e+07 2.89366e+06 269464 427959 153173 156388 390087 339347 221822 130643 233813 5.74916e+06 137679 322901 11117 138083 933080 267489 125846 195978 101586 121655 105899 237464 179160 76595 134036 66984 120728 153741
internal_count=54028280 2752193 51276087 1740905 1011288 48592849 2683238 1280991 582003 42369087 1032108 459914 1651130 42281375 6223762 223372 429285 87712 740852 649187 424487 395310 623334 5996350 657657 186693 420193 236542 686243 5537519 1223171 291256 283987 36285025 2893660 269464 427959 153173 156388 390087 339347 221822 130643 233813 5749157 137679 322901 11117 138083 933080 267489 125846 195978 101586 121655 105899 237464 179160 76595 134036 66984 120728 153741
is_linear=0
shrinkage=0.03


Tree=8
num_leaves=64
num_cat=0
split_feature=4 5 29 5 4 5 4 26 26 29 26 28 29 4 4 29 6 29 15 46 26 13 5 29 4 0 28 5 37 26 13 13 5 5 5 5 10 5 0 26 26 26 5 26 29 5 28 36 5 44 13 10 10 5 10 25 46 23 35 19 13 15 8
split_gain=643038 88404.7 69976.4 11916.8 11122.6 8694.63 8668.55 3664.97 3405.02 2747.73 2501.73 2149.91 1752.23 1750.64 1722.4 1274.33 1221.19 973.603 920.016 901.452 855.496 812.607 803.172 690.211 664.242 635.601 607.798 597.9 589.044 552.19 485.474 446.323 411.139 410.745 403.221 392.009 387.789 361.046 354.132 348.02 345.853 342.092 326.083 315.555 308.053 301.445 294.362 288.555 283.6 265.343 264.871 263.289 258.819 257.659 238.205 237.401 221.159 242.37 208.283 200.154 195.933 183.682 279.718
threshold=1.2054705023765566 0.46056032180786138 1.0708141922950747 0.031517934054136283 3.6368600130081181 0.76859074831008922 1.9181191921234133 0.28752140700817114 0.20981974899768832 0.91091233491897594 0.214484378695488 0.77479279041290294 1.5450725555419924 1.9600396752357485 0.61858350038528453 0.93314391374588024 -0.042903402820229523 0.81835255026817333 0.83814579248428356 0.15916980057954791 0.12488494068384172 -0.76731988787651051 1.6046733260154726 0.86265528202056896 0.28321942687034612 1.0000000180025095e-35 0.79606539011001598 1.538666903972626 0.93633657693862926 0.214484378695488 -0.64174920320510853 -0.46338158845901484 1.6266755461692812 -0.21050597727298734 1.4286559820175173 0.3175461888313294 1.0000000180025095e-35 0.93360707163810741 0.61351527273654949 0.32318715751171118 0.35832594335079199 0.34209236502647405 0.60357442498207103 0.39724165201187139 0.93314391374588024 0.61457553505897533 1.0764362812042239 1.0000000180025095e-35 1.1096244454383852 0.20076162368059161 -0.80584731698036183 1.0000000180025095e-35 1.0000000180025095e-35 2.1327254772186284 1.0000000180025095e-35 0.31569460034370428 0.19477602094411853 1.0483949184417727 0.88963502645492565 1.0000000180025095e-35 -0.46052771806716913 0.20366619527339938 -1.574846565723419
decision_type=2 2 2 2 2 2 2 2 2 2 2 2 2 2 2 2 2 2 2 2 2 2 2 2 2 2 2 2 2 2 2 2 2 2 2 2 2 2 2 2 2 2 2 2 2 2 2 2 2 2 2 2 2 2 2 2 2 2 2 2 2 2 2
left_child=1 3 6 7 13 10 9 16 19 22 30 17 21 32 20 48 33 -8 43 23 31 -6 41 37 47 -23 49 39 44 -16 -3 -5 -4 61 -17 -22 -28 -7 -14 -11 -29 -2 -12 -9 -13 -32 -30 -18 -10 56 -40 -34 -37 -19 -44 -27 57 -15 -36 -39 -49 -1 -63
right_child=2 5 4 14 12 8 11 18 15 27 42 28 38 26 29 34 24 53 -20 -21 35 25 -24 -25 -26 55 36 40 46 -31 45 -33 51 -35 58 52 -38 59 50 -41 -42 -43 54 -45 -46 -47 -48 60 -50 -51 -52 -53 -54 -55 -56 -57 -58 -59 -60 -61 -62 62 -64
leaf_value=-0.025830903041553447 0.017064230887339871 0.01200311410951977 0.023249007314986213 0.0037246893332788474 0.053707019944013487 0.011379676954433895 0.030387571852410016 0.010867454324115537 0.014044032638875353 0.018434466788769099 0.0095334180004660752 0.026093506886728748 0.067485370246152906 0.028306200745443828 0.0075188690659200863 0.016861988425819333 -0.0010354694612972025 0.025875770812125175 0.048233846270924655 0.018048311022963101 0.00049352189209981526 0.041869839162036689 0.023378742121576937 0.017267853881193933 0.0050806505491624073 0.040800993827411119 0.029001781126075696 0.022587855024285786 0.032093562557329258 0.012785921417204965 0.0065918184993209866 -0.0040683742117496192 0.027135353248956381 -0.009951237476291154 0.024787977149745313 0.0037873337907322366 0.032459583069078021 0.015560267675612492 0.064129890414406268 0.021638744973794824 0.026132974795291711 0.022167933763723405 0.0095334180004660752 0.020023938010612027 0.02693970168646341 0.0064903781300822303 0.047796270882998412 -0.0037547326417047564 0.019666688521555734 0.037939758356615561 0.062103334462987068 0.027948861540501552 0.0069512897892275612 0.033414762421692161 0.012507429058796612 0.039416571296484439 0.036822592678911713 0.035585441257890121 0.046480551982073841 0.015801705325339359 -0.0094185084227804451 0.0091653326354515334 -0.017166185191487479
leaf_weight=26792206 355820 267500 41832 715200 26067 283687 62489 63004 240634 87761 219290 69332 1913 77904 191213 134527 340358 72651 5922 72647 1408096 4268 112516 150615 150158 88762 91271 128466 98143 78662 583369 3401709 22421 6157403 49022 223953 148171 137531 7909 57534 27041 43059 50557 29067 75917 362956 17051 629459 119933 3029 203216 79344 315055 64331 163495 141813 1209 50417 2625 218705 5192837 28554 2986674
leaf_count=26792206 355820 267500 41832 715200 26067 283687 62489 63004 240634 87761 219290 69332 1913 77904 191213 134527 340358 72651 5922 72647 1408096 4268 112516 150615 150158 88762 91271 128466 98143 78662 583369 3401709 22421 6157403 49022 223953 148171 137531 7909 57534 27041 43059 50557 29067 75917 362956 17051 629459 119933 3029 203216 79344 315055 64331 163495 141813 1209 50417 2625 218705 5192837 28554 2986674
internal_value=-0.00013382 -0.000817917 0.0155243 -0.0011285 0.0215075 0.00413073 0.0108702 -0.00130992 0.00586 0.00900665 0.00265053 0.0141612 0.0248248 0.018458 8.52155e-05 0.00771244 -0.00132335 0.0118174 0.00448512 0.00468667 -1.91493e-05 0.0231766 0.00766839 0.00498056 -0.000938504 0.0237343 0.0195441 0.0112818 0.0159562 0.00243026 0.00195196 -0.000264202 0.0156444 -0.0013909 0.00972804 0.000498984 0.0204464 0.00455051 0.0268435 0.00989812 0.0125747 0.00703695 0.00460728 0.00374791 0.0146857 0.00163297 0.0175583 -0.00098654 0.00667171 0.0179144 0.02696 0.0166736 0.00118699 0.013233 0.00544023 0.0239467 0.0181196 0.0182399 0.0119813 0.00518641 -0.00103617 -0.00143698 -0.00121499
internal_weight=5.40283e+07 5.17666e+07 2.26166e+06 4.87095e+07 989546 3.05709e+06 1.27211e+06 4.23756e+07 1.40993e+06 812197 1.64717e+06 459914 473948 515598 6.33389e+06 546741 4.22776e+07 199471 97993 863185 6.06401e+06 260910 511395 790538 6.31281e+06 234843 372001 300802 260443 269875 1.21382e+06 4.11691e+06 143597 3.59648e+07 186174 1.9471e+06 239442 639923 213038 145295 155507 398879 433342 92071 145249 946325 115194 6.16265e+06 360567 132559 211125 101765 539008 136982 214052 230575 129530 128321 51647 356236 5.8223e+06 2.98074e+07 3.01523e+06
internal_count=54028280 51766623 2261657 48709530 989546 3057093 1272111 42375642 1409926 812197 1647167 459914 473948 515598 6333888 546741 42277649 199471 97993 863185 6064013 260910 511395 790538 6312812 234843 372001 300802 260443 269875 1213825 4116909 143597 35964837 186174 1947104 239442 639923 213038 145295 155507 398879 433342 92071 145249 946325 115194 6162654 360567 132559 211125 101765 539008 136982 214052 230575 129530 128321 51647 356236 5822296 29807434 3015228
is_linear=0
shrinkage=0.03


Tree=9
num_leaves=64
num_cat=0
split_feature=4 5 29 5 29 5 4 26 26 4 28 26 25 4 26 5 5 28 46 29 4 4 5 5 0 23 4 13 26 13 5 5 26 28 28 15 5 29 13 26 5 13 5 10 26 29 4 16 23 37 15 46 26 10 10 29 26 13 26 0 26 17 11
split_gain=611343 89149.6 66550.3 11606.6 10422.9 9645.43 8225.16 3546.05 3252.54 2824.56 2762.2 2501.99 1501.35 1448.62 1319.56 1251.28 1152.54 1088.52 988.553 1066.7 969.662 875.12 863.672 858.059 787.38 783.953 772.327 666.422 544.421 496.988 473.618 450.981 447.654 395.268 384.084 379.657 370.047 352.348 322.232 301.008 299.334 298.413 294.349 277.074 276.484 273.166 267.591 259.549 256.915 252.066 239.482 232.497 230.62 230.476 220.274 213.861 200.5 188.372 178.208 172.8 167.742 165.303 162.628
threshold=1.2473909854888918 0.42755702137947088 1.1317933797836306 0.031517934054136283 0.93314391374588024 0.74658855795860302 3.4272570610046391 0.30642768740653997 0.25040681660175329 1.9181191921234133 0.82068645954132091 0.20525729656219485 0.26877267658710485 0.66050401329994213 0.0041618407703936109 1.2306364774703982 1.4726603031158449 0.79606539011001598 0.14135061949491504 0.87650212645530712 2.2115626335144047 2.9242112636566167 1.6596788167953493 0.21853639185428622 1.0000000180025095e-35 0.83782216906547557 0.1993784308433533 -0.76731988787651051 0.31194664537906652 -0.64174920320510853 0.92260602116584789 -0.22150707244873044 0.23238495737314227 0.57359987497329723 0.79606539011001598 1.0320242047309878 0.55957007408142101 0.98724260926246654 -0.46052771806716913 0.1969249024987221 1.4726603031158449 -0.80584731698036183 0.55957007408142101 1.0000000180025095e-35 0.10104775801301004 1.0259131789207461 0.53474250435829174 0.20722848922014239 1.1368478536605837 1.2677945494651797 0.87994167208671581 0.18366409093141559 0.32318715751171118 1.0000000180025095e-35 1.0000000180025095e-35 1.0259131789207461 0.35832594335079199 -0.76161211729049672 0.40785075724124914 1.0000000180025095e-35 0.19108577072620395 0.074241660535335555 0.75058212876319896
decision_type=2 2 2 2 2 2 2 2 2 2 2 2 2 2 2 2 2 2 2 2 2 2 2 2 2 2 2 2 2 2 2 2 2 2 2 2 2 2 2 2 2 2 2 2 2 2 2 2 2 2 2 2 2 2 2 2 2 2 2 2 2 2 2
left_child=1 3 4 7 9 11 20 14 18 16 22 29 41 23 31 56 28 33 19 30 53 45 52 44 -14 58 38 -26 -2 -3 -7 -1 -15 -11 -22 -19 -13 -17 -16 57 -21 -8 -31 -38 -5 -12 -28 -32 -29 -43 -27 55 -6 -4 -36 -24 62 -25 -9 -23 -40 -20 -10
right_child=2 5 6 13 10 8 12 25 15 17 21 36 24 32 26 37 -18 35 61 40 34 59 51 39 27 50 46 48 -30 42 47 -33 -34 -35 54 -37 43 -39 60 -41 -42 49 -44 -45 -46 -47 -48 -49 -50 -51 -52 -53 -54 -55 -56 -57 -58 -59 -60 -61 -62 -63 -64
leaf_value=-0.025055975950306841 0.016390126663419814 0.011643020686234176 0.029147577459679559 -0.0043112415988309722 0.019101738177064162 0.010708809097140571 0.05916522229455129 0.010773567997972234 0.013745788654636548 0.031670363169830344 0.023196201295371945 0.009247415460452095 0.054593834622676869 0.0076952443214630458 -0.0033717451661962492 0.021115800564979734 0.021218623028405399 0.02758501768354343 0.024696985258255599 0.014409531216393545 0.031703898183294159 0.041666372862867375 0.026721511733476748 0.013679907241130546 0.051872823612263322 0.027971993756445514 0.00080898204006918037 0.034115412983219441 0.02108519693962331 0.0036550600022995858 0.02130934486033648 -0.014087301804601438 0.014739574634421075 0.02803743728722204 0.028435218514824667 0.046825672128713115 0.009247415460452095 0.025174613062746501 -0.0091811950843352138 0.0058660480179568569 0.023130378012162649 0.038341406876302046 0.0065865466996020954 0.012132206187032717 0.0001141675620456728 0.025563521283844173 0.012473715591971369 0.012724557176662777 0.042767198762569521 0.063328680092549605 0.054430907678507674 0.027759030995319029 0.024176635228822626 0.027990147587265576 0.031723173439574606 0.027477399718199277 0.016477024648631405 0.00028453382680764026 0.018743367231750949 0.035963440972958644 -0.0031115348599446177 0.00014411082498095638 0.01560358691710844
leaf_weight=27870213 269789 281840 18765 2481363 92564 381730 10067 44865 126259 32199 92507 231258 6209 126051 783471 64638 175617 86225 50555 150808 70614 2568 109253 67259 19952 7657 243479 90097 59026 555991 132570 6653570 46333 97992 43964 8693 72708 52195 6432639 400333 57031 81694 481842 208507 1274007 97972 32054 354901 129084 148121 3407 2353 49627 95247 93015 117016 83123 1680531 23823 80897 281358 32493 76291
leaf_count=27870213 269789 281840 18765 2481363 92564 381730 10067 44865 126259 32199 92507 231258 6209 126051 783471 64638 175617 86225 50555 150808 70614 2568 109253 67259 19952 7657 243479 90097 59026 555991 132570 6653570 46333 97992 43964 8693 72708 52195 6432639 400333 57031 81694 481842 208507 1274007 97972 32054 354901 129084 148121 3407 2353 49627 95247 93015 117016 83123 1680531 23823 80897 281358 32493 76291
internal_value=-0.000145128 -0.000799661 0.0154136 -0.00112894 0.0113984 0.00390007 0.0222528 -0.00130476 0.00563162 0.00894233 0.0141775 0.00242327 0.0247188 9.7295e-05 -0.00131667 0.00795526 0.00769533 0.0117367 0.00482541 0.00506859 0.0185322 0.0164621 0.0124898 1.81381e-05 0.0230688 0.0050152 -0.000963532 0.0233426 0.00664735 0.00173241 0.00460692 -0.00139618 0.00280811 0.0099554 0.019753 0.0141798 0.00420229 0.0105708 -0.00102086 0.000496352 0.00699932 0.0264065 0.00142903 0.00493333 -0.000255407 0.0153397 0.000596373 0.00522662 0.0238204 0.0266279 0.0124262 0.0136316 0.0106539 0.0163094 0.0206795 0.0137292 0.00688557 0.000326392 0.00382145 0.0190236 -0.00108804 0.00167166 0.00637643
internal_weight=5.40283e+07 5.18472e+07 2.18113e+06 4.84524e+07 1.3743e+06 3.39474e+06 806829 4.23765e+07 1.56259e+06 729541 644757 1.83215e+06 485224 6.07588e+06 4.22968e+07 402506 504432 225109 1.16009e+06 1.07704e+06 321605 273944 370813 5.90349e+06 245342 79752 7.773e+06 239133 328815 1.31967e+06 869201 3.45238e+07 172384 130191 207593 94918 512473 116833 7.49747e+06 2.14812e+06 207839 239882 1.03783e+06 281215 3.75537e+06 190479 275533 487471 219181 229815 11064 228622 142191 114012 136979 226269 285673 1.74779e+06 68688 83465 6.714e+06 83048 202550
internal_count=54028280 51847153 2181127 48452413 1374298 3394740 806829 42376536 1562594 729541 644757 1832146 485224 6075877 42296784 402506 504432 225109 1160088 1077040 321605 273944 370813 5903493 245342 79752 7773001 239133 328815 1319673 869201 34523783 172384 130191 207593 94918 512473 116833 7497468 2148123 207839 239882 1037833 281215 3755370 190479 275533 487471 219181 229815 11064 228622 142191 114012 136979 226269 285673 1747790 68688 83465 6713997 83048 202550
is_linear=0
shrinkage=0.03


Tree=10
num_leaves=64
num_cat=0
split_feature=4 5 29 5 29 5 4 26 4 26 26 29 28 5 4 5 4 5 26 5 15 28 4 5 5 13 46 28 4 26 26 5 17 26 10 0 10 13 28 16 11 13 23 13 35 18 26 15 26 10 44 13 29 5 31 4 46 10 35 4 13 10 13
split_gain=576915 82821.7 67489.5 11317 9865.45 8299.68 8027.22 3339.54 3003.85 2690.04 2681.83 2377.84 2344.74 1445.17 1330.78 1319.58 1215.75 1163.41 939.042 1137.95 926.345 884.687 830.323 736.339 711.621 664.941 591.837 587.208 528.352 487.964 470.511 441.069 433.572 396.903 367.171 364.901 344.662 343.234 327.54 326.005 299.12 282.812 282.096 281.112 280.565 276.539 273.144 243.55 242.511 242.328 241.234 237.75 235.106 228.564 218.303 212.692 210.161 207.403 198.53 183.213 182.354 177.711 167.154
threshold=1.2473909854888918 0.41655594110488897 1.1317933797836306 0.031517934054136283 0.93314391374588024 0.80159392952919017 3.2595751285552983 0.26828244328498846 2.5050061941146855 0.19904328882694247 0.27941823005676275 1.5450725555419924 0.79606539011001598 1.417654871940613 0.66050401329994213 -0.21050597727298734 2.0858012437820439 1.1976331472396853 0.12488494068384172 1.3516483902931216 0.74963849782943737 0.82068645954132091 2.5888470411300664 0.20753531157970431 0.60357442498207103 -0.76731988787651051 0.051883770152926452 0.8834899663925172 0.1993784308433533 0.15248543769121173 0.27511380612850195 0.55957007408142101 0.035826658830046661 0.24703784286975863 1.0000000180025095e-35 0.61351527273654949 1.0000000180025095e-35 -0.46052771806716913 1.0764362812042239 0.316536694765091 0.75058212876319896 -0.64174920320510853 0.94156906008720409 -0.80584731698036183 0.70603680610656749 0.48314994573593145 0.1969249024987221 0.20193313062191012 0.091159351170063033 1.0000000180025095e-35 0.183079868555069 -0.60322177410125721 0.81835255026817333 2.3967515230178837 1.0000000180025095e-35 1.5827550888061526 0.15368687361478808 1.0000000180025095e-35 0.80705776810646068 0.53474250435829174 -0.76161211729049672 1.0000000180025095e-35 -0.46338158845901484
decision_type=2 2 2 2 2 2 2 2 2 2 2 2 2 2 2 2 2 2 2 2 2 2 2 2 2 2 2 2 2 2 2 2 2 2 2 2 2 2 2 2 2 2 2 2 2 2 2 2 2 2 2 2 2 2 2 2 2 2 2 2 2 2 2
left_child=1 3 4 7 12 9 16 15 21 24 18 25 13 30 23 29 61 -12 32 40 45 39 55 48 41 -8 38 -10 37 47 -2 -11 -7 -16 -18 -13 -33 -17 -27 50 -20 -3 -22 -37 -24 -9 60 -1 62 -21 -6 -26 -15 -36 -29 -14 -55 -23 -19 -30 -25 -4 -5
right_child=2 5 6 14 8 10 11 20 27 31 17 35 22 52 33 28 34 58 19 49 42 57 44 46 51 26 -28 54 59 -31 -32 36 -34 -35 53 43 -38 -39 -40 -41 -42 -43 -44 -45 -46 -47 -48 -49 -50 -51 -52 -53 -54 56 -56 -57 -58 -59 -60 -61 -62 -63 -64
leaf_value=-0.024304296671797634 0.015914772242454394 0.01034682324900699 0.028705821738749807 7.0849614024839355e-05 0.024975678337126207 0.014020607036083207 0.050316125729718247 0.006898087204264808 0.031678428320246248 0.0089699929966385334 0.015135479309595185 0.063485989795021167 0.016774247942384586 0.025490392811198706 0.0076124421594715302 -0.0052606206599806835 0.027898973665286774 0.021087434586888543 0.011788402526970249 0.019196946056212912 0.024227083415439211 0.021607805129587251 0.032236312097771704 0.013238662295405625 0.01415303640109637 0.034334174270954351 0.038874585746405885 0.028884279083494144 0.00013242554121293271 0.0022798883577149851 0.021404004877904986 0.0089699929966385334 0.008895027661717703 0.014929736815756775 0.028073300900866974 0.060384226692613834 0.011863064458590311 -0.0088919223888255187 0.039117997313916984 0.019259330601806228 0.0152126290564405 0.0039848156580170021 0.056968688013857856 0.05834037402632096 0.045346317003471061 0.015890161821766113 0.0040612457573255024 -0.014743559240621906 0.0001103725950416079 0.024574078912129722 0.025713355599148877 0.0060980703851917029 0.023513356717283579 0.031133152249499741 0.042136037951312461 0.020559150105200763 0.037479384470586408 0.02413901955563948 0.040802419143472601 0.012075848413453168 0.00011190841838768062 0.026755263109240437 -0.0041819043508660456
leaf_weight=27224940 217965 182671 14260 336144 150906 259864 24487 65536 86905 268761 169215 1947 48860 110904 123493 1102390 65119 90207 458630 113968 10130 65872 36280 68064 148700 153844 3052 74210 256393 142353 73595 110836 42309 37643 39906 8002 266701 10221191 115144 153701 167337 737379 2516 205555 8904 48169 405375 3281490 1354024 52580 6516 412546 142364 95192 23002 90669 1029 83645 4430 21428 1753286 79292 1906454
leaf_count=27224940 217965 182671 14260 336144 150906 259864 24487 65536 86905 268761 169215 1947 48860 110904 123493 1102390 65119 90207 458630 113968 10130 65872 36280 68064 148700 153844 3052 74210 256393 142353 73595 110836 42309 37643 39906 8002 266701 10221191 115144 153701 167337 737379 2516 205555 8904 48169 405375 3281490 1354024 52580 6516 412546 142364 95192 23002 90669 1029 83645 4430 21428 1753286 79292 1906454
internal_value=-0.000172209 -0.000808044 0.0149421 -0.00112997 0.0108987 0.00365783 0.0218294 -0.00130243 0.0136024 0.00248814 0.00548967 0.0240999 0.00850916 0.00751886 9.12348e-05 -0.00131699 0.0178857 0.00820464 0.00483528 0.00537784 0.00356755 0.0123079 0.0114301 1.68181e-05 0.00178352 0.0223571 0.0227833 0.0168413 -0.00104449 -0.00142014 0.00607882 0.0041031 0.00341232 0.00278061 0.0191993 0.026498 0.00476434 -0.0010762 0.0229324 0.0113964 0.00479147 0.00126996 0.01127 0.0266159 0.0149647 0.0027109 0.000445552 -0.00142832 -0.000248618 0.00758171 0.012356 0.00262541 0.00917663 0.0200856 0.0184432 0.0102855 0.0208772 0.0142044 0.0108684 0.000248032 0.000288799 0.0150601 -0.000440033
internal_weight=5.40283e+07 5.18472e+07 2.18113e+06 4.8361e+07 1.3743e+06 3.48613e+06 806829 4.23765e+07 644757 2.12759e+06 1.35854e+06 512031 729541 544828 5.98448e+06 4.22502e+07 294798 263852 1.09469e+06 792515 126351 460640 184713 5.82335e+06 1.4813e+06 296527 272040 184117 1.16014e+07 3.06488e+07 291560 646298 302173 161136 201246 215504 377537 1.13236e+07 268988 311123 625967 920050 12646 213557 45184 113705 2.22672e+06 3.05064e+07 3.59662e+06 166548 157422 561246 253268 136127 97212 139529 96221 149517 94637 277821 1.82135e+06 93552 2.2426e+06
internal_count=54028280 51847153 2181127 48361019 1374298 3486134 806829 42376536 644757 2127594 1358540 512031 729541 544828 5984483 42250185 294798 263852 1094688 792515 126351 460640 184713 5823347 1481296 296527 272040 184117 11601402 30648783 291560 646298 302173 161136 201246 215504 377537 11323581 268988 311123 625967 920050 12646 213557 45184 113705 2226725 30506430 3596622 166548 157422 561246 253268 136127 97212 139529 96221 149517 94637 277821 1821350 93552 2242598
is_linear=0
shrinkage=0.03


Tree=11
num_leaves=64
num_cat=0
split_feature=4 5 29 5 4 29 5 4 26 26 26 28 4 29 5 5 4 23 5 4 46 5 5 13 26 28 4 26 28 5 26 26 46 26 5 10 0 13 13 13 10 18 31 26 15 11 15 5 15 29 10 13 13 35 4 10 5 44 5 37 46 23 13
split_gain=547846 75781.8 67212.5 11670.4 8841.4 8609.37 7178.78 3208.92 3151.42 2609.71 2348.02 2117.31 1578.64 1453.01 1411.53 1348.42 1337.21 889.116 867.832 763.628 762.742 1170.85 755.324 613.748 590.279 529.803 522.033 513.683 502.507 496.87 482.268 472.711 451.488 438.811 422.77 357.914 329.238 322.077 315.331 303.885 283.225 280.917 280.896 279.695 258.928 258.84 256.131 253.623 248.958 243.373 240.268 240.101 234.486 232.191 214.167 208.21 202.369 194.935 192.821 187.265 185.07 194.137 184.518
threshold=1.2473909854888918 0.42755702137947088 1.1317933797836306 0.031517934054136283 4.0141441822052011 0.93314391374588024 0.92260602116584789 2.2954035997390752 0.26828244328498846 0.26444718241691595 0.17781499028205874 0.82068645954132091 2.0858012437820439 1.5450725555419924 1.4726603031158449 -0.21050597727298734 0.61858350038528453 0.83782216906547557 0.63657769560813915 2.5469264984130864 0.18896075338125232 1.3516483902931216 0.21853639185428622 -0.76731988787651051 0.37645629048347479 0.82068645954132091 0.1574579328298569 0.30113084614276892 0.79606539011001598 1.2306364774703982 0.14229132980108264 0.27511380612850195 0.054233200848102577 0.23238495737314227 1.9457070231437685 1.1475552320480349 0.87020012736320507 -0.46052771806716913 -0.63176056742668141 -0.80584731698036183 1.0000000180025095e-35 0.50215849280357372 0.00051169397193007182 0.1969249024987221 1.0320242047309878 0.75058212876319896 0.20366619527339938 2.0337157249450688 1.0320242047309878 0.91091233491897594 1.1475552320480349 -0.38918069005012507 -0.60322177410125721 0.80705776810646068 0.53474250435829174 1.0000000180025095e-35 1.7476874589920046 0.21728506684303286 1.1646298766136172 1.2677945494651797 0.1715817600488663 1.1368478536605837 -0.76161211729049672
decision_type=2 2 2 2 2 2 2 2 2 2 2 2 2 2 2 2 2 2 2 2 2 2 2 2 2 2 2 2 2 2 2 2 2 2 2 2 2 2 2 2 2 2 2 2 2 2 2 2 2 2 2 2 2 2 2 2 2 2 2 2 2 2 2
left_child=1 3 5 8 12 11 10 24 15 20 18 14 -4 23 31 30 22 41 38 -13 21 35 51 -6 34 -9 37 45 57 55 46 58 -25 -18 50 -8 -15 -17 -3 -38 -30 -10 -27 62 -19 -12 -1 -16 -21 -23 -7 -5 -20 -31 -28 -11 -26 60 -2 -41 61 -14 -24
right_child=2 6 4 16 13 7 9 25 17 29 27 19 28 36 47 26 33 44 52 48 -22 49 43 32 56 42 54 -29 40 53 -32 -33 -34 -35 -36 -37 39 -39 -40 59 -42 -43 -44 -45 -46 -47 -48 -49 -50 -51 -52 -53 -54 -55 -56 -57 -58 -59 -60 -61 -62 -63 -64
leaf_value=-0.023575167771643705 0.015173298863487132 0.010382829824027344 0.026264511507416634 0.0002602032524030662 0.050324292145626622 0.017550274312496249 0.01269626690267185 0.029595912225609582 0.0069423838869090027 0.012939524010980547 0.0087008932067393786 0.018794897104259377 0.027453981392205746 0.061572067163763497 0.019996281532908913 -0.0051028020401812603 0.0069468727129724404 0.027561684069963489 0.013988646164214739 0.030776995078660104 0.020160797847852015 0.01900177393041504 0.012866127737757372 0.037382046227126806 0.022127554705064022 0.027519945034836218 -0.0020414557597469235 0.011861708445692017 0.02775205641537851 0.020486589098518439 0.0013879509632713826 0.020732984123076798 0.040205183765229725 0.013674485706827416 0.023166151382766127 0.017032348235267461 0.058856924383268026 -0.0086817000199474973 0.0036466688811549416 0.036181729511235078 0.030758398934419694 0.01572467315202742 0.040377045028204051 0.0055177529800545131 0.060939225870302309 0.010820880529222209 -0.014371750568305881 0.030065091336568994 0.044877710061356303 0.021699244304433884 0.020315342611152948 -0.0040564472203400669 0.0059151282736359546 0.039460685597629892 0.011713572961049573 0.016300945518453257 0.026160884882948494 0.035858373765627866 0.016397346988856205 0.060002934030506924 0.034040212990081399 0.037779289642286287 0.0002616930010487639
leaf_weight=27284039 135892 180738 93552 1121427 19422 137016 455786 84323 73542 24241 468734 102741 71598 2009 168667 1074784 168472 10137 158413 34614 57121 129812 65597 169309 57610 122019 418142 250936 77683 96110 172370 87356 2114 55964 125808 48387 7757 10087048 689574 49216 139211 40936 26839 389212 1736 248785 3192374 83432 8091 62862 54864 2622993 411742 4652 21428 106847 36278 2041 108748 150156 1110 21651 1652212
leaf_count=27284039 135892 180738 93552 1121427 19422 137016 455786 84323 73542 24241 468734 102741 71598 2009 168667 1074784 168472 10137 158413 34614 57121 129812 65597 169309 57610 122019 418142 250936 77683 96110 172370 87356 2114 55964 125808 48387 7757 10087048 689574 49216 139211 40936 26839 389212 1736 248785 3192374 83432 8091 62862 54864 2622993 411742 4652 21428 106847 36278 2041 108748 150156 1110 21651 1652212
internal_value=-0.000200771 -0.000820381 0.0145278 -0.00112397 0.021401 0.0104927 0.00351269 0.0130185 -0.00130027 0.00566922 0.00263016 0.00826049 0.0182871 0.0245683 0.00745401 -0.00131442 0.000105635 0.00343055 0.00186218 0.0114993 0.00481328 0.00508647 1.84718e-05 0.0226754 0.0114255 0.0158303 -0.00103895 0.00377244 0.0193083 0.00845273 -0.00141869 0.00616889 0.0232481 0.00237812 0.0108078 0.00432627 0.0262955 -0.00107888 0.00126618 0.0264127 0.0201093 0.00262009 0.0169065 0.000472847 0.0112449 0.00336384 -0.00142764 0.00914641 0.0148709 0.00707568 0.00992167 -0.000237209 0.00277194 0.0100368 -2.48769e-05 0.00723512 0.0135153 0.0175061 0.00549244 0.0266394 0.0177045 0.0178495 0.000308321
internal_weight=5.40283e+07 5.18472e+07 2.18113e+06 4.84524e+07 806829 1.3743e+06 3.39474e+06 644757 4.23765e+07 985818 2.40892e+06 729541 406846 399983 584095 4.22502e+07 6.07588e+06 126351 1.44047e+06 145446 753968 696847 5.85144e+06 190845 411576 233181 1.16014e+07 968455 313294 231850 3.06488e+07 331996 171423 224436 317688 504173 209138 1.11618e+07 870312 207129 216894 114478 148858 2.10702e+06 11873 717519 3.04764e+07 252099 42705 192674 191880 3.74442e+06 570155 100762 439570 131088 93888 96400 244640 199372 94359 93249 1.71781e+06
internal_count=54028280 51847153 2181127 48452413 806829 1374298 3394740 644757 42376536 985818 2408922 729541 406846 399983 584095 42250185 6075877 126351 1440467 145446 753968 696847 5851441 190845 411576 233181 11601402 968455 313294 231850 30648783 331996 171423 224436 317688 504173 209138 11161832 870312 207129 216894 114478 148858 2107021 11873 717519 30476413 252099 42705 192674 191880 3744420 570155 100762 439570 131088 93888 96400 244640 199372 94359 93249 1717809
is_linear=0
shrinkage=0.03


Tree=12
num_leaves=64
num_cat=0
split_feature=4 29 5 4 5 4 5 29 26 26 26 29 25 15 5 4 4 15 5 28 46 13 26 46 6 5 28 5 5 5 26 5 15 5 10 5 29 37 10 35 26 29 19 13 23 13 42 5 10 10 42 18 31 10 26 31 10 6 46 26 16 10 28
split_gain=519547 70923.2 66916.3 10395 10030.4 8871.6 7271.75 3464.74 2888.59 2586.87 2248.71 1983.69 1743.84 1293.48 1211.89 1073.24 936.399 824.271 823.664 819.368 816.633 810.245 733.895 658.7 635.59 605.868 600.268 570.316 565.407 501.335 478.911 390.904 388.933 368.306 355.652 321.757 319.826 319.423 315.251 303.601 296.329 295.229 291.038 274.753 274.693 274.454 272.691 260.587 259.287 255.128 251.758 246.067 237.262 229.543 225.203 193.564 191.318 185.257 184.436 180.674 177.296 176.072 172.313
threshold=1.2054705023765566 1.1317933797836306 0.38355270028114324 3.7207006216049199 0.020516853313893083 2.0858012437820439 0.75758960843086254 0.87650212645530712 0.26444718241691595 0.25040681660175329 0.1969249024987221 0.95762792229652416 0.20343950390815738 0.17436601966619494 1.1976331472396853 2.6726881265640263 0.61858350038528453 0.74963849782943737 1.0986233353614809 0.79606539011001598 0.18896075338125232 -0.76731988787651051 0.36731801927089697 0.00041065440746024256 0.54678398370742809 0.13052770495414737 0.987317055463791 0.60357442498207103 1.3186451196670534 1.7696896791458132 0.28752140700817114 1.9677092432975771 1.0320242047309878 -0.21050597727298734 1.0000000180025095e-35 1.6376765966415407 0.91091233491897594 1.117087781429291 1.0000000180025095e-35 0.80705776810646068 0.31194664537906652 0.71194815635681163 1.0000000180025095e-35 -0.43198889493942255 0.98785531520843517 -0.80584731698036183 0.9722350835800172 2.5617680549621586 1.1475552320480349 1.1475552320480349 0.76169064640998851 0.53740283846855175 0.41044601798057562 1.0000000180025095e-35 0.107476644217968 0.0019545317045412962 1.0000000180025095e-35 0.8445056974887849 0.10663825646042825 0.30642768740653997 0.20186121016740802 1.0000000180025095e-35 0.92818346619606029
decision_type=2 2 2 2 2 2 2 2 2 2 2 2 2 2 2 2 2 2 2 2 2 2 2 2 2 2 2 2 2 2 2 2 2 2 2 2 2 2 2 2 2 2 2 2 2 2 2 2 2 2 2 2 2 2 2 2 2 2 2 2 2 2 2
left_child=2 5 4 15 8 7 10 28 13 14 27 19 45 33 42 31 25 51 61 41 36 -14 29 37 43 54 47 57 30 48 -2 -3 -21 -1 -17 -24 60 -23 -33 56 -12 -7 -8 -15 -19 -5 -18 -13 -9 -44 -26 -10 -47 -27 -6 -28 -20 -4 -49 -40 -16 -11 -36
right_child=1 3 6 12 16 11 9 22 17 18 40 26 21 24 20 34 46 44 39 32 -22 23 35 -25 50 53 55 -29 -30 -31 -32 38 -34 -35 62 -37 -38 -39 59 -41 -42 -43 49 -45 -46 52 -48 58 -50 -51 -52 -53 -54 -55 -56 -57 -58 -59 -60 -61 -62 -63 -64
leaf_value=-0.022867912738494391 0.014361782455259847 0.023315084119476848 0.0038300772547766601 0.05500707552017154 -0.0039347538037298622 0.027520391899416848 0.0096405142008716398 0.015912921607565033 0.0074781231406226209 0.011506818430933024 0.008439866410537197 0.024163468268110153 0.04931631503665599 -0.0073961681952975141 0.02296091921325262 0.027313707416445916 0.0074407040903129796 0.023920619234206027 0.016065083860709248 0.026176258471318048 0.023310866261659621 0.031679638971343828 0.020356665553092915 0.042165484612412596 -0.0012351322530043717 -2.1931783640636303e-05 0.026979428194314675 0.007548865204886443 0.018830459965060189 0.02110905958903854 0.018477487626074127 0.025824906058419899 0.042924270870656443 -0.013137474078200201 0.030495174664482767 0.024373036373533705 0.019378957400428252 0.039879459695932248 0.026089990543865477 0.037437048650153876 0.011056496814293259 0.028550977940112156 0.010585556696791877 -0.008699141310935507 0.059111049094193242 0.036424739320138587 0.025362468072036234 0.02981921068612392 0.018991646942546739 0.015227376222591389 0.0094515455464021115 0.016451792281593536 0.060974047143319741 0.0033787491548427939 9.0019289119018799e-05 0.04099002916112747 0.019288950278648284 0.0073869149723953687 0.034053612162739944 0.028094711861950221 0.013977182847154962 0.013961802603834114 0.030326419775171434
leaf_weight=26160644 207747 50623 833592 7727 1884460 22139 209225 180508 85777 40742 489834 113077 22057 1390365 57694 70060 163032 10427 37389 85755 44395 89838 69146 3702 297643 1847639 41212 453231 198968 166271 59737 37407 9834 3848066 54393 42198 67934 131560 33616 5091 170727 83266 517428 10187063 1717 76921 8182 94726 60760 45867 51943 29761 108624 1390173 713584 14945 109159 297372 2233 74629 142134 174333 47978
leaf_count=26160644 207747 50623 833592 7727 1884460 22139 209225 180508 85777 40742 489834 113077 22057 1390365 57694 70060 163032 10427 37389 85755 44395 89838 69146 3702 297643 1847639 41212 453231 198968 166271 59737 37407 9834 3848066 54393 42198 67934 131560 33616 5091 170727 83266 517428 10187063 1717 76921 8182 94726 60760 45867 51943 29761 108624 1390173 713584 14945 109159 297372 2233 74629 142134 174333 47978
internal_value=-0.000225708 0.0138489 -0.000840618 0.0209668 -0.0011397 0.00988378 0.00304918 0.00826937 -0.00130347 0.00470403 0.0019792 0.0132887 0.0240779 -0.00131719 0.0039676 0.0172504 7.02886e-06 0.00320199 0.00688225 0.011039 0.00554511 0.0224086 0.00995605 0.0229463 -0.00105291 -5.71272e-05 0.0149874 0.00136607 0.00639309 0.00936632 0.00549227 0.0157333 0.0130504 -0.00142223 0.0189772 0.0121146 0.00616991 0.0231562 0.0165226 0.00857551 0.00344966 0.00921496 0.00333017 -0.00109096 0.0106369 0.0262127 0.0021938 0.0142507 0.00849283 0.00368504 0.000207391 0.00242053 0.0264434 0.000216687 -0.000398368 0.0177425 0.00832531 0.00100573 0.0153919 0.0173431 0.00556538 0.00568842 0.0201044
internal_weight=5.40283e+07 2.26166e+06 5.17666e+07 809135 4.80705e+07 1.45252e+06 3.69615e+06 985335 4.20634e+07 1.45139e+06 2.24476e+06 467187 440429 4.19357e+07 1.08468e+06 368706 6.00707e+06 127682 366714 200994 312157 247157 518883 225100 1.1927e+07 5.83586e+06 266193 1.5842e+06 466452 407539 267484 196275 95589 3.00087e+07 172431 111344 267762 221398 145652 151639 660561 105405 772520 1.15774e+07 12144 193272 171214 210036 241268 563295 349586 115538 185545 3.23781e+06 2.59804e+06 56157 146548 1.13096e+06 96959 108245 199828 215075 102371
internal_count=54028280 2261657 51766623 809135 48070476 1452522 3696147 985335 42063406 1451391 2244756 467187 440429 41935724 1084677 368706 6007070 127682 366714 200994 312157 247157 518883 225100 11927014 5835856 266193 1584195 466452 407539 267484 196275 95589 30008710 172431 111344 267762 221398 145652 151639 660561 105405 772520 11577428 12144 193272 171214 210036 241268 563295 349586 115538 185545 3237812 2598044 56157 146548 1130964 96959 108245 199828 215075 102371
is_linear=0
shrinkage=0.03


Tree=13
num_leaves=64
num_cat=0
split_feature=4 5 29 5 4 5 23 26 26 28 26 4 5 29 15 4 5 26 26 46 37 6 5 4 13 26 5 5 10 10 5 29 46 10 42 29 25 43 6 0 26 13 37 11 10 26 13 5 29 42 0 46 35 10 29 13 29 21 4 46 15 19 5
split_gain=487773 70409.3 61939.1 10809.2 10003.4 7515.05 7249.57 3228.07 2813.63 2605.62 2169.15 2015.69 1915.01 1655.98 1449.93 1080.83 940.76 885.891 802.432 664.375 645.629 631.364 630.254 616.89 560.312 558.226 552.33 452.253 432.868 407.872 480.026 381.897 371.889 370.582 367.996 361.168 348.415 342.999 329.768 287.514 285.918 267.307 266.74 262.116 258.528 257.139 252.24 248.592 244.65 233.72 232.397 225.452 212.894 212.422 210.524 209.26 204.52 194.067 190.659 183.04 183.028 182.173 181.773
threshold=1.2893115282058718 0.41655594110488897 1.1317933797836306 0.031517934054136283 4.2237470149993905 0.98861250281333934 0.85827046632766735 0.19904328882694247 0.26444718241691595 0.84913116693496715 0.24056714773178103 2.7565293312072758 1.7696896791458132 1.5450725555419924 0.19328831136226657 0.57666298747062694 0.63657769560813915 0.27941823005676275 0.55557706952095043 0.18896075338125232 0.92099386453628551 0.54678398370742809 1.2416375279426577 3.1757341623306279 -0.80584731698036183 0.31194664537906652 0.25153966993093496 -0.21050597727298734 1.0000000180025095e-35 1.0000000180025095e-35 2.2317352294921879 0.81835255026817333 0.051883770152926452 1.0000000180025095e-35 0.90891996026039135 0.95762792229652416 1.0000000180025095e-35 1.0000000180025095e-35 0.96573948860168468 0.61351527273654949 0.091159351170063033 -0.43198889493942255 0.84341406822204601 0.75058212876319896 1.0000000180025095e-35 0.18713577836751941 -0.76731988787651051 1.538666903972626 1.2114295363426211 0.7673138976097108 0.61351527273654949 0.00062796400743536662 0.80705776810646068 1.0000000180025095e-35 1.0259131789207461 -0.80584731698036183 0.98724260926246654 0.72494003176689159 0.78626549243927013 0.15368687361478808 1.2113808393478396 1.0000000180025095e-35 3.2768385410308842
decision_type=2 2 2 2 2 2 2 2 2 2 2 2 2 2 2 2 2 2 2 2 2 2 2 2 2 2 2 2 2 2 2 2 2 2 2 2 2 2 2 2 2 2 2 2 2 2 2 2 2 2 2 2 2 2 2 2 2 2 2 2 2 2 2
left_child=1 3 6 8 11 7 12 16 14 20 19 29 17 24 27 26 53 31 38 22 56 41 44 54 -6 43 40 -1 52 -4 -31 -2 -26 -13 -17 -14 -15 57 -10 -25 -5 -16 -19 -9 -7 -28 -35 -30 -20 -23 -38 62 -12 -3 -11 -52 -8 -22 -27 -32 -41 -18 -48
right_child=2 5 4 15 13 10 9 25 18 23 28 33 35 36 21 34 61 42 48 -21 37 49 -24 39 32 58 45 -29 47 30 59 -33 -34 46 -36 -37 50 -39 -40 60 -42 -43 -44 -45 -46 -47 51 -49 -50 -51 55 -53 -54 -55 -56 -57 -58 -59 -60 -61 -62 -63 -64
leaf_value=-0.022181875356339562 0.015843192961447115 0.0038626308285423169 0.025062346224196362 -0.0038167111896179693 0.048515735457006257 0.011376875561909057 0.021301984300465458 0.0083830669701032978 0.006932771920483069 0.022526162287776073 0.014334011301806979 0.027222066786538553 0.02276746377066197 0.059727372916825318 -0.0063952781047197276 0.0065635178411679092 0.0071131979763636322 0.017068901387985634 0.02440035720325661 0.01948798068970875 0.029207791684211067 -0.0007689955804766178 0.01747808762378995 0.039348174439540348 0.035860943061217447 0.010724801909864462 0.0015620824720209803 -0.012743349855854196 0.016011454813681915 0.022704137516190784 0.027672915554682109 0.015857983533178518 0.038093958171639707 0.039991976391376527 0.018052648150272823 0.02179591638163712 0.05528086338032108 0.022021014322282512 0.017285596219149785 0.03130238960296132 0.0001784262858408736 -0.0084112376415991057 0.020428236856265627 0.010929350116639815 0.014495856897871041 0.0056438408685731472 0.028520926933386023 0.024731191821824317 0.058701595871489515 0.0092871553362758371 0.054474926600359665 0.032033713909725814 0.035217599204656828 0.0066857319956730053 0.023144886469696042 0.040182632353650986 0.020332333119369689 0.026721072473872884 0.013747329354693022 0.033854153143509619 0.049523359443050162 0.0087453883719095082 0.030802600046156252
leaf_weight=26913992 190693 733925 46245 2525068 16561 203805 79032 399648 94043 62809 81551 97812 151922 100600 1295938 249051 191482 74523 10002 53306 72964 300225 259523 6481 148377 152013 1222219 4602775 151531 69585 89293 173141 1915 6944 26256 62227 1524 53558 28439 56842 1639807 9079032 96055 231678 84670 324272 53852 40372 1603 51285 5299 1801 3410 303451 79096 98936 81307 51662 95388 1377 8431 573483 64173
leaf_count=26913992 190693 733925 46245 2525068 16561 203805 79032 399648 94043 62809 81551 97812 151922 100600 1295938 249051 191482 74523 10002 53306 72964 300225 259523 6481 148377 152013 1222219 4602775 151531 69585 89293 173141 1915 6944 26256 62227 1524 53558 28439 56842 1639807 9079032 96055 231678 84670 324272 53852 40372 1603 51285 5299 1801 3410 303451 79096 98936 81307 51662 95388 1377 8431 573483 64173
internal_value=-0.000253465 -0.000827407 0.0139035 -0.0011271 0.0204478 0.00324488 0.00985695 0.00245594 -0.00129567 0.0124646 0.00565353 0.0173347 0.00793338 0.0240436 -0.00130944 6.61483e-05 0.00172908 0.00697284 0.00304317 0.0046418 0.0108274 -0.00100817 0.00495282 0.0150586 0.0218212 0.00394678 -2.23521e-05 -0.00141198 0.00785084 0.0151954 0.0159116 0.0061365 0.0223983 0.0193018 0.00190213 0.0103304 0.0258405 0.0120702 0.00232881 0.0173256 -0.000202125 -0.00105053 0.00875672 0.00347344 0.00398782 0.000461796 0.0203723 0.00864012 0.0105827 0.000242254 0.0246382 0.0206944 0.00606806 0.00114052 0.0139124 0.0248082 0.00944631 0.0129331 0.00515466 0.01735 0.017924 0.00252724 0.0208552
internal_weight=5.40283e+07 5.19232e+07 2.10504e+06 4.8364e+07 804294 3.55924e+06 1.30074e+06 2.68107e+06 4.23773e+07 552182 878168 431082 748561 373212 4.22432e+07 5.98667e+06 1.80234e+06 534412 134087 601304 338523 1.07265e+07 547998 213659 166853 878727 5.71137e+06 3.15168e+07 276864 206500 160255 363834 150292 224582 275307 214149 206359 178184 122482 71754 4.16488e+06 1.0375e+07 170578 631326 288475 1.54649e+06 126770 191903 11605 351510 105759 119826 84961 1.03738e+06 141905 104235 160339 124626 247401 90670 65273 764965 118025
internal_count=54028280 51923243 2105037 48364007 804294 3559236 1300743 2681068 42377334 552182 878168 431082 748561 373212 42243247 5986673 1802341 534412 134087 601304 338523 10726480 547998 213659 166853 878727 5711366 31516767 276864 206500 160255 363834 150292 224582 275307 214149 206359 178184 122482 71754 4164875 10374970 170578 631326 288475 1546491 126770 191903 11605 351510 105759 119826 84961 1037376 141905 104235 160339 124626 247401 90670 65273 764965 118025
is_linear=0
shrinkage=0.03


Tree=14
num_leaves=64
num_cat=0
split_feature=4 5 29 5 29 5 4 4 26 26 4 26 5 25 4 28 26 28 28 5 5 46 13 5 5 5 28 4 10 46 15 15 29 10 42 6 43 5 13 10 10 28 26 26 37 13 31 29 4 10 5 31 6 28 26 37 37 13 10 13 4 10 5
split_gain=461821 68620.7 58682.2 10935.1 10780.8 8031.1 6380.73 2976.5 2676.57 2675.78 2253.57 2160.55 1482.49 1207.91 1059.54 866.403 819.915 782.649 765.051 695.693 690.21 636.337 611.634 569.815 549.037 492.333 479.281 476.989 473.039 463.85 455.756 454.542 429.622 424.151 375.972 361.937 350.718 344.993 339.772 272.873 272.051 254.548 253.099 251.427 250.315 241.343 235.495 232.525 223.771 220.641 217.211 212.305 209.517 198.064 195.945 192.468 189.42 189.041 188.175 180.123 173.471 170.877 164.009
threshold=1.3312321305274966 0.41655594110488897 1.2114295363426211 0.031517934054136283 0.98724260926246654 0.97761139273643505 4.3495082855224618 2.6726881265640263 0.25040681660175329 0.1969249024987221 2.0438807010650639 0.24056714773178103 -0.21050597727298734 0.14838611334562304 0.57666298747062694 0.79606539011001598 0.55557706952095043 0.82068645954132091 0.82068645954132091 0.61457553505897533 1.7696896791458132 0.18896075338125232 -0.80584731698036183 0.1965342313051224 1.2416375279426577 1.6266755461692812 0.84913116693496715 0.1993784308433533 1.0000000180025095e-35 0.00041065440746024256 0.25926405191421514 1.0320242047309878 0.89259725809097301 1.0000000180025095e-35 0.99902650713920604 0.725927233695984 0.08175069093704225 1.6816809773445132 -0.46052771806716913 1.0000000180025095e-35 1.0000000180025095e-35 0.57359987497329723 0.10104775801301004 0.1969249024987221 1.0534014701843264 -0.80584731698036183 0.011488938704133035 1.2114295363426211 2.0858012437820439 1.0000000180025095e-35 1.9677092432975771 0.51195991039276134 0.85793146491050731 0.77479279041290294 0.16908565163612368 1.117087781429291 0.90714937448501598 -0.76161211729049672 1.0000000180025095e-35 -0.46338158845901484 0.82818600535392772 1.0000000180025095e-35 1.8136940002441408
decision_type=2 2 2 2 2 2 2 2 2 2 2 2 2 2 2 2 2 2 2 2 2 2 2 2 2 2 2 2 2 2 2 2 2 2 2 2 2 2 2 2 2 2 2 2 2 2 2 2 2 2 2 2 2 2 2 2 2 2 2 2 2 2 2
left_child=1 3 4 8 10 9 18 17 12 19 20 21 30 45 23 41 35 37 48 58 28 24 -15 42 40 33 -9 38 -2 55 -1 -17 52 -13 54 -10 -32 -6 -14 -19 -7 -12 59 57 -20 -8 -28 -18 -4 -39 -41 -47 -11 -30 -16 -24 -27 -25 -3 -5 -34 -21 -26
right_child=2 5 6 14 7 11 13 26 16 32 15 25 27 22 34 31 47 39 44 61 -22 -23 29 43 62 56 46 -29 53 -31 36 -33 60 -35 -36 -37 -38 49 -40 50 -42 -43 -44 -45 -46 51 -48 -49 -50 -51 -52 -53 -54 -55 -56 -57 -58 -59 -60 -61 -62 -63 -64
leaf_value=-0.021516419095649372 0.014466408146233855 0.0036400467721574856 0.027586349228369476 0.0002934619778324299 0.018784729573985737 0.010923158232558326 0.052683105412854897 0.029338502806682654 0.004789620078245389 0.0076903504665874695 0.029896875822843793 0.012582696661395405 -0.0041732932609541869 0.048854547733710396 0.0053439784098980713 0.024360223883538701 0.023641363810074083 0.020113579147875787 0.026507049726289211 0.0073277813745834218 0.020255232487804489 0.018903341269017489 0.031298684894858375 0.012303131579264374 0.014943555715486175 0.022268282846857095 0.02685496523412877 0.0010765263651275326 0.018655106156434179 0.043932372157531242 0.0014838505046126057 0.040630437588191751 0.01074450617651814 0.015638797106795804 0.027008343312996941 0.014743695653859147 -0.014183046410259218 0.020651137166543508 -0.0078471507715944782 0.020440766215319563 0.01406098119093491 0.025559265020832254 0.00014568189161046741 0.0036333396629878089 0.029333312598628248 0.035476330318569213 0.03715340736382057 0.056940547995344822 0.02888067474041079 0.022947725489346364 0.024172036356418812 0.058788680162548096 0.011318010453945438 0.018237640735756729 0.0088774704982159426 0.038351256393096222 0.026962814246171737 5.4495855153178229e-05 0.0063464244911212676 -0.0037022098539294321 0.013579653509161061 0.009706335978720745 0.023476047712892183
leaf_weight=28837046 287086 675746 24650 346063 83732 223689 5826 67884 107133 394423 29442 77534 1099609 14337 155686 113352 10151 58980 77701 584041 127187 54061 44785 68508 221171 33050 107355 271775 92589 2565 179402 11527 132534 176438 8109 46733 1621445 81841 10203189 49036 93002 100483 1119944 405083 95693 63143 34348 1609 78538 86327 46863 90459 290317 38576 113404 118517 22505 1826967 278014 1944801 78588 236813 56875
leaf_count=28837046 287086 675746 24650 346063 83732 223689 5826 67884 107133 394423 29442 77534 1099609 14337 155686 113352 10151 58980 77701 584041 127187 54061 44785 68508 221171 33050 107355 271775 92589 2565 179402 11527 132534 176438 8109 46733 1621445 81841 10203189 49036 93002 100483 1119944 405083 95693 63143 34348 1609 78538 86327 46863 90459 290317 38576 113404 118517 22505 1826967 278014 1944801 78588 236813 56875
internal_value=-0.000276767 -0.000825188 0.0137507 -0.00112371 0.010389 0.00315366 0.021479 0.013371 -0.00129328 0.00230821 0.00809215 0.0055096 -0.00130821 0.0242339 7.62587e-05 0.0104214 0.00251296 0.0118746 0.0180962 0.00163349 0.00700403 0.00452573 0.0225511 -1.16524e-05 0.00480899 0.00757191 0.0162754 -0.00101896 0.00641553 0.0230649 -0.00141749 0.0122057 0.00364475 0.00701232 0.00188757 0.00192941 -0.000954474 0.0108428 -0.00104883 0.0135528 0.00395491 0.00870635 -0.000257749 0.000353211 0.0193133 0.026136 0.0172683 0.010148 0.0160509 0.0116262 0.0145403 0.0263633 0.00327996 0.00790815 0.00169577 0.0232638 0.0101301 0.000208226 0.00108244 -0.00043844 0.0048279 0.00227376 0.00578178
