tree
version=v4
num_class=1
num_tree_per_iteration=1
label_index=0
max_feature_idx=46
objective=quantile
feature_names=Column_0 Column_1 Column_2 Column_3 Column_4 Column_5 Column_6 Column_7 Column_8 Column_9 Column_10 Column_11 Column_12 Column_13 Column_14 Column_15 Column_16 Column_17 Column_18 Column_19 Column_20 Column_21 Column_22 Column_23 Column_24 Column_25 Column_26 Column_27 Column_28 Column_29 Column_30 Column_31 Column_32 Column_33 Column_34 Column_35 Column_36 Column_37 Column_38 Column_39 Column_40 Column_41 Column_42 Column_43 Column_44 Column_45 Column_46
feature_infos=[-0.28488168120384216:158.85971069335938] [-0.28412732481956482:76.793212890625] [-0.28346124291419983:125.563232421875] [-0.28169348835945129:48.230735778808594] [-0.32462787628173828:119.44225311279297] [-0.33701848983764648:104.2943115234375] [-0.48244228959083557:63.33642578125] [-1.7310736179351807:1.7310736179351807] [-1.5784550905227661:1.6259156465530396] [-1.3792937994003296:1.3780460357666016] [-1.2747400999069214:1.4138048887252808] [-1.498625636100769:1.5003180503845215] [-1.642849326133728:1.6247442960739136] [-0.96994543075561523:11.584277153015137] [-1.8420482873916626:0.54287391901016235] [0:10.137248039245605] [0:0.79111999273300171] [0:1.0985912084579468] [0.032591145485639572:7.5186514854431152] [0:10.707796096801758] [0:0.67488765716552734] [0:1.7548061609268188] [0:7.5433182716369629] [0.043757162988185883:10.694111824035645] [0:1.7021725177764893] [0:1.5827033519744873] [0:4.5458593368530273] [0:0.44384366273880005] [0:10.429836273193359] [0.099834322929382324:14.972973823547363] [0:29.846057891845703] [0:17.071277618408203] [0:0.55029547214508057] [0:0.7358819842338562] [0:10.144794464111328] [0:11.567427635192871] [0:2.5159878730773926] [0:10.650430679321289] [0.03847050666809082:8.6599617004394531] [0:0.7667662501335144] [0:14.751423835754395] [0:1.1050832271575928] [0.13912069797515869:9.2417535781860352] [0:0.3819122314453125] [0:0.7875218391418457] [0:0.91445553302764893] [0:0.90082848072052002]
tree_sizes=6291 6578 6633 6619 6634 6641 6625 6637 6678 6645 6659 6639 6646 6684 6677 6698 6679 6681 6688 6688 6708 6715 6668 6673 6669 6726 6746 6751 6755 6773 6756 6756 6746 6765 6726 6776 6766 6786 6779 6805 6815 6783 6772 6788 6811 6833 6846 6839 6857 6838 6841 6844 6876 6870 6885 6888 6874 6899 6883 6922 6873 6876 6882 6846 6865 6887 6948 6887 6926 6939 6928 6924 6934 6984 6990 6952 6956 6922 6945 6948 6922 6958 6948 6972 6960 6964 6985 6967 6936 6969 6973 6971 6938 6976 7011 6959 6989 6934 7003 7010 6994 7002 7030 6997 7012 6985 6985 6997 7028 7004 7011 7021 6986 7015 7007 7008 7013 7022 7026 7010 7005 6993 6995 6955 6979 6973 6961 6974 7020 6994 6971 6962 7030 6959 6977 6976 6934 6929 6936 6938 6908 6917 6937 6925 6914 6926 6915 7002 6882 6871 6879 6874 6868 6865 6876 6896 6900 6889 6892 6911 6874 6925 6884 6891 6937 6871 6888 6879 6868 6866 6875 6906 6868 6897 6930 6894 6892 6868 6875 6877 6852 6840 6938 6936 6934 6912 6898 6869 6859 6910 6873 6890 6951 6881 6861 6944 6881 6941 6854 6852

Tree=0
num_leaves=64
num_cat=0
split_feature=4 5 29 5 5 4 5 26 26 26 26 28 29 5 5 26 4 46 5 0 4 29 15 46 26 5 5 0 4 5 5 4 29 29 13 46 5 5 26 13 10 26 15 5 29 10 10 26 5 28 29 28 5 0 0 26 29 20 5 10 29 15 36
split_gain=1.39303e+06 156175 139110 24998.2 19794.3 18103.2 17860.8 8425.8 8197.94 6412.87 5099.38 4320.55 3423.04 3349.8 3104.83 2632.51 2375.58 2303.12 2027.05 1828.48 1815.87 1529.13 1528.56 1345.81 1324.11 1303.61 1206.66 1196.32 1013.47 928.236 892.611 819.9 761.105 756.116 734.159 642.716 649.544 642.021 616.105 613.965 601.077 562.554 544.598 536.312 526.256 513.046 504.639 493.353 445.822 437.74 425.872 415.42 409.584 384.036 379.812 373.008 360.265 350.077 348.737 331.838 330.581 310.404 303.55
threshold=0.57666298747062694 0.15252986550331118 0.91091233491897594 0.92260602116584789 0.41655594110488897 1.7504370808601382 -0.067491851747035966 0.23238495737314227 0.26828244328498846 0.17414810508489612 0.15094651281833651 0.7146875560283662 1.1317933797836306 0.63657769560813915 1.0436179637908938 0.10104775801301004 0.11553743109107019 0.12322651967406274 0.69158312678337108 -0.15653926227241752 1.3731526136398318 0.7611488699913026 0.20910426229238513 0.064232934266328826 0.44746917486190801 0.65857985615730297 0.27354182302951818 -0.15653926227241752 1.415073096752167 0.042519016191363342 0.28454293310642248 0.2412989288568497 0.67892298102378856 1.0259131789207461 -0.74876970052719105 0.07004160434007646 1.2746407985687258 0.0535200983285904 0.32318715751171118 -0.76731988787651051 1.0000000180025095e-35 0.14229132980108264 0.72848677635192882 -0.21050597727298734 0.75051316618919384 1.0000000180025095e-35 1.0000000180025095e-35 0.10104775801301004 0.73558744788169872 0.66495981812477123 1.3216426968574526 0.82068645954132091 0.64757874608039867 -0.15653926227241752 -0.15653926227241752 0.11762730032205583 0.86265528202056896 1.0000000180025095e-35 1.1536288261413576 1.0000000180025095e-35 0.81835255026817333 0.72848677635192882 1.0000000180025095e-35
decision_type=2 2 2 2 2 2 2 2 2 2 2 2 2 2 2 2 2 2 2 2 2 2 2 2 2 2 2 2 2 2 2 2 2 2 2 2 2 2 2 2 2 2 2 2 2 2 2 2 2 2 2 2 2 2 2 2 2 2 2 2 2 2 2
left_child=1 6 3 7 10 14 8 13 16 17 26 21 27 32 48 29 22 18 45 -14 38 53 43 33 -10 40 59 -7 -13 -8 -12 37 55 49 -29 36 -23 -17 52 -21 -11 -24 -22 -1 -15 -6 -32 -18 -4 -16 -41 -36 -9 -5 -30 -2 -27 -28 -55 -3 -20 -26 -43
right_child=2 4 5 11 9 12 15 20 24 25 30 28 19 44 23 31 47 -19 60 39 42 35 41 -25 61 56 57 34 54 -31 46 -33 -34 -35 51 -37 -38 -39 -40 50 -42 62 -44 -45 -46 -47 -48 -49 -50 -51 -52 -53 -54 58 -56 -57 -58 -59 -60 -61 -62 -63 -64
leaf_value=1.3447055339813232 1.3984583187103272 1.3929886722564697 1.4137830877304076 1.416642394065857 1.3984583187103272 1.4360412096977233 1.3862943649291992 1.4070887804031371 1.4030828368663788 1.4030828368663788 1.3984583187103272 1.4137830877304076 1.4530330681800843 1.4070887804031371 1.4192527341842651 1.3862943649291992 1.3862943649291992 1.3984583187103272 1.4070887804031371 1.4595647764205932 1.4192527341842651 1.4137830877304076 1.3776639032363891 1.4259470415115356 1.416642394065857 1.410622272491455 1.3984583187103272 1.4424484276771545 1.4278831958770752 1.3862943649291992 1.3984583187103272 1.3929886722564697 1.4030828368663788 1.4238772559165955 1.4259470415115356 1.4192527341842651 1.4216540122032166 1.3929886722564697 1.410622272491455 1.4360412096977233 1.4030828368663788 1.3862943649291992 1.4330387020111084 1.3776639032363891 1.4070887804031371 1.4030828368663788 1.3984583187103272 1.3929886722564697 1.4137830877304076 1.4192527341842651 1.4620662260055541 1.4314166879653931 1.410622272491455 1.410622272491455 1.4238772559165955 1.4030828368663788 1.4137830877304076 1.3929886722564697 1.4192527341842651 1.3929886722564697 1.410622272491455 1.4457244062423706 1.3776639032363891
leaf_weight=27466705 137459 932403 74118 62847 504487 13260 2841651 121679 60551 79034 458878 169352 9638 305603 113040 808831 143992 121589 189635 41380 31097 205570 6418642 11033 9152 105021 234632 46606 6723 1632855 99605 207421 260689 192275 176948 9875 197707 534295 127256 310144 237530 107070 28972 4296874 179085 190328 278059 98191 129625 164113 399876 218255 98742 118570 187356 190212 64808 634996 114781 389053 41489 6754 379863
leaf_count=27466705 137459 932403 74118 62847 504487 13260 2841651 121679 60551 79034 458878 169352 9638 305603 113040 808831 143992 121589 189635 41380 31097 205570 6418642 11033 9152 105021 234632 46606 6723 1632855 99605 207421 260689 192275 176948 9875 197707 534295 127256 310144 237530 107070 28972 4296874 179085 190328 278059 98191 129625 164113 399876 218255 98742 118570 187356 190212 64808 634996 114781 389053 41489 6754 379863
internal_value=1.38573 1.38428 1.4018 1.39722 1.38957 1.40794 1.38375 1.3947 1.38351 1.39235 1.38817 1.40071 1.41014 1.3933 1.40404 1.38527 1.38349 1.39103 1.39154 1.41137 1.39837 1.39935 1.38347 1.40536 1.39333 1.3952 1.38741 1.40808 1.40337 1.3849 1.39016 1.38633 1.39178 1.4056 1.40835 1.40053 1.40071 1.38606 1.39754 1.41154 1.39406 1.38388 1.40319 1.38339 1.39515 1.39073 1.39124 1.38646 1.40094 1.4046 1.41175 1.40877 1.39658 1.3977 1.40485 1.39082 1.39732 1.38827 1.39826 1.38683 1.39397 1.40103 1.38486
internal_weight=5.40283e+07 4.95744e+07 4.45389e+06 2.55358e+06 4.56155e+06 1.90031e+06 4.50128e+07 1.48079e+06 3.89878e+07 1.53392e+06 3.02763e+06 1.07278e+06 1.21611e+06 1.07305e+06 684204 6.02505e+06 3.89113e+07 1.04753e+06 925939 761038 407746 709350 3.86692e+07 480461 76457 486393 2.19108e+06 455069 363431 4.47451e+06 836542 1.55055e+06 588360 469428 441809 413152 403277 1.34313e+06 347677 751400 316564 6.90558e+06 60069 3.17636e+07 484688 694815 377664 242183 203743 277153 710020 395203 220421 296198 194079 327671 169829 869628 233351 1.32146e+06 231124 15906 486933
internal_count=54028280 49574394 4453886 2553575 4561547 1900311 45012847 1480794 38987794 1533921 3027626 1072781 1216107 1073048 684204 6025053 38911337 1047528 925939 761038 407746 709350 38669154 480461 76457 486393 2191084 455069 363431 4474506 836542 1550547 588360 469428 441809 413152 403277 1343126 347677 751400 316564 6905575 60069 31763579 484688 694815 377664 242183 203743 277153 710020 395203 220421 296198 194079 327671 169829 869628 233351 1321456 231124 15906 486933
is_linear=0
shrinkage=1


Tree=1
num_leaves=64
num_cat=0
split_feature=4 5 29 5 5 4 5 26 26 26 26 26 28 29 5 5 26 46 5 0 4 4 26 29 46 44 0 5 5 4 5 5 5 29 29 5 13 46 5 26 13 42 10 10 15 13 29 10 5 28 29 28 5 0 0 26 29 5 10 29 20 20 35
split_gain=1.35866e+06 143794 139110 26434.5 24998.2 18103.2 17258.6 8425.8 7141.27 6217.79 5013.28 4836.29 4320.55 3423.04 3349.8 3104.83 2681.64 2346.53 1879.05 1828.48 1815.87 1679.01 1567.08 1529.13 1345.81 1325.7 1196.32 1193.38 1035.9 1013.47 1007.55 922.809 844.011 761.105 756.116 749.363 734.159 642.716 649.544 616.105 613.965 601.935 573.367 552.406 544.598 542.989 526.256 482.191 445.822 437.74 425.872 415.42 409.584 384.036 379.812 373.008 360.265 348.737 340.32 330.581 319.701 319.378 308.807
threshold=0.57666298747062694 0.17453207075595858 0.91091233491897594 -0.17750272154808042 0.92260602116584789 1.7504370808601382 0.42755702137947088 0.23238495737314227 0.21687354147434237 0.17414810508489612 0.083612978458404555 0.15094651281833651 0.7146875560283662 1.1317933797836306 0.63657769560813915 1.0436179637908938 0.0056452066637575635 0.12322651967406274 0.69158312678337108 -0.15653926227241752 1.3731526136398318 0.28321942687034612 0.44746917486190801 0.7611488699913026 0.064232934266328826 0.1265843063592911 -0.15653926227241752 0.65857985615730297 -0.25451032817363733 1.415073096752167 0.29554402828216558 0.0535200983285904 0.075522258877754225 0.67892298102378856 1.0259131789207461 0.28454293310642248 -0.74876970052719105 0.07004160434007646 1.2746407985687258 0.32318715751171118 -0.76731988787651051 0.83481359481811535 1.0000000180025095e-35 1.0000000180025095e-35 0.72848677635192882 -0.20653227716684339 0.75051316618919384 1.0000000180025095e-35 0.73558744788169872 0.66495981812477123 1.3216426968574526 0.82068645954132091 0.64757874608039867 -0.15653926227241752 -0.15653926227241752 0.11762730032205583 0.86265528202056896 1.1536288261413576 1.0000000180025095e-35 0.81835255026817333 1.0000000180025095e-35 1.0000000180025095e-35 0.37437830865383154
decision_type=2 2 2 2 2 2 2 2 2 2 2 2 2 2 2 2 2 2 2 2 2 2 2 2 2 2 2 2 2 2 2 2 2 2 2 2 2 2 2 2 2 2 2 2 2 2 2 2 2 2 2 2 2 2 2 2 2 2 2 2 2 2 2
left_child=1 3 4 8 7 15 11 14 16 17 31 30 23 26 33 48 28 18 47 -15 39 32 -10 53 34 62 -7 42 -1 -14 61 45 -12 55 49 -13 -28 38 -25 52 -21 -23 -11 -37 -22 -5 -16 -8 -4 -17 -42 -38 -9 -6 -31 -2 -29 -55 -34 -20 -32 -3 -18
right_child=2 6 5 10 12 13 9 20 22 27 21 35 29 19 46 24 25 -19 59 40 44 41 -24 37 -26 -27 36 56 -30 54 60 -33 58 -35 -36 43 51 -39 -40 -41 50 -43 -44 -45 -46 -47 -48 -49 -50 -51 -52 -53 -54 57 -56 -57 -58 -59 -60 -61 -62 -63 -64
leaf_value=-0.040341166019439698 0.011799035167694089 0.0064934781074523929 0.026664061117172243 -0.0083715478420257547 0.029437588262557979 0.048254439425468448 0.011799035167694089 0.020170583009719852 0.012422867631912233 0.016284817779064178 0 0.011799035167694089 0.026664061117172243 0.064736542153358459 0.020170583009719852 0.031969618177413943 -0.00020082921981811496 0.011799035167694089 0.020170583009719852 0.071072299146652224 0.031969618177413943 0.0064934781074523929 0.04421188216209411 0.026664061117172243 0.038463096284866334 -0.019546750545501708 0.054469440865516659 0.023598070335388185 -0.019546750545501708 0.040341166019439698 0.011799035167694089 0 0 0.016284817779064178 0.036455404257774347 0.011799035167694089 0.038463096284866334 0.031969618177413943 0.03429885785579681 0.023598070335388185 0.048254439425468448 0.020593586254119872 0.016284817779064178 0.011799035167694089 0.045342006969451905 -0.0083715478420257547 0.020170583009719852 0.016284817779064178 0.026664061117172243 0.031969618177413943 0.073498705244064336 0.04376865334510803 0.023598070335388185 0.023598070335388185 0.036455404257774347 0.016284817779064178 0.026664061117172243 0.031969618177413943 0.0064934781074523929 0.023598070335388185 0.0064934781074523929 0.0064934781074523929 0.0069532211780548112
leaf_weight=25501470 137459 318445 74118 2405409 62847 13260 468308 121679 86741 74628 2106391 377844 169352 9638 305603 113040 313443 119538 189635 41380 31097 218703 14121 205570 11033 2388565 46606 105021 4812855 6723 201123 1462491 233903 260689 192275 108217 176948 9875 197707 127256 310144 30518 221223 296371 28972 5332233 179085 176432 129625 164113 399876 218255 98742 118570 187356 190212 64808 114781 440781 41489 541150 884032 38506
leaf_count=25501470 137459 318445 74118 2405409 62847 13260 468308 121679 86741 74628 2106391 377844 169352 9638 305603 113040 313443 119538 189635 41380 31097 218703 14121 205570 11033 2388565 46606 105021 4812855 6723 201123 1462491 233903 260689 192275 108217 176948 9875 197707 127256 310144 30518 221223 296371 28972 5332233 179085 176432 129625 164113 399876 218255 98742 118570 187356 190212 64808 114781 440781 41489 541150 884032 38506
internal_value=-0.000367543 -0.0017935 0.0155042 -0.00228432 0.0109305 0.0216502 0.00352523 0.00840404 -0.00272405 0.00615626 -0.00109224 0.00211565 0.0144178 0.0238465 0.00700907 0.0177465 -0.00274837 0.00481767 0.00535578 0.0250773 0.0120751 -3.39241e-05 0.00524642 0.0130551 0.0190625 -0.00184967 0.0217882 0.00901752 -0.00282961 0.0170776 0.00131432 -0.00144083 -0.000245318 0.00548771 0.0193059 0.00410738 0.0220547 0.0142344 0.0144196 0.011243 0.0252438 0.00232503 0.00786689 0.00500459 0.0168916 -0.00157145 0.00885583 0.00452382 0.0146431 0.0183031 0.0254509 0.0224747 0.0102834 0.01141 0.0185575 0.00452529 0.011022 0.0119706 0.000678121 0.00767661 0.00218344 0.000777826 -0.00013075
internal_weight=5.40283e+07 4.95744e+07 4.45389e+06 4.53861e+07 2.55358e+06 1.90031e+06 4.18826e+06 1.48079e+06 3.31557e+07 1.46108e+06 1.22304e+07 2.72718e+06 1.07278e+06 1.21611e+06 1.07305e+06 684204 3.30548e+07 995402 875864 761038 407746 3.0303e+06 100862 709350 480461 2.74051e+06 455069 465680 3.03143e+07 363431 1.94475e+06 9.20013e+06 2.78108e+06 588360 469428 782432 441809 413152 403277 347677 751400 249221 295851 404588 60069 7.73764e+06 484688 644740 203743 277153 710020 395203 220421 296198 194079 327671 169829 233351 674684 231124 742273 1.20248e+06 351949
internal_count=54028280 49574394 4453886 45386130 2553575 1900311 4188264 1480794 33155701 1461082 12230429 2727182 1072781 1216107 1073048 684204 33054839 995402 875864 761038 407746 3030296 100862 709350 480461 2740514 455069 465680 30314325 363431 1944750 9200133 2781075 588360 469428 782432 441809 413152 403277 347677 751400 249221 295851 404588 60069 7737642 484688 644740 203743 277153 710020 395203 220421 296198 194079 327671 169829 233351 674684 231124 742273 1202477 351949
is_linear=0
shrinkage=0.03


Tree=2
num_leaves=64
num_cat=0
split_feature=4 29 5 5 5 4 5 26 26 26 26 28 29 26 5 5 5 46 26 5 0 4 29 5 4 4 46 0 5 4 26 26 5 29 29 13 46 5 5 20 26 13 10 15 10 15 29 29 10 5 28 29 8 42 28 5 0 0 4 5 26 36 29
split_gain=1.34174e+06 139110 138032 43731.6 24998.2 18103.2 16037.5 8425.8 7612.52 6217.79 4604.74 4320.55 3423.04 3413.07 3349.8 3104.83 2827.92 2346.53 2183.07 1879.05 1828.48 1815.87 1529.13 1476.9 1468.75 1365.96 1345.81 1196.32 1193.38 1013.47 889.431 875.359 866 761.105 756.116 734.159 642.716 649.544 634.377 629.372 616.105 613.965 573.367 568.423 552.406 544.598 530.552 526.256 482.191 445.822 437.74 425.872 424.991 418.021 415.42 409.584 384.036 379.812 374.065 373.113 373.008 369.467 360.265
threshold=0.57666298747062694 0.91091233491897594 0.18553315103054049 -0.1555005460977554 0.92260602116584789 1.7504370808601382 0.42755702137947088 0.23238495737314227 0.18526680767536166 0.17414810508489612 0.15094651281833651 0.7146875560283662 1.1317933797836306 1.0000000180025095e-35 0.63657769560813915 1.0436179637908938 -0.034488591365516179 0.12322651967406274 0.37645629048347479 0.69158312678337108 -0.15653926227241752 1.3731526136398318 0.7611488699913026 -0.25451032817363733 0.2412989288568497 1.0000000180025095e-35 0.064232934266328826 -0.15653926227241752 0.65857985615730297 1.415073096752167 0.19303213804960254 0.018099794164299968 0.29554402828216558 0.67892298102378856 1.0259131789207461 -0.74876970052719105 0.07004160434007646 1.2746407985687258 0.28454293310642248 1.0000000180025095e-35 0.32318715751171118 -0.76731988787651051 1.0000000180025095e-35 0.26112240552902227 1.0000000180025095e-35 0.72848677635192882 0.93314391374588024 0.75051316618919384 1.0000000180025095e-35 0.73558744788169872 0.66495981812477123 1.3216426968574526 -1.574846565723419 0.82582667469978344 0.82068645954132091 0.64757874608039867 -0.15653926227241752 -0.15653926227241752 0.32513995468616491 -0.08949402347207068 0.11762730032205583 1.0000000180025095e-35 0.86265528202056896
decision_type=2 2 2 2 2 2 2 2 2 2 2 2 2 2 2 2 2 2 2 2 2 2 2 2 2 2 2 2 2 2 2 2 2 2 2 2 2 2 2 2 2 2 2 2 2 2 2 2 2 2 2 2 2 2 2 2 2 2 2 2 2 2 2
left_child=2 4 3 8 7 15 10 14 13 17 32 22 27 23 33 49 24 19 -10 48 -14 40 56 -1 31 43 34 -7 42 -13 39 59 -4 60 50 -29 37 -24 -12 -18 55 -22 -11 -15 -40 -23 -20 -16 -8 -3 -17 -43 -45 -26 -37 -9 -6 -31 -32 -5 -2 -54 -30
right_child=1 5 6 16 11 12 9 21 18 28 38 29 20 25 47 26 30 -19 46 -21 41 45 36 -25 53 -27 -28 35 62 57 58 -33 -34 -35 -36 54 -38 -39 44 -41 -42 51 -44 52 -46 -47 -48 -49 -50 -51 -52 -53 61 -55 -56 -57 -58 -59 -60 -61 -62 -63 -64
leaf_value=-0.039130931038856502 0.011445064112663269 0.025864139283657075 0.0062986737642288211 -0.0081204014067649856 0.02855446061468124 0.046806806242704391 0.011445064112663269 0.019565465519428255 0.0075396236944198659 0.015796273245692251 0.011445064112663269 0.025864139283657075 0.062794445888757697 -0.018960348029136653 0.019565465519428255 0.031010529632091523 0.00025114643526076954 0.011445064112663269 0.025251925462245941 0.019565465519428255 0.068940130172252659 0.031010529632091523 0.025864139283657075 -0.018960348029136653 0.0069454537625312767 0.00026493872737884725 0.037309203396320337 0.052835357639551161 0.022890128225326538 0.039130931038856502 0.0062986737642288211 -0.0081204014067649856 0.0062986737642288211 0.015796273245692251 0.035361742130041118 0.037309203396320337 0.031010529632091523 0.033269892120122907 0.011445064112663269 0 0.022890128225326538 0.046806806242704391 0.015796273245692251 0.012428892508506777 0.011445064112663269 0.043981746760368347 0.059193985932826994 0.019565465519428255 0.015796273245692251 0.025864139283657075 0.031010529632091523 0.071293744086742397 -0.0077851453256607001 0.026367261055469514 0.042455593744754785 0.022890128225326538 0.026050943464279178 0.035361742130041118 0.011768320218086242 -0.0081204014067649856 0.015796273245692251 -0.0081204014067649856 0.025864139283657075
leaf_weight=25393650 137459 74118 1064689 2103703 62847 13260 468308 121679 142027 74628 337795 169352 9638 2233741 305603 113040 1306135 119538 18344 231124 41380 31097 205570 5539644 68001 182310 11033 46606 105021 6723 419984 2411914 742273 260689 192275 176948 9875 197707 108217 3544517 127256 310144 221223 9900 296371 28972 6115 179085 176432 129625 164113 399876 214479 10085 218255 98742 233351 187356 48781 1089788 190212 820849 64808
leaf_count=25393650 137459 74118 1064689 2103703 62847 13260 468308 121679 142027 74628 337795 169352 9638 2233741 305603 113040 1306135 119538 18344 231124 41380 31097 205570 5539644 68001 182310 11033 46606 105021 6723 419984 2411914 742273 260689 192275 176948 9875 197707 108217 3544517 127256 310144 221223 9900 296371 28972 6115 179085 176432 129625 164113 399876 214479 10085 218255 98742 233351 187356 48781 1089788 190212 820849 64808
internal_value=-0.000268406 0.0155042 -0.00168546 -0.0021551 0.0109305 0.0216502 0.00365032 0.00840404 -0.0026795 0.00615626 0.00221412 0.0144178 0.0238465 -0.00271048 0.00700907 0.0177465 -0.000507891 0.00481767 0.00372002 0.00535578 0.0250773 0.0120751 0.0130551 -0.00281045 -0.000973183 -0.00181709 0.0190625 0.0217882 0.00901752 0.0170776 -1.0754e-05 -0.0010301 0.00139688 0.00548771 0.0193059 0.0220547 0.0142344 0.0144196 0.00420328 -0.000131347 0.011243 0.0252438 0.00786689 -0.00195761 0.00500459 0.0168916 0.0119982 0.00885583 0.00452382 0.0146431 0.0183031 0.0254509 -0.00138018 0.00311287 0.0224747 0.0102834 0.01141 0.0185575 0.00123711 -0.00135591 0.00452529 -0.00143934 0.011022
internal_weight=5.40283e+07 4.45389e+06 4.95744e+07 4.5564e+07 2.55358e+06 1.90031e+06 4.01043e+06 1.48079e+06 3.45611e+07 1.46108e+06 2.54934e+06 1.07278e+06 1.21611e+06 3.43946e+07 1.07305e+06 684204 1.10029e+07 995402 166486 875864 761038 407746 709350 3.09333e+07 5.68349e+06 3.46128e+06 480461 455069 465680 363431 5.31942e+06 5.6054e+06 1.80696e+06 588360 469428 441809 413152 403277 742383 4.85065e+06 347677 751400 295851 3.27897e+06 404588 60069 24459 484688 644740 203743 277153 710020 1.04523e+06 78086 395203 220421 296198 194079 468765 3.19349e+06 327671 1.03533e+06 169829
internal_count=54028280 4453886 49574394 45563967 2553575 1900311 4010427 1480794 34561059 1461082 2549345 1072781 1216107 34394573 1073048 684204 11002908 995402 166486 875864 761038 407746 709350 30933294 5683491 3461279 480461 455069 465680 363431 5319417 5605405 1806962 588360 469428 441809 413152 403277 742383 4850652 347677 751400 295851 3278969 404588 60069 24459 484688 644740 203743 277153 710020 1045228 78086 395203 220421 296198 194079 468765 3193491 327671 1035328 169829
is_linear=0
shrinkage=0.03


Tree=3
num_leaves=64
num_cat=0
split_feature=4 29 5 5 5 4 26 26 26 26 5 28 5 29 5 5 5 5 46 26 4 0 4 10 29 46 0 15 29 4 5 4 29 29 13 29 10 46 5 26 13 15 5 29 20 5 36 42 13 5 15 28 29 28 5 5 0 0 26 8 5 17 46
split_gain=1.33948e+06 139110 138358 49403.7 24998.2 18103.2 10604.7 8801.16 8425.8 5909.13 4468.69 4320.55 4078.8 3423.04 3349.8 3104.83 2718.6 2599.19 2509.42 2325.53 2267.07 1828.48 1815.87 1542.29 1529.13 1345.81 1196.32 1131.59 1122.01 1013.47 871.945 774.918 761.105 756.116 734.159 729.255 650.716 642.716 649.544 616.105 613.965 544.598 539.79 526.256 509.468 508.919 500.287 464.461 446.453 445.822 444.922 437.74 425.872 415.42 409.584 392.588 384.036 379.812 373.008 359.268 348.737 334.576 331.13
threshold=0.57666298747062694 0.91091233491897594 -0.08949402347207068 0.3175461888313294 0.92260602116584789 1.7504370808601382 0.013091245200484993 0.16589174419641498 0.23238495737314227 0.28336951136589056 0.18553315103054049 0.7146875560283662 -0.22150707244873044 1.1317933797836306 0.63657769560813915 1.0436179637908938 0.55957007408142101 0.51556575298309337 0.11538768932223321 0.14959952980279925 0.031696426216512925 -0.15653926227241752 1.3731526136398318 1.0000000180025095e-35 0.7611488699913026 0.064232934266328826 -0.15653926227241752 0.2774104923009873 0.89259725809097301 1.415073096752167 0.7135852873325349 0.1993784308433533 0.67892298102378856 1.0259131789207461 -0.74876970052719105 0.8275497853755952 1.0000000180025095e-35 0.07004160434007646 1.2746407985687258 0.32318715751171118 -0.76731988787651051 0.72848677635192882 -0.16650163382291791 0.75051316618919384 1.0000000180025095e-35 -0.1555005460977554 1.0000000180025095e-35 0.70890584588050853 -0.20653227716684339 0.73558744788169872 0.059418143704533584 0.66495981812477123 1.3216426968574526 0.82068645954132091 0.64757874608039867 0.42755702137947088 -0.15653926227241752 -0.15653926227241752 0.11762730032205583 -1.574846565723419 1.1536288261413576 0.074241660535335555 0.021035837940871719
decision_type=2 2 2 2 2 2 2 2 2 2 2 2 2 2 2 2 2 2 2 2 2 2 2 2 2 2 2 2 2 2 2 2 2 2 2 2 2 2 2 2 2 2 2 2 2 2 2 2 2 2 2 2 2 2 2 2 2 2 2 2 2 2 2
left_child=2 4 6 10 8 15 12 17 14 20 23 24 50 26 32 49 36 44 30 -12 27 -15 39 48 56 33 -7 42 -11 -13 -19 -25 58 51 -28 -18 -9 38 -26 54 -23 -24 -8 -16 -5 -14 -29 -22 -4 -3 -1 -17 -42 -36 -10 -38 -6 -31 -2 -48 -58 -20 -37
right_child=1 5 3 7 11 13 9 16 22 28 19 29 45 21 43 25 35 18 61 -21 47 40 41 31 37 -27 34 46 -30 57 -32 -33 -34 -35 53 62 55 -39 -40 -41 52 -43 -44 -45 -46 -47 59 -49 -50 -51 -52 -53 -54 -55 -56 -57 60 -59 -60 -61 -62 -63 -64
leaf_value=-0.037957003107690804 0.01110171218928337 0.02508821510514736 0 0.011256103899736407 0.027697826796240804 0.045402602055423256 -0.018391537588262553 0.01110171218928337 0.018978501553845409 0.019160517522997855 0.0061097135513019582 0.02508821510514736 -0.018391537588262553 0.060910612512094967 0.018978501553845409 0.030080213743128779 0.018669932290248877 0.015322385048321485 0.019732173882093428 0.01110171218928337 0.00049475847746372143 0.066871926267085061 0.030080213743128779 0.00024361204220294528 0.02508821510514736 0.036189927294430733 0.051250296910364632 0.0002838715752124843 0.050092368320174219 0.037957003107690804 0.018978501553845409 0.00630451789452553 0.015322385048321485 0.034300889866139883 0.036189927294430733 0.02286182067339778 0.015587494800653459 0.030080213743128779 0.032271795356519223 0.022203424378566747 0.045402602055423256 0.0426622943575573 -0.0078767893645620337 0.018978501553845409 0.0061097135513019582 -0.0078767893645620337 0.01668054388930321 0.0075316755325985025 -0.00020082921981811496 0.02508821510514736 -0.018391537588262553 0.030080213743128779 0.069154931764140129 0.041181925932412142 0.022203424378566747 0.015322385048321485 0.022108599921398162 0.034300889866139883 0.015322385048321485 -0.0078767893645620337 0.030229001328163148 -0.042651072539720537 0.025364239617519383
leaf_weight=19609193 137459 74118 1648527 260795 62847 13260 1781000 114216 121679 51577 1215349 169352 3440923 9638 305603 113040 166686 331859 70777 447217 240874 41380 31097 2836632 205570 11033 46606 249184 10573 6723 193785 404988 260689 192275 176948 111209 200469 9875 197707 127256 310144 28972 761548 179085 689208 2018701 7360 79037 2662185 129625 8505545 164113 399876 218255 98742 158690 118570 187356 190212 1256120 114781 36042 14125
leaf_count=19609193 137459 74118 1648527 260795 62847 13260 1781000 114216 121679 51577 1215349 169352 3440923 9638 305603 113040 166686 331859 70777 447217 240874 41380 31097 2836632 205570 11033 46606 249184 10573 6723 193785 404988 260689 192275 176948 111209 200469 9875 197707 127256 310144 28972 761548 179085 689208 2018701 7360 79037 2662185 129625 8505545 164113 399876 218255 98742 158690 118570 187356 190212 1256120 114781 36042 14125
internal_value=-0.000255142 0.0155042 -0.001671 0.00120257 0.0109305 0.0216502 -0.00254511 0.00508747 0.00840404 -0.00116677 0.000212743 0.0144178 -0.00272728 0.0238465 0.00700907 0.0177465 0.00772854 0.00381006 0.00530017 0.00162079 -0.00129725 0.0250773 0.0120751 -9.72231e-05 0.0130551 0.0190625 0.0217882 -0.00148906 0.00801866 0.0170776 0.00615203 0.000397153 0.00548771 0.0193059 0.0220547 0.0100049 0.00632426 0.0142344 0.0144196 0.011243 0.0252438 0.0168916 -0.0018756 0.00885583 0.00281802 -0.00197692 -0.000839342 0.00113412 -0.00046899 0.0146431 -0.00287299 0.0183031 0.0254509 0.0224747 0.0102834 0.0069515 0.01141 0.0185575 0.00452529 -0.00108163 0.0119706 0.00110826 0.0117338
internal_weight=5.40283e+07 4.45389e+06 4.95744e+07 1.15628e+07 2.55358e+06 1.90031e+06 3.80116e+07 2.34786e+06 1.48079e+06 4.43727e+06 9.2149e+06 1.07278e+06 3.35744e+07 1.21611e+06 1.07305e+06 684204 765395 1.58247e+06 632463 1.66257e+06 4.37512e+06 761038 407746 7.55233e+06 709350 480461 455069 4.05521e+06 62150 363431 525644 3.24162e+06 588360 469428 441809 292020 473375 413152 403277 347677 751400 60069 2.54255e+06 484688 950003 5.45962e+06 1.51266e+06 319911 4.31071e+06 203743 2.81147e+07 277153 710020 395203 220421 359159 296198 194079 327671 1.26348e+06 233351 106819 125334
internal_count=54028280 4453886 49574394 11562759 2553575 1900311 38011635 2347861 1480794 4437273 9214898 1072781 33574362 1216107 1073048 684204 765395 1582466 632463 1662566 4375123 761038 407746 7552332 709350 480461 455069 4055212 62150 363431 525644 3241620 588360 469428 441809 292020 473375 413152 403277 347677 751400 60069 2542548 484688 950003 5459624 1512664 319911 4310712 203743 28114738 277153 710020 395203 220421 359159 296198 194079 327671 1263480 233351 106819 125334
is_linear=0
shrinkage=0.03


Tree=4
num_leaves=64
num_cat=0
split_feature=4 5 29 5 5 4 26 26 26 26 28 5 5 5 0 5 29 26 5 4 5 46 4 29 46 26 15 29 4 5 13 4 29 29 13 5 10 46 5 4 26 29 15 29 46 26 15 46 10 5 5 28 4 36 28 5 5 5 0 0 26 5 5
split_gain=1.32958e+06 149416 137225 44411.9 24998.2 17433.3 11652.5 8425.8 8155.61 5968.78 4320.55 4190.81 4117.3 3349.8 3327.35 3104.83 2800.14 2366.32 2334.1 2325.54 2169.7 2466.32 1815.87 1529.13 1345.81 1327.48 1184.44 1136.72 1013.47 895.947 876.764 762.397 761.105 756.116 734.159 684.319 683.622 642.716 649.544 628.328 616.105 598.465 544.598 526.256 505.755 487.443 483.933 473.64 482.127 445.822 442.6 437.74 426.914 422.668 415.42 409.584 396.036 386.303 384.036 379.812 373.008 370.898 348.737
threshold=0.57666298747062694 -0.078492932021617876 0.91091233491897594 0.33954834938049322 0.92260602116584789 1.7504370808601382 0.0034955590963363652 0.23238495737314227 0.16736749559640887 0.28336951136589056 0.7146875560283662 0.20753531157970431 -0.21050597727298734 0.63657769560813915 -0.15653926227241752 1.0436179637908938 1.1317933797836306 0.14959952980279925 0.59257334470748912 1.0000000180025095e-35 0.51556575298309337 0.10663825646042825 1.3731526136398318 0.7611488699913026 0.064232934266328826 0.025081390514969829 0.26933158934116369 0.86265528202056896 1.415073096752167 0.7135852873325349 -0.76731988787651051 0.1993784308433533 0.67892298102378856 1.0259131789207461 -0.74876970052719105 -0.16650163382291791 1.0000000180025095e-35 0.07004160434007646 1.2746407985687258 0.1993784308433533 0.32318715751171118 0.8275497853755952 0.72848677635192882 0.75051316618919384 0.20135321468114856 0.17964960634708407 0.045373732224106796 0.085123304277658476 1.0000000180025095e-35 0.73558744788169872 -0.1444994658231735 0.66495981812477123 3.2595751285552983 1.0000000180025095e-35 0.82068645954132091 0.64757874608039867 -0.1555005460977554 0.44955924153327947 -0.15653926227241752 -0.15653926227241752 0.11762730032205583 -0.023487509228289124 1.1536288261413576
decision_type=2 2 2 2 2 2 2 2 2 2 2 2 2 2 2 2 2 2 2 2 2 2 2 2 2 2 2 2 2 2 2 2 2 2 2 2 2 2 2 2 2 2 2 2 2 2 2 2 2 2 2 2 2 2 2 2 2 2 2 2 2 2 2
left_child=1 6 4 11 7 15 12 13 20 19 23 25 46 32 44 49 34 -13 36 26 47 29 40 58 33 61 35 -11 -12 -22 -18 -27 60 51 -16 -8 -10 38 -25 -21 55 -20 -24 -15 -7 -33 -1 48 -5 -4 -14 -17 -32 -28 -36 -9 -55 -38 -6 -30 -2 -3 -60
right_child=2 3 5 8 10 14 9 22 18 27 28 17 50 43 16 24 30 -19 41 39 21 -23 42 37 -26 31 53 -29 59 -31 52 45 -34 -35 54 -37 57 -39 -40 -41 -42 -43 -44 -45 -46 -47 -48 -49 -50 -51 -52 -53 -54 56 -56 -57 -58 -59 62 -61 -62 -63 -64
leaf_value=-0.036818293014460081 0.010768660823604869 -0.0078840977258281212 0.024335568651992937 0.01091842078274431 0.026866891992353578 0.051579956042558169 -0.017839791460614672 0.018409146507230044 0.010768660823604869 0.017225244845418122 0.024335568651992937 0.0059264221447628994 -0.01882854253826665 0.018409146507230044 0.049712788003053697 0.029177807330834915 0.064865768479072508 0.010768660823604869 0.018418403585137945 2.7526299297386812e-05 0.01486271349687184 0.012381244365474983 0.029177807330834915 0.024335568651992937 0.035104229475597805 0.00023630368093685794 0.00023630368093686458 0.04474239431866877 0.036818293014460081 0.018409146507230044 0.041038016307145569 0.0059754176588058478 0.01486271349687184 0.033271863170155687 0.035104229475597805 -0.0076404856836251754 0.015119869956633857 0.029177807330834915 0.031303641495823646 0.010328348876044181 0.021537321647209746 0.024402360484945429 0.04138242552683058 0.018409146507230044 0.04849865363380243 0.010768660823604869 -0.017839791460614672 -0.00076788518250760825 0.010918420782744317 0.024335568651992937 -0.0076404856836251754 0.029177807330834915 0.065224016358975928 -0.0073052296025208907 0.039946468154439779 0.021537321647209746 -0.0076404856836251754 0.01486271349687184 0.021445341923756217 0.033271863170155687 0.01486271349687184 0 0.029322131288318249
leaf_weight=18921113 137459 1089944 74118 547757 62847 16626 2041966 121679 111920 49458 169352 1099629 2968519 305603 46606 113040 41380 434037 135913 523515 333434 111283 31097 205570 11033 3781258 256410 13804 6723 193591 237167 697003 260689 192275 176948 884844 185884 9875 197707 85019 127256 111069 28972 179085 6272 189397 9602770 44619 209026 129625 1671439 164113 472853 761649 218255 98742 721626 153149 118570 187356 190212 1643349 114781
leaf_count=18921113 137459 1089944 74118 547757 62847 16626 2041966 121679 111920 49458 169352 1099629 2968519 305603 46606 113040 41380 434037 135913 523515 333434 111283 31097 205570 11033 3781258 256410 13804 6723 193591 237167 697003 260689 192275 176948 884844 185884 9875 197707 85019 127256 111069 28972 179085 6272 189397 9602770 44619 209026 129625 1671439 164113 472853 761649 218255 98742 721626 153149 118570 187356 190212 1643349 114781
internal_value=-0.000227904 -0.00163852 0.0154731 0.00143273 0.0109305 0.0215773 -0.00252174 0.00840404 0.00531712 -0.00122091 0.0144178 0.00050337 -0.00273113 0.00700907 0.0237326 0.0177465 0.02395 0.00193066 0.00797853 -0.00133076 0.00402694 0.00533189 0.0120751 0.0130551 0.0190625 0.000207601 -0.00155823 0.00793927 0.0170776 0.00618879 0.0250644 0.000515058 0.00548771 0.0193059 0.0220547 -0.00192672 0.0066946 0.0142344 0.0144196 0.000413547 0.011243 0.0103228 0.0168916 0.00885583 0.0124048 0.00130695 -0.00286594 0.00298756 0.00316465 0.0146431 -0.00190234 0.0183031 0.0253118 -0.0009383 0.0224747 0.0102834 -0.00113272 0.00736572 0.01141 0.0185575 0.00452529 -0.000317445 0.0119706
internal_weight=5.40283e+07 4.95744e+07 4.45389e+06 1.10723e+07 2.55358e+06 1.90031e+06 3.85021e+07 1.48079e+06 2.13764e+06 5.33829e+06 1.07278e+06 8.93462e+06 3.31638e+07 1.07305e+06 1.21611e+06 684204 1.19321e+06 1.53367e+06 697935 5.27503e+06 1.43971e+06 638308 407746 709350 480461 7.40095e+06 4.6665e+06 63262 363431 527025 751400 4.66766e+06 588360 469428 441809 2.92681e+06 450953 413152 403277 608534 347677 246982 60069 484688 22898 886400 2.85239e+07 801402 756783 203743 4.63996e+06 277153 710020 1.73968e+06 395203 220421 1.48328e+06 339033 296198 194079 327671 2.73329e+06 233351
internal_count=54028280 49574394 4453886 11072262 2553575 1900311 38502132 1480794 2137645 5338291 1072781 8934617 33163841 1073048 1216107 684204 1193209 1533666 697935 5275029 1439710 638308 407746 709350 480461 7400951 4666495 63262 363431 527025 751400 4667658 588360 469428 441809 2926810 450953 413152 403277 608534 347677 246982 60069 484688 22898 886400 28523883 801402 756783 203743 4639958 277153 710020 1739685 395203 220421 1483275 339033 296198 194079 327671 2733293 233351
is_linear=0
shrinkage=0.03


Tree=5
num_leaves=64
num_cat=0
split_feature=4 5 29 5 5 4 26 26 26 26 5 28 28 5 5 26 5 5 5 46 15 0 4 29 44 0 26 43 46 4 29 5 29 5 29 29 10 46 5 26 29 29 15 20 4 13 29 46 10 15 5 5 6 5 5 4 0 0 46 26 20 28 44
split_gain=1.31841e+06 141423 131437 46896 24998.2 15570.7 11555.4 8489 8425.8 5759.78 4461.55 4320.55 4156.02 4118.29 3349.8 2544.86 2500.72 2476.24 2389.6 2533.86 2214.88 1841.25 1815.87 1529.13 1505.95 1219.59 1160.69 1153.92 1150.8 1013.47 997.806 936.668 923.928 887.644 771.104 761.105 696.587 642.716 649.544 616.105 598.465 569.826 544.598 532.437 530.263 528.413 526.256 497.514 528.578 483.933 443.325 443.068 417.687 415.726 409.584 395.542 384.036 379.812 375.937 373.008 359.71 359.466 351.353
threshold=0.57666298747062694 -0.078492932021617876 0.91091233491897594 0.32854726910591131 0.92260602116584789 1.5827550888061526 0.0034955590963363652 0.16736749559640887 0.23238495737314227 0.27941823005676275 0.18553315103054049 0.7146875560283662 0.8834899663925172 -0.21050597727298734 0.63657769560813915 0.14959952980279925 0.59257334470748912 1.0216157436370852 0.51556575298309337 0.11538768932223321 0.30290503799915319 -0.15653926227241752 1.3731526136398318 0.7611488699913026 0.046463340520858772 1.0000000180025095e-35 0.15538620203733447 0.078452680259943022 0.11356438323855401 1.415073096752167 0.86265528202056896 -0.1555005460977554 1.3216426968574526 0.7135852873325349 1.2114295363426211 0.67892298102378856 1.0000000180025095e-35 0.07004160434007646 1.2746407985687258 0.32318715751171118 0.8275497853755952 1.0259131789207461 0.72848677635192882 1.0000000180025095e-35 0.28321942687034612 -0.74876970052719105 0.75051316618919384 0.085123304277658476 1.0000000180025095e-35 0.045373732224106796 0.44955924153327947 -0.1444994658231735 0.045864902436733253 0.72458633780479442 0.64757874608039867 -0.052144586108624928 -0.15653926227241752 -0.15653926227241752 0.18366409093141559 0.11762730032205583 1.0000000180025095e-35 0.67356005311012279 0.31699416041374212
decision_type=2 2 2 2 2 2 2 2 2 2 2 2 2 2 2 2 2 2 2 2 2 2 2 2 2 2 2 2 2 2 2 2 2 2 2 2 2 2 2 2 2 2 2 2 2 2 2 2 2 2 2 2 2 2 2 2 2 2 2 2 2 2 2
left_child=1 6 4 10 8 17 13 18 14 20 26 23 21 49 35 60 36 53 47 33 31 58 39 56 34 -14 43 -22 41 -13 -11 55 -27 -20 45 59 -9 38 -25 54 -18 61 -24 -3 -28 -23 -16 48 -5 -1 -38 -15 -29 -4 -10 -8 -6 -31 -7 -2 -12 -19 -26
right_child=2 3 5 7 11 12 9 16 22 30 15 29 25 51 46 -17 40 28 19 -21 27 24 42 37 62 32 44 52 -30 57 -32 -33 -34 -35 -36 -37 50 -39 -40 -41 -42 -43 -44 -45 -46 -47 -48 -49 -50 -51 -52 -53 -54 -55 -56 -57 -58 -59 -60 -61 -62 -63 -64
leaf_value=-0.035713744224026282 0.010445600998896725 0.0002292145705087556 0.023605501592433145 0.010590868159261978 0.026060885232582969 0.045222276561415697 -0.017304597716796231 0.010445600998896725 0.017856872112013145 0.016708487500055574 0.0057486294804200153 0.023605501592433145 0.057535895455455371 -0.018263686262118651 0.017856872112013145 0.010445600998896725 0.017865851477583804 0.02830247311090987 0.014416832091965688 0.012009807034510735 0.0063051198507906832 0.047166812305110835 0.02830247311090987 0.023605501592433145 0.038751672787423537 0.043372595842136909 0.005931226685992037 -0.0074112711131164195 0.031981316996389682 0.035713744224026282 0.042889184972411516 -0.0074112711131164195 0.067432394535351436 0.017856872112013145 0.045054727848063567 0.014416832091965688 0.014666273857934838 0.02830247311090987 0.030364532250948935 0.020891201997793454 0.023670289670397065 0.032273707275051022 0.04014095276102566 -7.0891104281090019e-06 0.010738985856384017 0.034651369683898002 0.017856872112013145 -0.0007448486270323773 0.010590868159261985 -0.017304597716796231 0.014416832091965688 -0.0074112711131164195 2.7114279082001146e-05 0.023605501592433145 0.020891201997793454 -0.0061293950133202773 0.02396279690499617 0.032273707275051022 0.039583056698131495 0.014416832091965688 0.0057486294804200153 0.02830247311090987 0.037705609739100629
leaf_weight=18921113 137459 1566144 69202 599059 62847 14771 2410577 116800 121679 52033 341667 169352 8523 2968519 305603 481187 135913 110700 335251 107030 175230 36779 31097 205570 23783 352315 834308 919343 6975 6723 13920 1129455 343369 196027 153414 260689 208049 9875 197707 127256 111069 147232 28972 4550557 110826 373478 179085 48091 229121 9602770 153149 1671439 470976 119124 98742 166757 233351 187356 4744 190212 948014 128888 7014
leaf_count=18921113 137459 1566144 69202 599059 62847 14771 2410577 116800 121679 52033 341667 169352 8523 2968519 305603 481187 135913 110700 335251 107030 175230 36779 31097 205570 23783 352315 834308 919343 6975 6723 13920 1129455 343369 196027 153414 260689 208049 9875 197707 127256 111069 147232 28972 4550557 110826 373478 179085 48091 229121 9602770 153149 1671439 470976 119124 98742 166757 233351 187356 4744 190212 948014 128888 7014
internal_value=-0.000258647 -0.00166333 0.0153763 0.00132464 0.0109305 0.0213504 -0.00252259 0.00520201 0.00840404 -0.0012272 0.000341527 0.0144178 0.023155 -0.00273111 0.00700907 0.00168795 0.00787164 0.0172639 0.00392414 0.00532032 -0.00133741 0.021351 0.0120751 0.0130551 0.0216486 0.0247279 3.8885e-06 -0.000391261 0.018617 0.0170776 0.00758345 -0.00173702 0.0248661 0.0061687 0.0220016 0.00548771 0.00660512 0.0142344 0.0144196 0.011243 0.0103228 0.0188348 0.0168916 -0.000147296 0.000982323 0.021323 0.00885583 0.00290711 0.00307937 -0.00286594 0.00725637 -0.00190222 -0.000680411 0.0144346 0.0102834 -0.00205271 0.01141 0.0185575 0.0122836 0.00452529 0.000993289 0.0179322 0.0151888
internal_weight=5.40283e+07 4.95744e+07 4.45389e+06 1.10723e+07 2.55358e+06 1.90031e+06 3.85021e+07 2.23956e+06 1.48079e+06 5.33829e+06 8.8327e+06 1.07278e+06 1.31819e+06 3.31638e+07 1.07305e+06 1.77087e+06 724980 582121 1.51458e+06 638308 5.27234e+06 613983 407746 709350 594468 704207 7.06184e+06 1.56555e+06 393795 363431 65953 3.70679e+06 695684 531278 563671 588360 477998 413152 403277 347677 246982 386820 60069 6.1167e+06 945134 410257 484688 876271 828180 2.85239e+07 361198 4.63996e+06 1.39032e+06 188326 220421 2.57733e+06 296198 194079 19515 327671 1.28968e+06 239588 30797
internal_count=54028280 49574394 4453886 11072262 2553575 1900311 38502132 2239559 1480794 5338291 8832703 1072781 1318190 33163841 1073048 1770868 724980 582121 1514579 638308 5272338 613983 407746 709350 594468 704207 7061835 1565549 393795 363431 65953 3706789 695684 531278 563671 588360 477998 413152 403277 347677 246982 386820 60069 6116701 945134 410257 484688 876271 828180 28523883 361198 4639958 1390319 188326 220421 2577334 296198 194079 19515 327671 1289681 239588 30797
is_linear=0
shrinkage=0.03


Tree=6
num_leaves=64
num_cat=0
split_feature=5 5 4 5 29 26 26 5 26 4 4 5 5 29 29 26 46 26 15 29 4 26 5 26 46 5 29 28 0 28 15 44 5 4 29 4 5 44 46 4 46 29 4 10 26 13 13 4 0 5 44 4 28 26 46 26 10 43 29 11 0 42 10
split_gain=1.29938e+06 130918 128563 33252.4 22432.5 19487 18397 9318.83 9186.09 6961.14 6656.72 5195.15 4216.88 4029.12 3985.55 3256.3 3199.7 2944.1 2324.26 1935.83 1868.51 1662.95 1641.4 1592.06 1488.88 1483.45 1428.09 1406.98 1333.16 1045.75 1039.73 1017.63 941.121 898.441 854.755 845.538 775.012 704.14 695.263 643.169 627.175 616.483 598.682 591.617 571.601 569.221 556.159 553.692 543.273 539.666 494.347 466.858 433.521 425.433 424.871 424.012 419.592 403.114 402.713 390.295 388.386 380.004 346.24
threshold=0.55957007408142101 -0.08949402347207068 1.2893115282058718 0.27354182302951818 0.98724260926246654 0.28336951136589056 0.19904328882694247 -0.21050597727298734 0.18713577836751941 0.61858350038528453 0.61858350038528453 0.92260602116584789 0.93360707163810741 0.7856738567352296 1.2114295363426211 0.11067511141300203 0.12735214084386828 0.15538620203733447 0.70772993564605724 0.89259725809097301 0.87010648846626293 0.23238495737314227 0.40555486083030706 0.046490343287587173 0.063134230673313155 0.14152878522872928 0.8275497853755952 0.69310927391052257 -0.15653926227241752 0.58227339386940014 0.12310881167650224 0.058944296091794975 0.74658855795860302 0.073616927489638342 0.8275497853755952 0.1574579328298569 0.41655594110488897 0.1440156772732735 0.019550807774066929 -0.094065088778734193 0.083941981196403517 0.7611488699913026 0.66050401329994213 1.0000000180025095e-35 0.107476644217968 -0.80584731698036183 -0.38918069005012507 0.32513995468616491 -0.15653926227241752 -0.1555005460977554 0.17087782919406894 3.7207006216049199 0.7146875560283662 0.34209236502647405 0.15542745590209964 0.2717061340808869 1.0000000180025095e-35 1.0000000180025095e-35 0.8275497853755952 0.75058212876319896 -0.15653926227241752 0.99902650713920604 1.0000000180025095e-35
decision_type=2 2 2 2 2 2 2 2 2 2 2 2 2 2 2 2 2 2 2 2 2 2 2 2 2 2 2 2 2 2 2 2 2 2 2 2 2 2 2 2 2 2 2 2 2 2 2 2 2 2 2 2 2 2 2 2 2 2 2 2 2 2 2
left_child=1 5 6 10 13 7 9 15 22 16 17 26 41 29 28 30 32 35 42 -13 36 -12 44 49 45 47 55 50 -6 -4 -1 52 62 -25 -14 46 -10 -17 -21 -32 43 -11 -7 -24 -5 -16 -3 -19 -29 -9 60 -47 -30 -22 -36 -8 -38 -50 -34 -46 -15 -23 -2
right_child=2 3 4 8 14 18 11 23 20 12 21 19 34 27 24 37 -18 25 -20 38 53 61 40 33 -26 -27 -28 48 31 -31 39 -33 58 -35 54 -37 56 -39 -40 -41 -42 -43 -44 -45 59 51 -48 -49 57 -51 -52 -53 -54 -55 -56 -57 -58 -59 -60 -61 -62 -63 -64
leaf_value=-0.034642331897305492 0.013315222411894327 0.00024426999814550096 0.027723583442518813 0.0055761705960074128 0.041136457015641344 0.017567690026943708 0.01732116594865275 -0.0088372071168634318 0.01272503031278336 0.013984327129206714 0.013984327129206714 0.022897336544660148 0.020083097758893647 0.034147706244853082 0.065146336737901267 0.0063021654631895546 0.014402533586872632 0.0054089448797277704 0.048346449844241031 0.027453398917582573 0.021523762754283009 0.020854658036970619 0.010273142114484121 -0.0071533372993064304 0.054512137696332626 0.010132232968929823 0.020264465937859653 0.036119047861907588 0.033303951779474268 0.028713559451703705 -0.016785459785292341 0.034920348239222375 0.01732116594865275 0.0060121358218723393 0.022897336544660148 0.0055761705960074128 0.013315222411894327 -0.0067790655682354768 0.031021877486497998 -0.0046215060041644128 0.0049359193357065376 0.01732116594865275 0.02484305879917437 0.013984327129206714 0.0093598089731550798 0.040476056426105814 -2.8808301867282448e-05 0.010700087573286556 0.033011561500812935 -0.0071889329797229264 0.02836698299851757 0.063694668594676623 0.037780117941112183 0.03378121804416169 0.026397355754167674 0.020264465937859653 0.013984327129206714 0.026874779611372475 0.020854658036970619 0.010445791391190109 0.029453596283420466 0.04215295082536083 0.013984327129206714
leaf_weight=23648759 245816 1485586 72220 616921 14276 54840 182143 3148195 321824 317713 70639 244587 231093 19860 27838 137307 99222 770412 27959 237798 42437 28186 534198 1502252 6298 448325 261982 8875 147852 148481 6500597 21491 191774 125058 132845 1591390 62607 187396 10221 183083 36245 148744 17675 210301 320243 201668 4419838 56920 261830 2524750 10219 380534 443861 18259 3072 92067 216803 105179 47465 112904 182360 10321 96666
leaf_count=23648759 245816 1485586 72220 616921 14276 54840 182143 3148195 321824 317713 70639 244587 231093 19860 27838 137307 99222 770412 27959 237798 42437 28186 534198 1502252 6298 448325 261982 8875 147852 148481 6500597 21491 191774 125058 132845 1591390 62607 187396 10221 183083 36245 148744 17675 210301 320243 201668 4419838 56920 261830 2524750 10219 380534 443861 18259 3072 92067 216803 105179 47465 112904 182360 10321 96666
internal_value=-0.000264423 -0.00168304 0.0149933 0.00114103 0.0205781 -0.00252707 0.0104854 -0.002562 0.00420283 0.00838241 0.000281692 0.0135812 0.0102209 0.0166896 0.0231073 -0.00279138 0.00613217 0.000190081 0.0106674 0.0158053 0.00723158 0.00764482 0.00310778 -0.00159872 0.0248207 0.0015224 0.0115378 0.0179863 0.0214242 0.013233 -0.00282337 0.0216352 0.00698149 -0.000771538 0.0126265 -3.66259e-05 0.00672515 0.000196952 0.0176729 -0.00249298 0.00414953 0.00832805 0.00783417 0.00433713 0.00233323 0.0249706 -0.000202017 0.000769308 0.0190892 -0.001836 0.0160348 0.0251709 0.0218681 0.0122481 0.0145144 0.0100245 0.00788111 0.0192666 0.00842523 0.00316855 0.0163601 0.0126603 0.00597297
internal_weight=5.40283e+07 4.94322e+07 4.59605e+06 1.13744e+07 2.05284e+06 3.80579e+07 2.54321e+06 3.79574e+07 2.49274e+06 1.51441e+06 8.88162e+06 1.0288e+06 833467 809024 1.24382e+06 3.06571e+07 680943 8.77247e+06 100474 492606 661930 109146 1.83081e+06 7.30026e+06 616338 1.27566e+06 536192 588323 627480 220701 3.03324e+07 613204 581721 1.62731e+06 367010 7.49681e+06 601234 324703 248019 6.68368e+06 780744 466457 72515 744499 1.05007e+06 610040 5.90542e+06 827332 375884 5.67294e+06 212439 582202 591713 60696 135917 274210 279410 367009 239239 433147 202220 38507 342482
internal_count=54028280 49432230 4596050 11374359 2052842 38057871 2543208 37957397 2492742 1514410 8881617 1028798 833467 809024 1243818 30657142 680943 8772471 100474 492606 661930 109146 1830812 7300255 616338 1275657 536192 588323 627480 220701 30332439 613204 581721 1627310 367010 7496814 601234 324703 248019 6683680 780744 466457 72515 744499 1050068 610040 5905424 827332 375884 5672945 212439 582202 591713 60696 135917 274210 279410 367009 239239 433147 202220 38507 342482
is_linear=0
shrinkage=0.03


Tree=7
num_leaves=64
num_cat=0
split_feature=5 5 29 5 4 26 4 46 5 26 4 26 5 29 4 26 46 15 5 26 4 26 5 28 26 26 5 46 0 26 28 15 13 5 4 44 29 5 13 5 26 4 26 35 44 46 10 4 4 5 28 28 25 26 46 10 23 11 29 10 5 42 29
split_gain=1.23152e+06 125436 123662 29658.5 23610.2 19257.6 18114.2 9829.04 9291.33 8802.08 6363.62 4905.01 4269.38 3529.96 3366.44 3104.17 2554.86 2258.72 2112.54 2065.83 1891.34 1808.19 1716.88 1608.34 1558.7 1545.67 1521.65 1278.44 1183.08 1115 1077.68 958.001 956.342 847.883 833.762 832.714 745.016 717.165 664.796 647.565 614.203 607.992 596.641 568.019 562.342 554.68 573.123 544.339 519.488 488.744 483.653 445.476 392.285 384.855 382.654 371.468 366.394 362.489 360.087 347.779 343.861 341.851 335.261
threshold=0.53756791353225719 -0.08949402347207068 0.91091233491897594 0.26254074275493627 2.1696420907974248 0.28336951136589056 0.82818600535392772 0.13312406837940219 -0.21050597727298734 0.18713577836751941 0.61858350038528453 0.16908565163612368 1.0106146931648257 1.2114295363426211 1.0377885699272158 0.097003228962421431 0.10155995562672616 0.70772993564605724 0.10852554440498353 0.14371347427368167 0.87010648846626293 0.2717061340808869 0.74658855795860302 0.67356005311012279 0.23238495737314227 0.034297576174139983 0.39455378055572515 0.048012103885412223 -0.15653926227241752 0.26072351634502416 0.70358514785766613 0.11275335773825647 -0.76161211729049672 0.79059287905693065 0.1574579328298569 0.15833791345357898 0.71925306320190441 0.41655594110488897 -0.80584731698036183 0.75758960843086254 0.010358536150306465 0.66050401329994213 0.10966636240482332 0.27374586462974554 0.17177134007215503 0.083941981196403517 1.0000000180025095e-35 -0.094065088778734193 0.4089809656143189 -0.1555005460977554 0.82068645954132091 0.92818346619606029 0.33434593677520758 0.34209236502647405 0.25925576686859136 1.0000000180025095e-35 0.88140752911567699 0.75058212876319896 1.1317933797836306 1.0000000180025095e-35 -0.1444994658231735 0.99902650713920604 0.7611488699913026
decision_type=2 2 2 2 2 2 2 2 2 2 2 2 2 2 2 2 2 2 2 2 2 2 2 2 2 2 2 2 2 2 2 2 2 2 2 2 2 2 2 2 2 2 2 2 2 2 2 2 2 2 2 2 2 2 2 2 2 2 2 2 2 2 2
left_child=1 5 6 10 7 8 11 14 15 26 18 16 21 28 39 31 22 41 40 -20 37 36 55 43 -12 49 42 38 -6 33 44 -1 -30 -13 60 -17 -8 -11 -15 -4 -3 -7 -5 -14 -16 46 -28 -33 -42 -10 -25 -34 -40 -22 -9 -2 -19 -44 -32 -39 -27 -26 -24
right_child=2 3 4 9 13 17 12 54 25 20 24 29 23 27 30 35 -18 56 19 -21 53 -23 62 50 61 34 45 -29 32 -31 58 47 51 -35 -36 -37 -38 59 52 -41 48 -43 57 -45 -46 -47 -48 -49 -50 -51 -52 -53 -54 -55 -56 -57 -58 -59 -60 -61 -62 -63 -64
leaf_value=-0.033603061940386328 0.012895692598018128 -0.0076331646338237856 0.019128587327571722 0.0054088854781271919 0.043445491467836841 0.017040659326135396 0.016901636134776552 0.033563087468227518 -0.017450659460749193 0.0098282659798619321 0.013564797315330517 0.013676132865772191 0.029429270029413993 0.063191946635764246 0.028780602150841734 0.0057016087703766535 0.011217436815869232 0.028324884588354724 0.0054088854781271919 0.0059440711455630256 0.020878049871654519 0.024137319810026779 0.016801530970193167 0.025690627479444783 0.020229018295861503 -0.0066491344620725765 0.0099649478510495972 0.054543863027722919 0.047062093712040044 0.019656531959723864 0.029031074969006514 -0.016281895991733571 0.035767335296671872 0.019744830959400071 0.007215371320168717 -0.0066603626140047086 0.018852913417204901 0.012915765739537495 0.064589605132905653 0.024813758422815781 1.2688535295790615e-08 0.024097767035199138 0.009079014703960428 0.024873034991606757 0.027744513609432545 0.00494223346608837 0.013564797315330517 -0.0048181169051437611 0.010404589040776275 -0.0069732649903312361 0.030315149211775107 0.040374802091048718 0.044466526812143685 0.032767781502836837 0.0093459394232148149 0.013564797315330517 0.058412932258868566 0.010109528331887871 0.034106702606780455 0.013564797315330517 -0.0069743328607437321 0.041213836614447746 0.01781936363889218
leaf_weight=23063143 344482 2123449 70320 669060 11443 54840 189310 10950 3017189 348030 65726 233184 69423 26795 269571 179590 85513 15335 1862157 607368 37849 105558 208866 303711 26582 981177 519996 5517 45831 184080 307800 6996767 212429 150994 74066 241300 233110 52393 282060 212332 3989203 17675 308540 321087 9304 34833 205771 176342 58665 2365055 103442 143169 258728 16786 28488 125355 12624 112683 70955 187443 862768 9858 110210
leaf_count=23063143 344482 2123449 70320 669060 11443 54840 189310 10950 3017189 348030 65726 233184 69423 26795 269571 179590 85513 15335 1862157 607368 37849 105558 208866 303711 26582 981177 519996 5517 45831 184080 307800 6996767 212429 150994 74066 241300 233110 52393 282060 212332 3989203 17675 308540 321087 9304 34833 205771 176342 58665 2365055 103442 143169 258728 16786 28488 125355 12624 112683 70955 187443 862768 9858 110210
internal_value=-0.000302396 -0.00170601 0.0143132 0.0010791 0.0200672 -0.0025283 0.0102274 0.0167689 -0.00256302 0.00396524 0.00025601 0.00790118 0.012759 0.0233446 0.0173843 -0.00279207 0.00649103 0.0105883 0.000168003 0.000909532 0.00699057 0.0106664 0.00702491 0.0141441 0.00769935 -0.00160117 0.00291506 0.0248682 0.0212298 0.0100711 0.0185611 -0.00282768 0.0215009 0.00915124 -0.000869919 -0.000233435 0.00978874 0.00649436 0.0250079 0.0146462 -0.000128729 0.00779528 0.0021966 0.0127686 0.0171458 0.00394492 0.00412241 -0.00252489 8.80397e-05 -0.00186176 0.0154634 0.0220266 0.0252365 0.0123297 0.00209661 0.00587159 0.0178323 0.00308108 0.0196032 0.0077566 -0.000995277 0.0126759 0.00872316
internal_weight=5.40283e+07 4.92943e+07 4.73402e+06 1.12364e+07 1.96569e+06 3.80579e+07 2.76832e+06 979720 3.79574e+07 2.49338e+06 8.74301e+06 1.44268e+06 1.32564e+06 985972 940282 3.06571e+07 874426 100474 8.64084e+06 2.46952e+06 642501 527978 788913 797663 102166 7.30026e+06 1.85088e+06 573100 412872 568258 657630 3.02363e+07 401429 384178 1.91801e+06 420890 422420 587866 567583 282652 6.17132e+06 72515 1.09028e+06 390510 278875 760600 725767 7.17311e+06 4.04787e+06 5.38224e+06 407153 355598 540788 54635 39438 469837 27959 421223 378755 239836 1.84394e+06 36440 319076
internal_count=54028280 49294263 4734017 11236392 1965692 38057871 2768325 979720 37957397 2493384 8743008 1442684 1325641 985972 940282 30657142 874426 100474 8640842 2469525 642501 527978 788913 797663 102166 7300255 1850883 573100 412872 568258 657630 30236252 401429 384178 1918011 420890 422420 587866 567583 282652 6171317 72515 1090283 390510 278875 760600 725767 7173109 4047868 5382244 407153 355598 540788 54635 39438 469837 27959 421223 378755 239836 1843945 36440 319076
is_linear=0
shrinkage=0.03


Tree=8
num_leaves=64
num_cat=0
split_feature=5 29 5 5 4 26 4 5 26 26 28 4 46 46 29 26 5 29 15 26 4 29 26 26 5 29 46 4 5 5 0 5 4 4 29 13 26 20 13 44 5 5 29 5 4 10 25 6 46 10 5 4 28 43 20 29 15 46 26 44 26 35 5
split_gain=1.17773e+06 128670 115556 26328.7 25837.9 18417.2 15932.4 8309.56 7908 7753.66 7712.42 6250.73 6160.12 3346.33 2857.24 2851.12 2845.05 2835.33 2231.21 2098.08 1718.37 1589.31 1567.36 1475.25 1375.27 1367.17 1326.44 1185.07 1147.14 1136.64 968.691 910.801 809.049 763.729 730.132 705.53 680.885 662.183 643.567 608.913 563.253 557.183 557.149 523.014 517.528 516.058 477.868 469.793 466.536 486.704 465.753 463.346 457.188 457.056 450.941 444.974 394.195 393.298 363.728 350.942 348.044 347.333 346.231
threshold=0.51556575298309337 0.98724260926246654 -0.08949402347207068 0.26254074275493627 0.87010648846626293 0.28336951136589056 1.9600396752357485 -0.21050597727298734 0.17587895691394809 0.18713577836751941 0.7146875560283662 0.61858350038528453 0.18366409093141559 0.10155995562672616 0.74092915654182445 0.12124089151620866 0.7135852873325349 1.2114295363426211 0.72848677635192882 0.20318813621997836 0.87010648846626293 0.81835255026817333 0.042596779763698585 0.23238495737314227 -0.33151793479919428 0.80911555886268627 0.048012103885412223 1.2054705023765566 0.38355270028114324 1.0000000180025095e-35 -0.15653926227241752 0.13052770495414737 0.073616927489638342 2.0438807010650639 0.85049504041671764 -0.76161211729049672 0.25040681660175329 1.0000000180025095e-35 -0.80584731698036183 0.1238866336643696 0.86760053038597118 0.66958096623420726 0.75051316618919384 -0.1555005460977554 0.57666298747062694 1.0000000180025095e-35 0.33434593677520758 0.34216222167015081 0.083941981196403517 1.0000000180025095e-35 0.74658855795860302 0.32513995468616491 0.84913116693496715 1.0000000180025095e-35 1.0000000180025095e-35 1.0708141922950747 0.69005262851715099 0.019550807774066929 0.018099794164299968 0.24115552753210071 0.26072351634502416 0.27052177488803869 0.38355270028114324
decision_type=2 2 2 2 2 2 2 2 2 2 2 2 2 2 2 2 2 2 2 2 2 2 2 2 2 2 2 2 2 2 2 2 2 2 2 2 2 2 2 2 2 2 2 2 2 2 2 2 2 2 2 2 2 2 2 2 2 2 2 2 2 2 2
left_child=2 4 5 11 9 7 12 15 28 13 14 19 27 16 40 24 45 30 44 29 36 -12 43 -13 53 50 38 -3 54 58 -8 51 -24 -23 -16 -32 -10 -31 -19 -26 -6 -27 -18 -9 -7 -2 -40 -17 49 -30 60 -21 -37 -1 -5 -29 -22 -43 -4 -36 -11 -42 -38
right_child=1 6 3 8 10 18 17 22 20 25 21 23 -14 -15 34 47 42 26 -20 31 56 33 32 -25 39 41 -28 55 48 37 35 -33 -34 -35 59 52 62 -39 46 -41 61 57 -44 -45 -46 -47 -48 -49 -50 -51 -52 -53 -54 -55 -56 -57 -58 -59 -60 -61 -62 -63 -64
leaf_value=-0.0039944039442874786 0.012388643513974834 0.025885384197370624 -0.0074101945714036182 0.0096564825227917848 0.016394587050733257 0.017060808599386114 0.042151396691813302 -0.016927139676926717 0.0095334180004660752 0.01315451332935735 0.024124517272174913 0.013157853395870599 0.023132510900427963 0.012325067248142196 0.022680912476653117 -0.00052618534928729362 0.01629748504108737 0.061296188236691314 0.047366912094526654 0.0055767887982692745 0.020251708375504881 0.02491990865506144 -0.0067640350045089261 0.027274274460487698 -0.0053270683945371468 0.01612353601172524 0.052538138570070038 0.02790312839844131 0.009665999415518111 0.0052466189137833786 0.046280033269612372 0.0096499438454950431 0.0055911298498799054 0.035230372679605208 0.02529125259506132 0.033787355317541873 0.012638623523114973 1.2307879235784468e-08 0.06265191697891849 -0.013509148015651852 0.026008997838360824 0.020415737743513202 0.018387837323192494 -0.0067640670406213018 0.022547248500892052 0.013157853395870599 0.042768390599415389 0.010789036163850378 0.0050434200486662072 0.0099435904322600945 0.019066836000932143 0.010270716449578506 0.038099712323518047 -0.032594970082174733 0.0052466189137833786 0.03144141516156479 0.030573009299844009 0.021884516869202005 -2.151327898178179e-05 0.023323803294551592 0.016482073027563278 0.022134370981036176 0.013688422298098987
leaf_weight=114549 422546 153746 1549677 270636 129243 53838 9116 3108217 351893 122015 188389 65726 22354 103610 328770 214497 287912 27137 25060 320777 33621 300177 1585894 36440 320463 110133 5773 140169 480381 1324526 36101 259480 129447 126376 340131 151060 130733 3468034 282492 12459013 54544 203321 202870 2476697 21576 160533 273395 51448 32826 186420 119752 30444 203192 17497172 708881 141573 17701 13473 1687904 7071 63356 148427 135552
leaf_count=114549 422546 153746 1549677 270636 129243 53838 9116 3108217 351893 122015 188389 65726 22354 103610 328770 214497 287912 27137 25060 320777 33621 300177 1585894 36440 320463 110133 5773 140169 480381 1324526 36101 259480 129447 126376 340131 151060 130733 3468034 282492 12459013 54544 203321 202870 2476697 21576 160533 273395 51448 32826 186420 119752 30444 203192 17497172 708881 141573 17701 13473 1687904 7071 63356 148427 135552
internal_value=-0.00029402 0.0137645 -0.00168952 0.00100501 0.0106023 -0.00247482 0.0212707 -0.00250877 0.00382508 0.00813721 0.0133504 0.000247453 0.0166443 0.00669843 0.0117354 -0.00272537 0.0071952 0.023414 0.0103524 0.00016023 0.00658194 0.0159983 -0.00159915 0.00762447 -0.00275244 0.0108176 0.0247376 0.0174327 0.00272588 3.13134e-05 0.0214631 0.00185535 -0.000805976 0.0170118 0.012855 0.0216889 0.00614402 0.000324671 0.0248792 -0.00251553 0.00945724 0.0121655 0.00887831 -0.00184277 0.00777532 0.00577852 0.0250995 0.00036735 0.00365369 0.00382557 0.0093733 0.000859535 0.022096 -0.00292435 0.00206319 0.0185888 0.0118568 0.0130482 -0.000402941 0.0138144 0.00843124 0.010443 0.00728856
internal_weight=5.40283e+07 4.87876e+06 4.91495e+07 1.10917e+07 3.43265e+06 3.80579e+07 1.44611e+06 3.79574e+07 2.34864e+06 1.80952e+06 1.62313e+06 8.74301e+06 457842 1.17747e+06 1.00819e+06 3.06571e+07 1.07386e+06 988266 100474 8.64084e+06 669500 614942 7.30026e+06 102166 3.03912e+07 632050 588797 435488 1.67914e+06 8.03014e+06 399469 610701 1.71534e+06 426553 675972 390353 618178 4.79256e+06 583024 1.27795e+07 332214 326927 490782 5.58491e+06 75414 583079 555887 265945 699627 666801 305123 351221 354252 1.76117e+07 979517 281742 51322 216794 3.23758e+06 347202 185371 202971 266285
internal_count=54028280 4878757 49149523 11091652 3432649 38057871 1446108 37957397 2348644 1809521 1623128 8743008 457842 1177471 1008186 30657142 1073861 988266 100474 8640842 669500 614942 7300255 102166 30391197 632050 588797 435488 1679144 8030141 399469 610701 1715341 426553 675972 390353 618178 4792560 583024 12779476 332214 326927 490782 5584914 75414 583079 555887 265945 699627 666801 305123 351221 354252 17611721 979517 281742 51322 216794 3237581 347202 185371 202971 266285
is_linear=0
shrinkage=0.03


Tree=9
num_leaves=64
num_cat=0
split_feature=5 4 5 5 29 26 26 5 26 4 4 29 28 46 28 26 5 5 26 26 26 4 5 26 5 0 29 5 5 5 44 29 0 5 29 44 4 29 0 26 20 29 26 5 26 4 44 5 10 46 10 20 29 4 4 46 10 15 17 44 5 35 26
split_gain=1.12293e+06 135084 114965 26341.2 20412.7 19604 17579.9 8258.46 7786.06 6256.02 6075.25 5995.52 3251.07 3133.09 3033.78 2779.6 2253.92 2086.76 2045.01 2033.86 1528.35 1492.15 1463.73 1352.98 1309.66 1275.15 1252.41 1163.03 1147.14 1039.6 982.142 852.305 847.105 809.194 786.235 745.081 744.345 736.685 715.765 680.885 620.403 615.642 547.485 543.819 532.774 513.198 497.513 489.4 479.482 466.536 486.704 450.941 438.555 434.09 424.483 418.389 402.362 393.889 379.009 376.296 376.189 360.78 357.64
threshold=0.51556575298309337 1.6246756315231325 -0.08949402347207068 0.26254074275493627 1.0259131789207461 0.18713577836751941 0.27941823005676275 -0.21050597727298734 0.17587895691394809 0.66050401329994213 0.61858350038528453 0.86265528202056896 0.74086645245552074 0.10663825646042825 0.92818346619606029 0.096075978130102171 0.81259506940841686 1.2526385188102724 0.21215328574180606 0.52161118388175975 0.034297576174139983 0.87010648846626293 0.7135852873325349 0.23238495737314227 -0.33151793479919428 -0.15653926227241752 0.80082893371582042 1.0000000180025095e-35 0.38355270028114324 0.70258423686027538 0.11549031734466554 1.0259131789207461 1.0000000180025095e-35 0.13052770495414737 1.1317933797836306 0.16529855877161029 0.1993784308433533 0.87650212645530712 -0.15653926227241752 0.25040681660175329 1.0000000180025095e-35 1.5450725555419924 0.30113084614276892 1.4946624636650088 0.2717061340808869 0.53474250435829174 0.1238866336643696 -0.1555005460977554 1.0000000180025095e-35 0.083941981196403517 1.0000000180025095e-35 1.0000000180025095e-35 0.80911555886268627 0.32513995468616491 0.61858350038528453 0.074916705489158644 1.0000000180025095e-35 0.87994167208671581 0.074241660535335555 0.16703470051288608 0.17453207075595858 0.30147387087345129 0.018099794164299968
decision_type=2 2 2 2 2 2 2 2 2 2 2 2 2 2 2 2 2 2 2 2 2 2 2 2 2 2 2 2 2 2 2 2 2 2 2 2 2 2 2 2 2 2 2 2 2 2 2 2 2 2 2 2 2 2 2 2 2 2 2 2 2 2 2
left_child=2 5 6 10 12 9 7 15 28 13 18 29 26 22 25 24 -11 48 27 45 47 39 56 -12 -1 -6 -3 62 51 44 34 55 -16 53 -27 -17 -22 -14 -18 -10 60 -34 61 -40 -7 -8 -26 -9 -13 50 -30 -5 -24 -20 -50 -19 -2 -21 -15 -28 -29 -31 -4
right_child=1 4 3 8 14 11 19 20 21 16 23 17 37 58 32 35 38 31 33 57 36 -23 52 -25 46 30 59 40 49 42 -32 -33 41 -35 -36 -37 -38 -39 43 -41 -42 -43 -44 -45 -46 -47 -48 -49 54 -51 -52 -53 -54 -55 -56 -57 -58 -59 -60 -61 -62 -63 -64
leaf_value=-0.031617120979709493 0.0088570466067376119 0.029305803491537458 -0.0071878887342615118 0.0093667880471080302 0.041602904874702251 0.013171340783544257 0.016017615288369747 -0.016419325486618921 0.009247415460452095 0.012806267231970727 0.012763117793994484 0.017910277553895598 0.03055730480194379 0.017270125994104525 0.056088861010724987 0.0050756831451628853 0.020735989927374826 0.026161746818142585 0.0054094851343211986 0.029101363161908263 -0.0065363420963297962 0.023370927246856233 0.015808560489854753 0.026456046226673066 -0.005374058077544288 0.032644363947836326 0.029791517244153156 0.00030188786447882477 0.0093760194330525671 0.019588720513477733 0.037594481578714936 0.030427703409589175 0.041036478371065714 0.00936044553013019 0.0380969901938134 -0.0063918797427841767 0.010270443167669676 0.031727671609692705 0.01792083845486768 0.013155323514482006 1.193864286097579e-08 0.065701458552497718 0.021655646159856819 0.02527918213926671 0.016197752120952914 0.020262268331937609 -0.013103873575182294 -0.0065611450294026635 0.017834546878206854 0.0048921174472062214 0.0096452827192922939 0.0050892203463698757 0.018933972884579375 0.010140916709801977 0.021264855133304551 0.028034496463874781 0.012763117793994484 0.055239536928266719 -0.04276936850702661 0.027313831694263439 0.0052599239002846503 0.019205509691147191 -2.0867880612327472e-05
leaf_weight=17591727 328656 88457 1549677 270636 11625 172856 52963 3017189 351893 306181 65726 62238 98752 78534 5457 191871 54863 192850 264711 14970 1866650 51322 228634 36440 304042 170056 159564 1028123 480381 71151 10978 121780 346618 230314 288833 234502 50456 207819 385912 266285 3513343 194088 91526 84783 93827 22951 12333008 2365055 93111 32826 186420 708881 65302 27507 282171 5911 125097 12487 37329 8611 317026 405187 1710141
leaf_count=17591727 328656 88457 1549677 270636 11625 172856 52963 3017189 351893 306181 65726 62238 98752 78534 5457 191871 54863 192850 264711 14970 1866650 51322 228634 36440 304042 170056 159564 1028123 480381 71151 10978 121780 346618 230314 288833 234502 50456 207819 385912 266285 3513343 194088 91526 84783 93827 22951 12333008 2365055 93111 32826 186420 708881 65302 27507 282171 5911 125097 12487 37329 8611 317026 405187 1710141
internal_value=-0.000329145 0.0133984 -0.00169179 0.000995837 0.0205748 0.00992601 -0.00247507 -0.00250872 0.00381658 0.00768075 0.000238099 0.012316 0.0159845 0.00589221 0.0230906 -0.00272466 0.00953769 0.0142473 0.000152109 0.00987982 -0.00160184 0.0065521 0.00660355 0.00751083 -0.00275859 0.0213545 0.0134933 3.50201e-05 0.00272588 0.0105617 0.0215974 0.0160863 0.024621 0.00197125 0.0218095 -0.00031932 -0.000874484 0.0180699 0.0107297 0.00614402 0.000329143 0.0247397 0.0112873 0.0111077 0.00901663 0.00734908 -0.00252561 -0.00186092 0.0129001 0.00365369 0.00382557 0.00206319 0.00825275 0.000923166 0.0133045 0.0148754 0.00553522 0.0168769 0.0013018 0.0150132 0.00087702 0.010879 -0.000403347
internal_weight=5.40283e+07 4.87876e+06 4.91495e+07 1.10917e+07 1.59086e+06 3.2879e+06 3.80579e+07 3.79545e+07 2.34864e+06 1.69529e+06 8.74301e+06 1.59261e+06 563203 863552 1.02766e+06 3.06552e+07 831739 758061 8.64084e+06 103371 7.29935e+06 669500 747689 102166 3.02288e+07 481492 256632 8.11831e+06 1.67914e+06 834547 469867 320541 546163 522532 458889 426373 1.91711e+06 306571 525558 618178 4.85849e+06 540706 567864 470695 266683 75914 1.2637e+07 5.38224e+06 437520 699627 666801 979517 293936 292218 375282 198761 453753 27457 115863 168175 1.34515e+06 476338 3.25982e+06
internal_count=54028280 4878757 49149523 11091652 1590858 3287899 38057871 37954500 2348644 1695291 8743008 1592608 563203 863552 1027655 30655150 831739 758061 8640842 103371 7299350 669500 747689 102166 30228777 481492 256632 8118310 1679144 834547 469867 320541 546163 522532 458889 426373 1917106 306571 525558 618178 4858492 540706 567864 470695 266683 75914 12637050 5382244 437520 699627 666801 979517 293936 292218 375282 198761 453753 27457 115863 168175 1345149 476338 3259818
is_linear=0
shrinkage=0.03


Tree=10
num_leaves=64
num_cat=0
split_feature=5 4 5 29 5 26 26 26 5 4 5 4 29 28 46 26 15 29 5 5 26 29 29 4 14 26 28 26 15 46 29 5 5 4 11 44 5 26 46 26 44 0 4 26 10 46 44 5 20 13 20 5 42 28 29 5 28 5 4 13 35 29 10
split_gain=1.06255e+06 152433 103230 22921.9 21194.8 17501.8 16008.8 6895.42 6867.58 5498.92 5343.34 5217.95 4260.31 4060.99 2961.9 2396.77 2343.49 1926.1 1882.7 1799.55 1662.11 1640.17 1492.39 1459.42 1449.79 1415.53 1394.2 1291.2 1211.92 976.878 922.977 922.688 812.11 736.199 689.796 682.291 673.691 664.53 583.492 580.429 542.33 541.519 541.192 528.818 521.246 469.165 469.045 461.27 445.277 443.938 432.887 412.068 393.198 391.825 386.527 378.643 375.087 363.786 359.914 360.941 348.619 347.412 344.286
threshold=0.47156140208244329 1.4989140629768374 -0.10049511492252348 1.0259131789207461 0.24053857475519183 0.19108577072620395 0.26072351634502416 0.16736749559640887 -0.21050597727298734 0.57666298747062694 1.1976331472396853 0.66050401329994213 1.3216426968574526 0.74086645245552074 0.12322651967406274 0.091159351170063033 0.77517503499984752 0.95762792229652416 0.69158312678337108 1.0000000180025095e-35 0.30113084614276892 0.80082893371582042 0.81835255026817333 0.99586799740791332 1.0000000180025095e-35 0.17587895691394809 0.79606539011001598 0.034297576174139983 0.55832189321517955 0.048012103885412223 0.87650212645530712 0.33954834938049322 0.69158312678337108 0.073616927489638342 0.75058212876319896 0.16529855877161029 0.11952662467956544 0.25040681660175329 0.10497179627418519 0.37645629048347479 0.1440156772732735 -0.15653926227241752 -0.052144586108624928 0.018099794164299968 1.0000000180025095e-35 0.049572508782148368 0.16703470051288608 1.2416375279426577 1.0000000180025095e-35 -0.80584731698036183 1.0000000180025095e-35 0.65857985615730297 0.99902650713920604 0.52364611625671398 1.5450725555419924 -0.1555005460977554 0.92818346619606029 0.83459720015525829 2.7146087884902959 -0.80584731698036183 0.40392021834850317 0.86265528202056896 1.0000000180025095e-35
decision_type=2 2 2 2 2 2 2 2 2 2 2 2 2 2 2 2 2 2 2 2 2 2 2 2 2 2 2 2 2 2 2 2 2 2 2 2 2 2 2 2 2 2 2 2 2 2 2 2 2 2 2 2 2 2 2 2 2 2 2 2 2 2 2
left_child=2 5 6 13 9 11 8 31 15 19 20 14 26 21 18 24 39 61 44 43 34 53 32 37 -1 48 40 55 -11 49 -15 62 -13 -29 51 -17 -27 -9 58 -8 41 -5 -26 -4 -2 -19 -23 -24 -21 -14 -33 -7 -30 -3 -51 -10 -32 -22 -28 -60 -20 -12 -6
right_child=1 3 4 12 7 10 16 23 27 28 17 22 29 30 -16 35 -18 45 60 25 57 46 47 -25 42 36 38 33 52 -31 56 50 -34 -35 -36 -37 -38 -39 -40 -41 -42 -43 -44 -45 -46 -47 -48 -49 -50 54 -52 -53 -54 -55 -56 -57 -58 -59 59 -61 -62 -63 -64
leaf_value=-0.030668607350318202 0.0090947388500609901 0.026916647168910162 -0.006765627322419485 0.038657465361131439 0.0049365437359787778 0.012407621861276705 0.012258219129685466 0.0089699929966385334 -0.015926745722020352 0.012380224260174651 0.022856747923791845 0.012378929777035365 0.06070362934311696 0.028032915786641476 0.0084055589490063132 0.0033935643584144001 0.047826363250992016 0.027586885881755396 0.015241058126634986 0.0049314226293613369 0.017681994579118527 0.028263291232215208 0.017007047428121643 0.026160490000870989 -0.013939707322436557 0.0054255223340023929 0.031067612614610503 -0.0063650227304003935 0.018010238126370835 0.052929559875760146 0.028684191891622191 0.0090947388500609971 0.016742462914244204 0.0050929603174055815 0.017902307134167905 -0.0062530097828224227 0.0089412122315889377 0.01259449953448325 0.039635060803844151 0.02211930793218039 0.031630933166668436 0.031858981015829624 -0.0035301088948755904 -2.6672998679495575e-05 0.012380224260174651 0.031536454647987766 0.026337266694052293 0.022766554295190103 1.1580483572082301e-08 0.039947054938046317 0.008496569085037018 0.016904432544222515 0.039009951404194755 0.026974058393993708 0.062807262826013122 -0.0063643106785205815 0.034629441161296654 0.021762981668925721 0.050722196915074451 0.038793043554856715 0.015595956770110846 0.024222788903133737 0.0088059437669884277
leaf_weight=12298324 436256 31474 1829230 7934 616074 161195 60963 401450 3017189 72998 129392 190274 18492 118459 114755 192949 19710 162208 169319 1173692 198627 205304 143228 29172 17781335 340896 166278 1615766 29607 3966 175329 213139 434156 114014 258765 264876 331082 252450 2878 36585 7183 217552 107148 2020577 169094 5950 10287 100742 3152329 195968 561059 341070 8989 86074 208633 2042111 57470 145057 14849 219746 169576 109184 257842
leaf_count=12298324 436256 31474 1829230 7934 616074 161195 60963 401450 3017189 72998 129392 190274 18492 118459 114755 192949 19710 162208 169319 1173692 198627 205304 143228 29172 17781335 340896 166278 1615766 29607 3966 175329 213139 434156 114014 258765 264876 331082 252450 2878 36585 7183 217552 107148 2020577 169094 5950 10287 100742 3152329 195968 561059 341070 8989 86074 208633 2042111 57470 145057 14849 219746 169576 109184 257842
internal_value=-0.000360136 0.0125501 -0.00173113 0.0197639 0.000784118 0.00888346 -0.0024874 0.00333229 -0.00252207 0.000121099 0.0113003 0.00698821 0.0225199 0.0154813 0.0055747 -0.00271333 0.0085801 0.01424 0.0061278 3.76303e-05 0.0102179 0.0131084 0.00871195 0.00586668 -0.002746 0.000413127 0.0209645 -0.00165877 0.00673896 0.0248378 0.0177319 0.00228189 0.00793458 -0.000951208 0.00943595 -0.000558981 0.00169413 0.00557379 0.0220304 0.0066737 0.0191148 0.0193733 -0.00257362 -0.000449857 0.0051255 0.016699 0.0146627 0.0107016 0.000214145 0.0249768 0.00303605 0.00878766 0.0110385 0.0102576 0.0251845 -0.00190068 0.0188288 0.0119495 0.022127 0.0228838 0.00791816 0.0125068 0.00161378
internal_weight=5.40283e+07 5.18672e+06 4.88416e+07 1.74788e+06 1.12906e+07 3.43885e+06 3.7551e+07 2.33119e+06 3.74337e+07 8.9594e+06 1.51145e+06 1.9274e+06 1.06348e+06 684397 1.059e+06 3.06446e+07 117258 406734 944245 8.84781e+06 1.10471e+06 333139 868400 683072 3.01868e+07 4.998e+06 636420 6.78908e+06 111594 427059 351258 1.64811e+06 624430 1.72978e+06 761030 457825 671978 653900 403751 97548 232669 225486 1.78885e+07 3.84981e+06 605350 168158 215591 243970 4.32602e+06 423093 774198 502265 38596 117548 404601 5.0593e+06 232799 343684 400873 234595 338895 238576 873916
internal_count=54028280 5186724 48841556 1747876 11290586 3438848 37550970 2331186 37433712 8959400 1511448 1927400 1063479 684397 1059000 30644632 117258 406734 944245 8847806 1104714 333139 868400 683072 30186807 4997999 636420 6789080 111594 427059 351258 1648114 624430 1729780 761030 457825 671978 653900 403751 97548 232669 225486 17888483 3849807 605350 168158 215591 243970 4326021 423093 774198 502265 38596 117548 404601 5059300 232799 343684 400873 234595 338895 238576 873916
is_linear=0
shrinkage=0.03


Tree=11
num_leaves=64
num_cat=0
split_feature=5 4 5 29 5 26 26 5 26 5 4 29 46 5 28 26 29 26 4 26 29 5 28 28 10 4 46 5 42 14 5 26 29 5 44 10 29 36 5 26 18 44 46 0 8 5 26 4 4 13 17 20 29 20 46 4 15 15 0 29 4 29 5
split_gain=1.022e+06 155468 96670.7 24911.5 20203.8 15332.4 14723.6 6751.84 6679.23 6627.92 4930.76 4910.37 4640.78 5293.31 3493.01 2621.32 2232.31 2026.24 1852.03 1615.61 1481.99 1349.82 1320.3 1297.28 1247.42 1203.6 1045.29 1021.61 990.789 963.008 953.591 870.097 858.67 787.28 763.61 694.81 687.319 592.748 575.469 561.834 554.959 546.477 505.841 501.846 455.034 454.229 449.011 415.825 408.53 401.191 400.243 400.21 394.691 389.644 384.85 403.592 382.755 358.826 357.081 345.012 340.299 339.321 332.645
threshold=0.46056032180786138 1.4569935798645022 -0.10049511492252348 1.0708141922950747 0.22953747212886813 0.25040681660175329 0.18713577836751941 -0.26551140844821924 0.16736749559640887 1.1316266059875491 0.57666298747062694 0.85049504041671764 0.10155995562672616 0.69158312678337108 0.92818346619606029 0.55557706952095043 0.93314391374588024 0.091159351170063033 1.0000000180025095e-35 0.19303213804960254 0.81835255026817333 -0.16650163382291791 0.67356005311012279 0.74086645245552074 1.0000000180025095e-35 0.74434497952461254 0.061284359544515617 0.83459720015525829 0.90891996026039135 1.0000000180025095e-35 0.33954834938049322 0.033547485247254379 1.5450725555419924 0.097524460405111327 0.15100762993097308 1.0000000180025095e-35 1.2114295363426211 0.015871894545853141 -0.034488591365516179 0.25040681660175329 0.50215849280357372 0.16703470051288608 0.049572508782148368 1.0000000180025095e-35 -1.5531954169273374 1.2856418490409853 0.046490343287587173 1.4989140629768374 0.28321942687034612 -0.64174920320510853 0.074241660535335555 1.0000000180025095e-35 0.63809907436370861 1.0000000180025095e-35 0.10497179627418519 2.4630857706069951 1.0320242047309878 0.37354260683059698 -0.15653926227241752 0.8275497853755952 0.66050401329994213 1.0708141922950747 1.6376765966415407
decision_type=2 2 2 2 2 2 2 2 2 2 2 2 2 2 2 2 2 2 2 2 2 2 2 2 2 2 2 2 2 2 2 2 2 2 2 2 2 2 2 2 2 2 2 2 2 2 2 2 2 2 2 2 2 2 2 2 2 2 2 2 2 2 2
left_child=2 6 5 11 10 7 12 17 30 24 19 22 13 35 26 40 59 29 21 31 -15 -9 52 41 -8 39 34 -26 57 -1 53 38 43 48 36 -2 -5 -20 -4 -10 -7 58 61 -16 -31 -22 -23 -27 -21 -33 -14 -32 -3 -6 55 -25 -17 -12 -13 -11 -29 -18 -60
right_child=1 3 4 14 8 15 9 18 25 16 28 23 50 20 32 56 42 -19 37 33 45 46 -24 54 27 47 -28 60 -30 44 51 49 -34 -35 -36 -37 -38 -39 -40 -41 -42 -43 -44 -45 -46 -47 -48 -49 -50 -51 -52 -53 -54 -55 -56 -57 -58 -59 62 -61 -62 -63 -64
leaf_value=-0.029748549129808659 0.0088218966845591586 0.023707869734891439 -0.0065617745150126014 0.031662191616018839 0.0079082729513560851 0.010867564054994821 0.014535656164987781 -0.012292566148253728 0.0086830485835107836 0.021731070485536574 0.0081567233720925194 0.032063809846661726 0.016061945795565438 0.01501920059511419 0.046133398831909631 0.029696730116034419 0.024500385025423448 3.62258506433033e-05 0.0056003191121029713 0.0020140238856134118 0.016665899420221935 -0.0061733813581649659 0.026591076937376137 0.025931972168389376 0.015986255902413291 0.016857930987947922 0.037909460892608778 0.019683640629621579 0.0303060231720053 -0.0027233260032311435 0.0088129422401929582 0.0060852937014029534 0.062297337314889942 0.0052627566639823244 0.03696208654515204 0.01200881753236941 0.037216930150820719 -0.0055121671980556597 -0.00015516584019058309 0.011959508088686732 0.019856125703849901 0.02583328832377127 0.029021009642433811 0.038906040959758866 -0.030250416130645108 0.022638866836700737 -0.0061751408799842512 0.033494986507857726 0.0096739235384878507 1.1233069061589163e-08 -0.021416293274376424 0.0082002598170368077 0.026196258259201941 0.0047884474238994159 0.031894810003411218 0.035170588011033531 0.057879218858435826 0.013936438894261837 0.023742261401436891 0.022418863056659168 0.020311993595625709 0.028997067301554727 0.028764153715642185
leaf_weight=12298324 614366 25420 1617116 220494 270316 61604 403697 8099823 385514 115898 27176 14992 95117 665844 3719 15969 137002 232316 103614 328745 165386 2460782 146635 227814 477113 55875 6563 47694 20289 155745 198630 369128 195394 295908 7583 238632 195211 511356 2150319 236743 42538 10180 7170 321409 12821836 92320 739370 9285 32523 3909158 43671 523298 101331 721420 2591 124670 7693 56705 80978 134042 167681 58344 120201
leaf_count=12298324 614366 25420 1617116 220494 270316 61604 403697 8099823 385514 115898 27176 14992 95117 665844 3719 15969 137002 232316 103614 328745 165386 2460782 146635 227814 477113 55875 6563 47694 20289 155745 198630 369128 195394 295908 7583 238632 195211 511356 2150319 236743 42538 10180 7170 321409 12821836 92320 739370 9285 32523 3909158 43671 523298 101331 721420 2591 124670 7693 56705 80978 134042 167681 58344 120201
internal_value=-0.0003839 0.0121675 -0.00174027 0.0193059 0.000704758 -0.00247006 0.00844753 -0.00250549 0.00314416 0.0106227 3.97014e-05 0.0155899 0.00668882 0.00710156 0.0226482 0.00790318 0.0136775 -0.00278089 -0.00191589 -3.79595e-05 0.00867533 -0.00200314 0.012274 0.017149 0.00936177 0.0056424 0.0206468 0.0101345 0.00652789 -0.00280652 0.00214202 -0.000154779 0.024301 0.00139225 0.020831 0.00539763 0.0210031 -0.000312601 -0.000487235 0.00523618 0.00585522 0.0153742 0.0160185 0.0233564 -0.00262626 0.010607 -0.0014815 0.00952164 0.000452505 0.00013798 0.0014055 0.00297147 0.0100316 0.00153822 0.0182805 0.0183651 0.0169167 0.00508896 0.0156941 0.0117807 0.0118495 0.0163057 0.0160269
internal_weight=5.40283e+07 5.26916e+06 4.87591e+07 1.80518e+06 1.12081e+07 3.7551e+07 3.46398e+06 3.74232e+07 2.40108e+06 1.54864e+06 8.80707e+06 854812 1.91534e+06 1.77655e+06 950373 127804 452456 2.55082e+07 1.19149e+07 8.7029e+06 923550 1.13e+07 273386 581426 1.09618e+06 687417 429851 692488 104170 2.52759e+07 1.71366e+06 8.04572e+06 520522 657176 423288 852998 415705 614970 3.76744e+06 622257 104142 226351 202516 325128 1.29776e+07 257706 3.20015e+06 65160 361268 4.27829e+06 138788 721928 126751 991736 355075 352484 23662 83881 216171 249940 215375 195346 201179
internal_count=54028280 5269162 48759118 1805185 11208148 37550970 3463977 37423166 2401081 1548641 8807067 854812 1915336 1776548 950373 127804 452456 25508221 11914945 8702897 923550 11299975 273386 581426 1096185 687417 429851 692488 104170 25275905 1713664 8045721 520522 657176 423288 852998 415705 614970 3767435 622257 104142 226351 202516 325128 12977581 257706 3200152 65160 361268 4278286 138788 721928 126751 991736 355075 352484 23662 83881 216171 249940 215375 195346 201179
is_linear=0
shrinkage=0.03


Tree=12
num_leaves=64
num_cat=0
split_feature=5 4 5 29 5 26 4 29 5 26 29 4 26 28 46 26 15 26 5 28 26 5 10 42 5 5 4 6 29 28 46 29 5 26 5 44 13 26 10 0 5 5 46 5 26 5 46 8 18 20 20 15 5 44 44 4 28 15 10 36 26 46 17
split_gain=980874 153259 93838.2 26738.3 20036.9 14726.3 13001.5 7483.49 7156.29 6470.31 4769.71 4712.86 4433.98 4234.65 2332.67 2258.46 2240.15 2121.88 1694.06 1575.66 1520.54 1487.23 1486.73 1163.13 1138.18 1131.11 1074.92 1054.02 1024.36 1018.6 1018.4 1017.15 953.752 839.605 789.555 759.208 749.691 650.518 624.171 611.788 630.679 589.656 583.494 653.401 572.474 572.423 493.249 478.124 441.171 400.21 389.385 385.901 383.631 378.984 364.616 344.773 340.303 338.364 337.983 333.925 312.518 312.396 292.12
threshold=0.46056032180786138 1.415073096752167 -0.10049511492252348 1.0708141922950747 0.22953747212886813 0.26444718241691595 0.78626549243927013 0.89259725809097301 -0.29851467907428736 0.16736749559640887 0.81835255026817333 0.53474250435829174 0.13855145871639254 0.92818346619606029 0.10825165733695032 0.55557706952095043 0.30532762408256536 0.077040113508701338 1.1206255555152895 0.84913116693496715 0.19303213804960254 1.1646298766136172 1.0000000180025095e-35 0.90891996026039135 0.63657769560813915 -0.16650163382291791 1.0377885699272158 0.19430556893348697 1.5450725555419924 0.58227339386940014 0.050085373222827918 1.2114295363426211 0.33954834938049322 0.033547485247254379 0.097524460405111327 0.1440156772732735 -0.96281075477600087 0.27941823005676275 1.0000000180025095e-35 -0.15653926227241752 1.6596788167953493 0.63657769560813915 0.010617701802402736 0.97761139273643505 0.25040681660175329 -0.045489681884646409 0.12953945994377139 -1.5531954169273374 0.50215849280357372 1.0000000180025095e-35 1.0000000180025095e-35 0.41208377480506903 0.16353096812963488 0.17087782919406894 0.15100762993097308 0.2412989288568497 0.77479279041290294 0.94371968507766735 1.0000000180025095e-35 1.0000000180025095e-35 0.2717061340808869 0.15368687361478808 0.073460783809423461
decision_type=2 2 2 2 2 2 2 2 2 2 2 2 2 2 2 2 2 2 2 2 2 2 2 2 2 2 2 2 2 2 2 2 2 2 2 2 2 2 2 2 2 2 2 2 2 2 2 2 2 2 2 2 2 2 2 2 2 2 2 2 2 2 2
left_child=2 6 5 10 11 8 12 21 17 32 29 20 14 30 24 48 25 36 60 35 33 38 41 51 -2 -10 44 -18 46 -3 31 54 50 45 55 39 -1 61 -8 -12 -41 -14 43 -24 -11 -4 -15 -38 -7 -34 -6 -13 -35 -33 -5 -22 -31 -17 -54 -29 -9 -20 -16
right_child=1 3 4 13 9 15 7 18 16 26 19 23 22 28 62 57 27 -19 37 -21 34 -23 42 -25 -26 -27 -28 59 -30 56 -32 53 49 52 -36 -37 47 -39 -40 40 -42 -43 -44 -45 -46 -47 -48 -49 -50 -51 -52 -53 58 -55 -56 -57 -58 -59 -60 -61 -62 -63 -64
leaf_value=-0.028856092655914399 0.0085572397840223812 0.025157444654571929 -0.0063576129182961356 0.030661443496005771 0.0076710247628154057 0.011368738850454604 0.014293938553637845 0.01726779653337027 -0.011444145710900744 0.0084404017492340569 0.030886351141929322 0.0079120216709297458 0.01078722948328659 0.037738859730966107 0.013582408135013361 0.027777433506068174 -0.0059881799174200155 0.0018239180680386102 0.022454286850080246 0.029792412092998027 0.00039529276398979406 0.020922391730319456 0.015108192043760288 0.029225541613448962 0.013970610686663672 -0.0059881799174200155 0.025484279193823164 0.0080201258812538038 0.06042841719544325 0.024378125297546231 0.036521383174890211 0.036100422246296095 0.0085485539729871669 1.0896076987343406e-08 0.0051048739640628567 0.025793987030559146 -0.0027723603166495648 0.025065074928524833 0.017700993470552158 0.022763993960763645 0.02795273593618347 0.014358409420563649 0.017398098012332004 0.023235716852272308 0.011857879305788148 -0.0001505108649848652 0.041490793886740797 -0.029342903646725753 0.01941350788771529 0.0079542520225257055 0.0046447940011824307 0.013403447853366215 0.005245147636559846 0.043416499160402668 0.029260792781646717 0.0091906848585773231 0.026394196004920951 0.053467921976893366 0.0052719149660109751 0.00036750223913983637 0.019434295114588176 0.0244618590503233 -0.041095965422054716
leaf_weight=12298344 422806 64174 1401475 225679 270316 50803 494193 75696 11398409 408565 23782 46843 220676 323688 79210 13685 1305157 182559 136568 204693 315895 258366 466290 21282 349203 2870256 25071 84085 195395 115825 7063 196264 198630 3621622 292038 18005 144819 119877 219971 178059 252895 304876 51025 66399 253781 2362846 1848 9002624 39415 523298 721420 61485 430354 2930 4588 43104 50085 9977 210123 150837 97163 2709 39161
leaf_count=12298344 422806 64174 1401475 225679 270316 50803 494193 75696 11398409 408565 23782 46843 220676 323688 79210 13685 1305157 182559 136568 204693 315895 258366 466290 21282 349203 2870256 25071 84085 195395 115825 7063 196264 198630 3621622 292038 18005 144819 119877 219971 178059 252895 304876 51025 66399 253781 2362846 1848 9002624 39415 523298 721420 61485 430354 2930 4588 43104 50085 9977 210123 150837 97163 2709 39161
internal_value=-0.000381159 0.0119151 -0.00170996 0.0188276 0.000698984 -0.00242898 0.00812816 0.0103403 -0.00246174 0.00312829 0.015138 3.66799e-05 0.00657433 0.0223248 0.00499755 0.00834273 -0.00197659 -0.00281635 0.0136259 0.0164055 -4.81347e-05 0.00888084 0.00783998 0.00571507 0.00559882 -0.00209392 0.00558715 -0.000889589 0.0241512 0.0114061 0.0201453 0.0203312 0.00214195 -0.000161236 0.00134625 0.0154534 -0.00284377 0.0151602 0.00817521 0.0156927 0.0159512 0.0066825 0.00888212 0.00917568 0.00535634 -0.000487723 0.0231205 -0.0026381 0.0061791 0.00297147 0.0015381 0.00445541 0.00012712 0.0219009 0.0189732 0.000403964 0.0126475 0.0165922 0.00080393 0.000960292 0.0113257 0.0137657 0.00107608
internal_weight=5.40283e+07 5.26916e+06 4.87591e+07 1.86497e+06 1.12081e+07 3.7551e+07 3.40419e+06 1.40454e+06 3.74371e+07 2.40108e+06 907518 8.80707e+06 1.99965e+06 957455 890380 113880 1.58087e+07 2.16283e+07 432013 677434 8.67746e+06 972530 1.10927e+06 129610 772009 1.42687e+07 687417 1.54008e+06 520931 230084 436524 429461 1.71366e+06 8.02642e+06 651037 472741 2.14458e+07 259154 714164 454736 430954 525552 583714 532689 662346 3.76432e+06 325536 9.14744e+06 90218 721928 991736 108328 4.2621e+06 199194 230267 358999 165910 23662 640477 234922 172859 139277 118371
internal_count=54028280 5269162 48759118 1864973 11208148 37550970 3404189 1404543 37437090 2401081 907518 8807067 1999646 957455 890380 113880 15808744 21628346 432013 677434 8677457 972530 1109266 129610 772009 14268665 687417 1540079 520931 230084 436524 429461 1713664 8026420 651037 472741 21445787 259154 714164 454736 430954 525552 583714 532689 662346 3764321 325536 9147443 90218 721928 991736 108328 4262099 199194 230267 358999 165910 23662 640477 234922 172859 139277 118371
is_linear=0
shrinkage=0.03


Tree=13
num_leaves=64
num_cat=0
split_feature=4 29 5 5 5 4 4 26 26 15 29 26 5 28 5 6 5 26 4 5 5 46 14 46 29 26 46 29 29 13 42 11 15 5 28 0 26 28 15 4 7 46 5 5 13 4 5 4 4 10 13 4 13 10 28 40 5 20 4 4 5 10 35
split_gain=919890 137124 112475 34145.3 21099.1 20028 8354.35 6371.79 5772.16 3961.49 3427.72 3064.51 2746.85 2715.6 2616.15 1907.83 1838.06 1778.37 1736.16 1448.72 1440.47 1400.6 1347.51 1157.86 1150.66 1116.38 1091.41 1100.22 979.773 933.724 779.143 731.273 729.369 709.234 692.223 687.691 667.352 647.495 620.223 602.766 565.796 532.739 529.64 515.207 514.378 487.737 461.306 455.157 434.939 426.888 424.078 422.446 405.553 403.313 361.19 351.55 347.537 333.323 322.704 319.969 285.804 297.469 284.319
threshold=0.53474250435829174 0.95762792229652416 -0.08949402347207068 0.28454293310642248 1.1206255555152895 2.3373241424560551 -0.30366761982440943 0.15094651281833651 0.25040681660175329 0.32664012908935552 1.2114295363426211 0.1411281302571297 0.17453207075595858 0.74086645245552074 1.1096244454383852 0.34216222167015081 0.49356356263160711 0.14528743922710421 1.2054705023765566 -0.1555005460977554 0.42755702137947088 0.15916980057954791 1.0000000180025095e-35 0.048012103885412223 0.80082893371582042 0.23238495737314227 0.064232934266328826 1.1317933797836306 1.5450725555419924 -0.76161211729049672 0.80881410837173473 0.75058212876319896 0.40840362012386328 0.75758960843086254 0.8834899663925172 -0.15653926227241752 0.14528743922710421 0.72746825218200695 0.64646181464195263 1.0000000180025095e-35 -1.7027273774147031 0.06519628688693048 0.44955924153327947 -0.29851467907428736 -0.76731988787651051 0.32513995468616491 0.42755702137947088 1.2893115282058718 2.1696420907974248 1.0000000180025095e-35 -0.46338158845901484 0.99586799740791332 -0.018176183104515072 1.0000000180025095e-35 0.8834899663925172 0.24853807687759402 1.4946624636650088 1.0000000180025095e-35 1.0000000180025095e-35 1.0377885699272158 -0.023487509228289124 1.0000000180025095e-35 0.67210513353347789
decision_type=2 2 2 2 2 2 2 2 2 2 2 2 2 2 2 2 2 2 2 2 2 2 2 2 2 2 2 2 2 2 2 2 2 2 2 2 2 2 2 2 2 2 2 2 2 2 2 2 2 2 2 2 2 2 2 2 2 2 2 2 2 2 2
left_child=2 4 6 12 8 14 11 20 16 19 29 22 32 24 51 58 36 -14 33 39 57 49 -1 28 55 42 27 37 44 -7 -17 59 50 -10 -20 -31 -2 -16 -13 52 -24 47 -9 -42 -12 -34 -27 -26 -15 -22 -4 -3 -8 -35 -37 -6 -57 -5 -11 -18 61 -52 -48
right_child=1 5 3 7 13 10 9 25 18 15 23 38 17 48 26 30 31 -19 34 -21 21 -23 40 -25 41 46 -28 -29 -30 35 -32 -33 45 53 -36 54 -38 -39 -40 -41 43 -43 -44 -45 -46 -47 62 -49 -50 -51 60 -53 -54 -55 -56 56 -58 -59 -60 -61 -62 -63 -64
leaf_value=-0.027990409876236969 0.0082142972767687093 0.018185356769196487 0.00046822704892766741 0.0083175598307001809 0.019804813703298545 0.042294842755108981 -0.010982123408495185 0.0081377056433445116 0.014994677925718077 -0.0055169971073675385 0.048128838052447095 0.014522620301115917 0.0048155246315558942 0.020992007136534908 0.02382774765432457 0.00492997930473257 0.011854117748066724 0.0081094057764414269 0.022697113910227343 -0.0058085345198974165 0.0083552064223230069 0.0069567830965172649 0.0011642303066021276 0.045783306301426303 0.019741806478980582 0.01179075331585281 0.028831848190061172 0.028597131439947999 0.057706403111891957 0.032360944909565009 0.017810990830767561 0.015269141426391955 0.00025430309289055765 0.015610815662630216 0.033612203057375049 0.030853322279549553 0.011956385851478631 0.024947475408975083 0.042310270654866838 -0.0027763001819631206 -0.02846261653732398 0.022820253368456247 0.012553840833782704 -0.011580464792479095 0.036217607719915175 0.008466963387772284 0.014548112973558111 0.023973910315161114 0.031223065718956129 0.011391835812877659 -0.0066345906037515801 0.023403589635516774 -0.011100821339573724 0.018556432816668977 0.033889546317703016 0.018948931972309617 0.026870848848850361 0.0045054501811469571 0.0013096848652246274 0.015816237819829645 -7.493646885188943e-05 -0.00010891999624507376 0.033634146454084121
leaf_weight=12298324 264587 73599 772152 215101 30406 37436 3794251 255620 261683 992818 20760 27528 1079296 235437 203676 130702 685914 393499 96756 2685000 497115 97695 53694 5296 154108 153425 11703 145072 216610 5652 36391 304693 1276607 38045 26599 118035 203177 223747 5493 192906 7436156 10796 278028 2513850 316194 105919 205850 184560 88118 187705 1234522 63637 7681778 110043 154487 149755 83426 581650 158069 187922 3124195 845215 5797
leaf_count=12298324 264587 73599 772152 215101 30406 37436 3794251 255620 261683 992818 20760 27528 1079296 235437 203676 130702 685914 393499 96756 2685000 497115 97695 53694 5296 154108 153425 11703 145072 216610 5652 36391 304693 1276607 38045 26599 118035 203177 223747 5493 192906 7436156 10796 278028 2513850 316194 105919 205850 184560 88118 187705 1234522 63637 7681778 110043 154487 149755 83426 581650 158069 187922 3124195 845215 5797
internal_value=-0.000408817 0.0122553 -0.00161881 0.00100762 0.00859276 0.0194064 -0.00240033 0.00411957 0.00697445 -0.00186935 0.022459 -0.00277291 0.000134443 0.0123585 0.0157064 -0.000295294 0.00609587 0.00131708 0.00968751 -0.00201388 0.00297198 0.00388622 -0.00278643 0.0238705 0.0111849 0.00613616 0.016582 0.0167674 0.024004 0.0199596 0.00270024 0.0067274 -0.000102256 0.0087482 0.0128078 0.0205582 0.00450475 0.0160012 0.0063595 -0.00215845 -0.00252787 0.0123137 0.00526162 -0.00254444 0.0229921 0.000518711 0.00741452 0.0125228 0.014582 0.0043656 -0.000245913 0.011979 -0.00218641 0.0104073 0.0207731 0.00968837 0.010084 0.00207407 -0.000730204 0.00628612 -0.00034326 -0.000615752 0.00832248
internal_weight=5.40283e+07 4.71193e+06 4.93164e+07 1.13094e+07 3.11602e+06 1.5959e+06 3.8007e+07 2.47799e+06 2.17942e+06 1.56719e+07 874470 2.2335e+07 8.8314e+06 936606 721434 1.31798e+06 1.64629e+06 1.4728e+06 533126 1.43539e+07 1.57927e+06 782515 2.2302e+07 558860 613051 898720 584198 572495 553564 315610 167093 1.17853e+06 7.35861e+06 409771 123355 278174 467764 427423 33021 1.16689e+07 1.00037e+07 349464 533648 9.95001e+06 336954 1.38253e+06 365072 338668 323555 684820 5.97608e+06 137236 1.1476e+07 148088 272522 263587 233181 796751 1.15089e+06 873836 5.20393e+06 2.07974e+06 211647
internal_count=54028280 4711929 49316351 11309391 3116025 1595904 38006960 2477986 2179419 15671915 874470 22335045 8831405 936606 721434 1317980 1646293 1472795 533126 14353935 1579266 782515 22302024 558860 613051 898720 584198 572495 553564 315610 167093 1178529 7358610 409771 123355 278174 467764 427423 33021 11668935 10003700 349464 533648 9950006 336954 1382526 365072 338668 323555 684820 5976084 137236 11476029 148088 272522 263587 233181 796751 1150887 873836 5203932 2079737 211647
is_linear=0
shrinkage=0.03


Tree=14
num_leaves=64
num_cat=0
split_feature=4 29 5 5 4 5 4 26 26 15 29 4 29 5 26 26 6 29 4 14 5 13 5 46 28 29 29 0 46 5 5 26 42 5 32 4 26 28 15 13 7 4 5 4 10 46 28 5 0 13 46 28 4 35 10 26 5 20 5 16 35 26 4
split_gain=869734 136296 110155 33138 21150.9 19946.8 8571.89 6015.86 5734.59 3808.77 3534.49 2948.27 2897.88 2816.65 2815.62 1778.37 1721.87 1690.83 1663.51 1385.65 1373.1 1353.71 1310.08 1327.68 1133.05 988.472 956.23 925.578 806.845 768.978 758.069 704.897 683.179 625.902 602.47 601.909 597.904 567.228 567.01 540.839 539.937 535.86 525.016 459.969 453.128 439.38 430.02 413.45 411.797 407.655 406.721 395.937 357.872 345.814 342.885 326.309 315.658 313.048 297.202 295.435 281.21 280.206 278.321
threshold=0.53474250435829174 0.95762792229652416 -0.08949402347207068 0.28454293310642248 2.4630857706069951 1.0546190142631533 -0.30366761982440943 0.15094651281833651 0.26072351634502416 0.32664012908935552 1.3216426968574526 1.3312321305274966 0.8275497853755952 0.17453207075595858 0.1335018649697304 0.14528743922710421 0.34216222167015081 0.71194815635681163 1.2054705023765566 1.0000000180025095e-35 -0.1555005460977554 -0.76731988787651051 0.41655594110488897 0.16371624916791919 0.77479279041290294 0.74092915654182445 1.0708141922950747 -0.15653926227241752 0.048012103885412223 0.87860155105590831 0.73558744788169872 0.22698451578617099 0.80881410837173473 1.3956527113914492 0.13892656564712527 1.0000000180025095e-35 0.11632430925965311 1.0764362812042239 0.94371968507766735 -0.40915784239768976 -1.7027273774147031 1.0377885699272158 -0.29851467907428736 3.4272570610046391 1.0000000180025095e-35 0.073684472590684905 0.7573981285095216 0.41655594110488897 -0.15653926227241752 -0.018176183104515072 0.12953945994377139 0.74086645245552074 2.1696420907974248 0.70603680610656749 1.1475552320480349 0.18713577836751941 -0.012486427323892711 1.0000000180025095e-35 0.42755702137947088 0.32188820838928228 0.43873097002506262 0.018099794164299968 0.2412989288568497
decision_type=2 2 2 2 2 2 2 2 2 2 2 2 2 2 2 2 2 2 2 2 2 2 2 2 2 2 2 2 2 2 2 2 2 2 2 2 2 2 2 2 2 2 2 2 2 2 2 2 2 2 2 2 2 2 2 2 2 2 2 2 2 2 2
left_child=2 5 6 13 11 8 14 22 17 20 21 29 33 31 19 -15 55 36 30 -1 35 -6 57 44 45 -9 46 -23 37 -3 -10 39 -18 -7 -16 49 58 -12 -20 -4 -21 54 -42 -29 -24 59 -13 -27 -35 -8 -31 -28 -26 -49 -19 -11 61 -5 -2 -14 -34 -41 -33
right_child=1 4 3 7 10 12 9 25 18 16 28 26 24 15 34 -17 32 41 38 40 -22 27 23 -25 52 47 51 43 -30 50 -32 62 60 48 -36 -37 -38 -39 -40 56 42 -43 -44 -45 -46 -47 -48 53 -50 -51 -52 -53 -54 -55 -56 -57 -58 -59 -60 -61 -62 -63 -64
leaf_value=-0.027150697579949857 0.0074815730110961943 0.017991845562960133 0.00046814836252122348 0.0081027164113169851 0.042394594618176032 0.017614251209583716 -0.010652659706240328 0.0095229488947408784 0.014726368198308918 -0.0051559437600792648 0.036839014849545604 0.023715314965881942 0.023962560697074593 0.0046710588926092145 0.012159804487188086 0.0078661236031481833 0.0047820799255905919 0.011817603901802429 0.022757088205932856 0.0011293033974040623 -0.0056342784843004924 0.03316856520897226 0.0081045502296533192 0.0041441640143980033 0.021123196261115654 0.0079252139042281025 0.026707927617313179 0.029538902832173603 0.048461200553612159 0.022026573911935372 0.017541807814922952 0.004944098652354254 0.010517946753953115 0.025176694986990249 0.040088499385196416 -0.0026930111765042252 0.011523074243640118 0.054069798344585009 0.040574933004472152 -0.0061908172557109363 -0.027608738041204259 0.016377309922158752 -0.011233050848704722 0.036814668422919125 0.011050080738491327 0.022567632339521054 0.024387967137699081 0.013854518417797633 0.024269812052368871 -0.010767796699386508 0.026019462542255956 0.027340275514424962 0.029787558239079585 0.033071480400851477 0.014603077360874489 0.0020287074503241185 -1.1074574600393737e-05 0.0043702866757125468 0.010342207850809471 0.01734655848174697 0.022309398537325841 -0.00011654908903178995 0.0086648408481069597
